1909 128
?AT0004 0.04726372 -0.039264508 0.05223672 -0.03198429 -0.00846064 7.337004e-05 0.08106592 0.027372556 0.0587327 0.068007894 0.07986618 0.01329215 -0.023253614 -0.02993434 -0.016896263 0.05656036 -0.03316998 -0.026712332 0.06278069 -0.009758775 0.02455967 -0.011914929 -0.010325921 0.042881116 0.0031739024 -0.048531193 0.04792402 0.02311931 -0.032149326 -0.002305435 -0.024105953 0.053524088 0.080531396 -0.009240133 0.013768123 0.0751115 0.077096894 0.011351115 0.045829516 0.00816464 0.016028216 -0.038892623 0.00201216 0.019419584 -0.0059585366 -0.00097095966 -0.039065704 -0.024518875 -0.011826024 0.014874048 -0.026111266 -0.0055097668 -0.048791874 0.028797455 0.04974319 0.004840253 0.030029964 -0.06368329 0.017224258 -0.01290126 -0.017368037 -0.044474017 -0.03795472 0.07499314 0.012419642 0.0047849277 -0.03246894 -0.08111686 -0.079465665 0.051309433 -0.08406734 0.018670205 -0.06282542 0.019395793 -0.009246053 -0.08643267 -0.03480105 0.041986343 0.01650526 0.0047280756 0.028783273 -0.018371034 -0.01892639 0.001555999 -0.012060846 -0.03494203 0.036378417 0.032608427 0.040734824 -0.07418775 -0.05246542 -0.00027913373 0.02739762 -0.016211959 0.013190313 -0.06000598 0.00051975984 0.064457014 0.021490756 -0.08517046 0.06510742 -0.03384232 -0.055659693 -0.050083067 0.033965226 -0.017904064 -0.07572388 -0.004354763 -0.0030035952 -0.063925244 -0.03938015 0.03545081 0.02025546 -0.016977793 0.01810004 0.018471157 0.0026145636 0.018541116 -0.04404949 0.082407184 -0.010629328 0.06444762 0.013836499 0.06907543 -0.011479849 -0.06776327 -0.04301803 -0.033535603
?AT8933 0.026061459 0.010080098 0.0280336 -0.06450336 -0.09177594 0.004589017 0.0012721644 0.07224435 0.07411123 0.004637242 0.02673093 -0.010179005 -0.013009404 -0.010686611 0.033618443 0.08978486 -0.055328585 -0.031327948 0.06312796 0.0073966393 0.06563867 -0.018277058 0.05990341 -0.010171801 0.026972605 -0.096260615 0.001973861 0.07622437 -0.08704008 0.012694842 0.07423972 0.017733075 0.043828122 0.0395141 -0.028103622 0.045310117 -0.06711886 0.05172944 0.030769216 -0.07476044 0.033197593 0.034406085 0.049514778 0.006480439 0.010624731 -0.032382004 -0.028228434 -0.024263877 -0.048505764 0.06383689 0.0152528575 0.10657473 -0.07469722 -0.05363913 -0.031071518 -0.025574932 0.065953754 -0.06950725 0.03244624 0.02040278 0.0006349455 -0.03337191 -0.0015406095 0.008466902 -0.052820396 0.06561183 -0.07796759 0.021695826 -0.05195191 0.04279729 -0.07989337 0.008671931 -0.012751516 -0.04973686 -0.028978033 -0.062351488 0.019761834 0.0875636 -0.01709 0.038673196 -0.057996515 -0.06205665 -0.047242664 -0.005268508 0.011937576 -0.06712832 0.04339964 0.046523947 0.02013026 -0.022474557 -0.027797647 0.09115469 0.11774012 -0.040525313 0.004485857 -0.0022536325 -0.04872583 0.012858558 -0.030652246 -0.10614493 0.03785057 -0.012686277 0.053728666 0.045848403 -0.026228856 -0.059631225 -0.0039842385 0.010544515 -0.044970687 0.025726186 0.03819338 0.031730425 -0.076906234 0.061649583 -0.052950475 0.08892197 -0.026416164 -0.062808216 -0.0660831 -0.018625056 -0.05671087 0.04194574 -0.035909224 -0.047316004 -0.04093982 -0.084595084 -0.074121766 -0.0060774633
?AT5331 -0.024587825 0.0034398402 0.016179679 -0.057330713 -0.019802993 -0.010310023 0.056762062 -0.034466714 0.055936355 0.08548266 -0.03503009 -0.0003921576 -0.050219584 -0.042022422 0.054771286 0.0013065954 -0.015301441 -0.081588164 0.0658441 0.08861962 -0.0066771386 0.008822206 -0.012105475 0.031722352 -0.02850065 0.027082903 -0.0071863937 0.02082573 -0.049022708 -0.048552446 -0.02417421 0.009920079 0.0034669926 -0.054496985 0.02902055 0.048276402 0.009246097 -0.022413107 -0.028536666 -0.00820426 0.010794411 -0.013012779 0.0555187 -0.034302182 -0.0071754497 -0.0020651913 0.015156617 0.013683977 -0.012001355 0.009837885 -0.014943939 0.0036130445 -0.05611745 -0.0048496844 0.042696983 -0.057178915 0.053189207 -0.07056965 0.016811768 -0.00049624627 -0.01832024 -0.085801385 0.0010217979 0.05542702 -0.027605101 -0.016004989 0.041985616 -0.04564223 -0.0014226836 0.017992254 -0.02380646 0.0083925165 -0.027674092 0.017438458 0.027592978 -0.031196732 0.022572499 0.00574987 -0.044142872 0.060343478 0.051433526 -0.050128948 0.01743536 -0.0268205 0.028160978 0.006225821 0.060528457 -0.00726938 -0.0534762 0.040078737 -0.09075826 -0.09708224 -0.015824046 0.042938072 -0.06740664 0.0075618215 0.04511592 0.061081484 0.00019538213 -0.017878216 0.036639158 0.037363492 -0.0772576 0.00036512807 0.05836142 0.045654465 -0.0076166103 -0.0059914566 -0.004800208 0.04313126 0.031040581 -0.030452818 -0.068181194 0.043127526 -0.055655036 -0.007882954 0.039484974 -0.020577524 0.0090303 0.041786186 0.0008619337 0.06134219 -0.002945551 0.0497397 0.06643236 -0.023825895 -0.044222154 -0.030264901
?ATB708 0.0356847 0.011497886 -0.0063010636 0.031677768 0.01002598 0.018563788 0.039149463 -0.0043757968 -0.00904014 -0.022303546 0.0588256 -0.004035314 0.044687737 -0.02018832 -0.050908674 0.084900685 0.022172773 0.0032611385 0.019158853 -0.04382439 0.028428392 0.014334872 -0.01188399 -0.01931492 -0.023347586 -0.048474856 0.031018 0.022361835 0.0064542633 -0.043377183 -0.05139183 0.00074985425 0.03603014 -0.015481339 -0.07325349 0.0009016981 0.06851822 -0.03589717 -0.00076948496 0.02691906 0.018011317 -0.035491332 0.004495773 0.025740268 -0.03415051 -0.025905846 -0.020683052 -0.02206198 0.014148512 0.0069304653 -0.011336232 0.03839053 -0.039758183 0.011509356 0.015363674 -0.015703443 0.025707055 -0.07391278 -0.009165552 -0.02595195 -0.001631556 -0.022690164 -0.051809788 -0.0038952339 0.022496995 -0.047592726 0.013580407 -0.105925 -0.05279994 0.019726293 -0.006325165 -0.030697038 -0.033823807 0.013149127 0.02540218 -0.024159854 0.0115776025 0.002744771 -0.0682961 -0.0026642724 0.012622845 -0.013139365 0.015083996 -0.003736516 -0.0058577866 0.03645082 0.02896637 -0.059129875 0.010011581 -0.04699462 -0.03506051 -0.030045584 0.057301458 0.01045603 -0.01460462 -0.035008065 0.01883178 -0.012454671 0.039056282 -0.06544032 -0.009551936 -0.067275636 -0.020719362 -0.019930316 0.034943435 -0.008655648 0.0062825014 0.061322745 -0.046158783 -0.052399885 -0.04647414 -0.022381237 -0.0043716887 -0.019754393 -0.024039447 0.014260881 -0.043646343 0.030878719 -0.0016707092 0.06571579 0.028695874 0.024033794 0.03328388 0.0789947 0.025228422 0.010757075 0.028248437 -0.009140413
?AT0008 0.03894371 -0.058529254 -0.05165038 -0.06731951 0.0075164307 0.019323459 0.04662338 0.035786092 0.039759878 0.013250839 -0.03866965 -0.044785466 -0.01798004 0.008179179 0.08493588 0.027318373 0.041192144 -0.06175809 -0.024449313 -0.033376224 -0.062444054 0.054349564 0.0010975788 -0.07680961 0.056021433 0.011008684 -0.030647827 -0.01136718 -0.056792323 -0.008426654 0.034314916 0.004535184 -0.03785295 0.008926772 -0.027832925 0.048254058 0.024443032 -0.0130600035 -0.039217044 0.058201507 -0.011167758 -0.004325131 -0.0053499034 0.023947466 -0.06551551 0.008763384 -0.028039042 -0.041090094 0.00952174 0.032392252 0.062117238 -0.06622849 -0.040623195 0.017904136 -0.045704428 -0.034647603 0.03823112 -0.005632201 -0.046592485 -0.045778554 -0.05774301 0.034116324 0.006485117 -0.0008401908 -0.0031686223 -0.076418124 -0.01581255 -0.018398015 -0.03590508 0.0049376898 0.038407087 -0.08394795 0.049613457 0.017816035 -0.0061299866 -0.10073164 -0.043003652 -0.00062633015 0.0471869 -0.00729343 -0.017453318 -0.02969715 -0.02740871 -0.05716948 0.040185712 -0.006990878 0.044680957 -0.0428688 0.004463684 -0.020691918 -0.05326441 0.002820881 0.015030742 0.04883653 -0.07579818 -0.022609465 -0.041215427 -0.045808267 0.004521597 -0.009497583 -0.0778487 0.022196954 -0.03926098 0.052766405 -0.095788114 0.012101274 -0.049659036 -0.0073788636 0.033142474 0.039784472 -0.024278337 0.08660477 0.008606642 0.059638362 -0.008410455 -0.011720111 0.058558017 0.017880844 -0.039606154 -0.04330555 0.062710896 0.024303598 -0.008510096 0.039954253 -0.033567917 0.019181931 0.041215118 -0.061033648
?ATB071 0.0040941737 -0.108250506 -0.052477825 -0.030208182 0.022445742 0.069236144 -0.022360586 -0.007487803 -0.021127643 -0.011336836 -0.064650476 -0.03231991 -0.038041003 0.06483556 0.12371658 0.0020098805 0.05129189 -0.020089814 0.02421388 -0.014324789 0.0063721407 0.08687199 0.057940986 -0.02257565 0.01914124 0.02423458 0.016220119 0.028183552 0.031156441 -0.014544777 -0.058539554 -0.022192791 -0.022155074 1.0007556e-05 0.0057960907 0.02577135 0.010878173 -0.08765857 0.028800564 0.07496895 0.025522023 -0.022449726 0.0143188685 0.050473597 -0.041644953 0.01373265 -0.03735644 0.01846013 0.009996315 -0.05367591 0.10357012 -0.08842662 -0.030771092 -0.039013524 -0.04012129 -0.07935915 0.020532876 0.07424597 -0.048513375 -0.012655288 -0.06058519 0.037451506 0.0067010196 0.08696984 -0.026977826 -0.027292665 -0.0005312841 0.02347195 -0.03482608 0.022710564 -0.031587023 -0.026165659 -0.013812473 0.034992337 -0.067287944 -0.08255304 0.005430851 0.0022853639 0.024502793 0.04337907 -0.034280878 -0.07777477 0.04725203 -0.035695724 0.06311207 -0.0031458393 0.015126366 -0.002054822 -0.031626716 -0.034506194 -0.07698017 -0.008892973 0.0059032566 0.0620167 -0.014432787 -0.000856046 -0.02820867 -0.06340933 -0.022280259 -0.00070706697 -0.08864901 -0.057207532 -0.0003481108 -0.0007879043 -0.08078614 0.024809519 -0.07154061 -0.019538708 0.01868457 0.010485501 -0.017238619 0.036008034 0.06661894 0.06409484 -4.2491687e-05 0.034757998 0.0057872627 0.02483691 -0.033740185 -0.051269643 0.04628458 0.063395366 0.0090074185 -0.048940085 0.039164927 0.013515153 0.0020989215 -0.06892972
?ATA767 -0.016136155 -0.057946175 -0.039726418 -0.030985761 0.048638985 -0.030478226 -0.070934065 0.02489195 0.090549015 0.07098017 -0.077892624 -0.049275834 -0.0234493 0.05825328 0.06042418 -0.0026173375 0.01379474 -0.046507053 -0.05461906 0.018379219 0.022386028 0.003157026 -0.01851074 -0.07075624 0.068922 0.054009296 -0.021790026 -0.03862541 -0.035242178 -0.05133643 0.066312246 0.017697042 -0.031739917 0.003713148 -0.029644424 0.08003616 0.028187085 0.015642786 -0.058015604 -0.0033988138 -0.044938996 0.017074104 -0.02253363 0.018332446 -0.009765823 0.07692409 -0.0015317831 -0.051216457 -0.014619589 0.07124315 0.046288997 -0.0012892254 -0.031028075 -0.010395148 0.013801141 0.036938045 0.045695994 0.0061153146 -0.07313024 0.020178435 -0.024269924 0.026477551 0.05924121 0.024610583 0.022419754 -0.051045377 0.0054176324 -0.0274445 -0.07152091 -0.029475866 0.06456874 -0.0655682 -0.0034160963 -0.021956164 0.013832948 -0.017693367 -0.026603794 0.003903731 -0.060189772 -0.023173446 -0.03887565 0.04832271 -0.03302649 0.0027039829 0.012872302 0.022390978 0.012188266 -0.015073298 -0.07069919 0.024627648 -0.00554815 0.020105924 0.0015036201 0.007147845 -0.0067431694 0.050730307 -0.019212032 -0.0041462877 0.012705615 0.013141161 -0.03097992 -0.015208219 -0.07460718 0.007525627 -0.034516618 -0.02909213 -0.020345181 -0.037943613 0.018649746 0.071108215 -0.0244009 0.0023988932 0.013178895 0.030351102 -0.0716192 -0.06011988 0.03073694 -0.032722745 -0.009589988 -0.039491516 -0.006775614 0.040371362 0.001619298 -0.016888954 -0.030606143 0.015771149 0.0067448798 -0.0119363675
?AT0010 0.02439025 -0.08885152 -0.015717532 0.01512207 0.014868435 0.00088223966 0.012484076 -0.0040291357 0.055639815 0.05468146 -0.019709615 0.045922942 0.055903614 0.01358443 0.044786602 -0.03460238 0.0072207144 -0.0014865951 -0.03038228 -0.05389674 0.00719029 -0.06140044 0.08943915 -0.05622649 -0.048343834 -0.06428471 -0.04275964 -0.0029857983 0.040730145 0.07855852 -0.042106427 -0.013069224 0.023069095 0.036276072 0.017774088 0.032503333 0.023793468 0.021009289 -0.0042682514 -0.021481954 0.017683856 0.032052197 0.003666988 0.07123863 0.08017746 -0.029008135 0.0023957414 0.010331817 -0.07842777 0.057839587 -0.051695984 -0.0843355 0.040819332 0.00548407 -0.063153476 0.03445543 -0.0015570961 0.036601186 0.050722655 -0.03447014 0.024034867 -0.08212773 0.026840022 0.0035344928 -0.03092103 0.020667149 0.050316665 0.007948544 0.0813358 0.020033583 0.027700398 -0.022234006 0.06524094 0.022951443 -0.030472994 -0.08095377 0.039946016 0.0464462 0.054799333 -0.027420472 -0.024614219 -0.0389494 -0.039533008 -0.014296291 0.039377388 0.06853504 0.033244032 -0.059476495 0.02759521 -0.06664602 0.018491881 -0.025019068 0.0038936615 0.062395725 -0.0015645932 0.01382627 0.005818852 -0.0019973407 -0.028883819 -0.061033465 -0.010065024 0.033345815 0.008040263 0.008773619 0.07499317 0.026598612 0.0132282395 0.011751156 0.018615836 -0.025192186 -0.030671861 0.022234794 -0.053781755 0.06862894 0.062194966 -0.06358587 -0.037737817 0.02987136 0.03986732 -0.017572826 -0.01399835 0.010934568 0.055993997 0.018217737 0.02455508 -0.0006902236 -0.063494824 -0.013183551
?AT0507 -0.028160326 -0.02335383 -0.01715682 0.102742724 0.01813868 -0.058273196 -0.004593635 -0.03585017 0.009875168 0.013381068 0.0078059235 0.025139095 -0.01170052 -0.027482148 0.069922864 -0.0015846232 0.024892898 -0.041189983 -0.037863713 -0.06104648 0.08689078 -0.039700255 0.06038717 -0.0031382062 0.049584944 -0.08084814 -0.05606091 -0.034900546 0.026130136 -0.018665068 -0.105121724 0.07413064 -0.009133567 0.072458945 0.015898764 0.046693586 -0.03113031 0.0745912 -0.05801034 -0.021619255 0.0035219633 0.06708194 0.010089968 0.09866221 0.06664899 -0.024079887 0.010497684 0.043010198 -0.06443624 0.047300138 0.0009097152 -0.008026953 0.08142631 -0.040015176 -0.06777813 0.064596154 -0.011956616 -0.012065575 0.03549502 0.0047768196 -0.016165974 -0.053771574 0.0260875 0.013062123 -0.046550393 -0.012505668 -0.026894908 -0.03569296 0.046443608 0.00897461 -0.008911974 -0.013176973 0.08915931 -0.06604319 -0.036407553 0.0008810712 0.012219208 0.023437154 0.032817047 -0.0016026739 -0.023388717 0.057374764 0.021261584 0.022905814 0.02508443 0.03401388 0.0066775 -0.04503638 -0.004770608 -0.0945908 0.005761193 -0.061201602 0.0335838 -0.021881193 0.011343392 0.046841644 -0.007316986 0.058110353 0.037249785 0.019847473 -0.0030030238 0.037085425 0.011615141 -0.04053292 0.03907111 -0.06065519 0.007215812 -0.012016707 0.07066444 0.05523398 -0.03908813 0.027538054 -0.0045741485 -0.048097663 0.079563566 -0.05663275 -0.008984874 -0.03204027 -0.060706764 0.023599073 -0.0111693535 -0.0034434644 0.012867503 0.05632602 -0.06602122 0.012408443 -0.06627397 0.0027657093
?ATC367 0.02547059 -0.05559584 -0.049776144 -0.025145996 0.03907974 -0.032304514 -0.016250815 -0.061119877 0.009023286 0.018728208 0.0046695964 -0.0061058104 -0.024200737 0.0054883813 0.0696086 -0.020065954 0.028304128 -0.051941577 0.009109678 -0.034346834 0.021076435 -0.078089885 0.036299657 -0.0138561 -0.014575633 -0.058701444 -0.07909072 -0.06377515 -0.03177506 0.049635496 -0.03245138 0.06938242 -0.016527016 0.061027605 -0.0040859757 0.017665893 -0.042703584 0.028720485 -0.003755795 0.022972824 0.00869905 0.03748313 -0.017548144 0.04435213 0.0053318534 -0.044732966 0.0833672 -0.032250583 -0.01185212 0.046773933 -0.046050213 -0.00540966 -0.058028147 -0.021523846 -0.053361535 -0.030409802 -0.042210184 0.0619431 0.06371241 -0.044164445 -0.0026942631 -0.09627096 -0.038789254 -0.03614226 -0.047494166 -0.048541274 0.06027531 0.028830536 0.06710964 -0.052799597 -0.042947784 -0.0015305278 0.037551366 0.053327445 -0.0300448 -0.09377084 0.027437234 0.019254591 0.014447126 -0.022296645 -0.011419219 -0.029577179 0.044398345 0.036681212 0.016864933 0.039193768 0.032677826 -0.0034072706 -0.030353045 -0.030322142 0.021024596 -0.050457142 -0.00893283 0.06712933 0.065238185 0.0029720983 0.07050052 0.021406254 0.007936699 -0.0040955027 0.008258665 0.021166932 -0.022189246 -0.04071726 0.045434922 0.004146853 -0.05119516 -0.06211432 -0.049959186 0.020045012 0.00900641 0.03545091 -0.04818893 0.044779148 0.0076966253 -0.00027011917 -0.033171136 0.06418737 -0.026516773 0.03206377 0.026054772 0.002928883 0.032766134 0.03135507 0.027019229 0.05935586 -0.013564687 0.06516416
?AT9633 0.012214148 0.059611008 -0.07206106 0.028047506 -0.058410272 -0.022399282 -0.0061893845 -0.05730367 0.054259717 0.04457058 -0.05864769 -0.029318444 -0.011170395 0.078916036 0.045559183 0.025297815 0.046328146 -0.07027218 0.016144732 -0.054982144 -0.014784036 0.08755652 0.074569665 0.00083883526 -0.02708735 -0.010331215 0.022721373 -0.02038143 0.016038759 0.035944216 0.034769967 0.069598325 0.032596126 -0.04752504 -0.01889812 -0.1092116 0.034900974 0.042356472 0.004359785 0.0027228626 -0.06869394 0.04007663 0.0039878623 -0.005659454 0.013903786 -0.06376098 -0.053010665 -0.015973756 0.0019017281 0.007734577 -0.0067009986 -0.021668835 -0.0038805911 0.08703874 -0.025645504 -0.03653658 0.014473113 0.0626052 -0.006091142 0.043944847 0.044467002 -0.037825685 0.05967572 0.067040786 0.046973374 0.053017482 0.04705183 0.0067722024 0.048026375 -0.048721846 -0.039304767 0.04400345 0.051199146 -0.027457872 0.0054478883 -0.026724491 0.040000334 0.030618124 0.10473636 -0.063583694 -0.030490818 -0.024838625 0.045967992 0.043158475 0.09372653 -0.038313728 0.0098020835 -0.008093432 0.033522572 0.0017564778 -0.0072560916 -0.08224511 -0.02784411 0.008000945 0.05694001 -0.017427765 0.00051233673 -0.017663723 -0.025857255 -0.017150905 -0.030956581 0.007113218 -0.033174578 -0.083842106 0.094659135 0.036686134 -0.031436056 0.022647558 0.037163325 0.009691598 0.06631859 0.0109710945 0.03786398 0.024370076 0.0077206735 0.02397096 -0.039324913 -0.017734097 -0.013570123 -0.004643759 -0.012008624 0.027072394 0.06042137 0.025521627 0.05669679 -0.01630317 0.045408227 0.013280372
?AT0019 -0.0045705615 -0.07335036 0.017782228 0.03914497 0.0025567883 -0.015063534 -0.0057813805 -0.015734646 -0.018724445 0.021366056 -0.025154043 -0.08557257 -0.06925708 -0.028286448 -0.003567285 -0.035018254 0.023310818 -0.053144954 0.017336773 -0.0122077055 0.020138968 -0.017821033 -0.061018676 0.014468805 -0.008226332 -0.06645761 -0.018119082 -0.04386359 0.030222422 0.005922371 -0.052930333 0.102365635 -0.018304968 0.027646871 -0.051724236 -0.030406775 -0.050347816 -0.0054850923 -0.037014347 -0.03451082 0.05093187 0.032840114 -0.03473777 0.01960295 0.006316181 -0.04207884 -0.07315191 -0.04674133 -0.03636775 0.04923848 0.065284476 -0.006741806 -0.024433391 -0.017787661 -8.696168e-05 0.010915726 -0.010957033 -0.040983625 0.059944786 0.096923925 0.0012489442 -0.0037336224 0.010446084 0.0046166484 0.033165913 0.055895988 -0.04489146 0.024809884 0.06897347 0.02330239 -0.002887423 -0.071539655 0.04603758 0.050463233 0.011338888 0.014733187 -0.0012589769 0.021523869 0.07204557 0.03510457 -0.018741349 0.058131777 -0.042656127 0.013056797 -0.03592976 -0.011053761 0.036342543 -0.03882407 -0.025024893 -0.017588886 -0.014070237 0.024508137 -0.09987026 -0.04167873 0.008381457 -0.01109535 0.013931431 0.031931784 0.037570816 0.03856002 -0.0104237925 -0.0059982627 0.037639473 -0.032734945 -0.04141165 0.014099993 0.07968245 0.06314863 0.07675717 0.0070311273 -0.0035218264 -0.02192141 0.0099312365 0.04015249 0.020371705 0.04567319 0.07092615 -0.024847925 -0.057183493 -0.03971108 -0.0060026105 0.013131394 0.00020542409 0.047450602 -0.07594582 0.07403514 -0.042899597 -0.059193168
?AT2989 -0.006016491 0.015808657 0.011826528 -0.058222905 0.013208143 0.02405909 -0.0062252013 0.06356324 -0.017505972 -0.00013100833 -0.024988389 -0.008123446 -0.06980962 0.0018797728 -0.011575204 -0.032806516 0.06074543 -0.109779604 -0.022989154 -0.038636427 0.0731179 -0.016409526 -0.1340772 0.04398948 -0.07028345 -0.053172767 -0.022205455 -0.009886499 -0.05020857 0.006087439 -0.0835183 0.06962646 -0.025734957 0.08755995 -0.03784873 -0.03944778 -0.001292691 -0.013011688 -0.068133235 -0.06086392 0.05592557 0.025486855 -0.052289695 0.0014473678 0.014633759 0.07756586 -0.00401219 0.008912058 0.0038564922 0.07817949 0.054113396 -0.083736934 0.059585508 0.036454134 0.050205186 0.0072050425 0.05880484 -0.05922253 -0.017255787 0.04598125 0.027950581 0.042511392 0.015627688 0.021702515 0.049205568 0.09596121 -0.007003603 -0.024728678 0.05067909 0.011159976 -0.012709639 0.0057713483 0.028660975 -0.00772123 0.005659622 0.03538954 0.087566435 -0.012743925 0.07672262 0.016164346 0.033718985 0.047574818 0.02265409 0.009240808 0.024365539 -0.015998775 0.06664674 0.010879265 0.06925089 0.009833234 0.0216726 -0.07333457 -0.05412892 -0.014942074 -0.040640205 -0.0053208633 -0.011861619 -0.035974294 0.015116217 0.059310358 -0.0043058554 -0.008188877 -0.037616722 -0.018142253 0.025835697 -0.009577886 -0.014918166 0.049424045 0.058193363 0.042641245 -0.011974681 -0.0323949 0.036295574 0.04434825 0.117842495 0.057701707 0.045064207 0.022129264 -0.013796458 -0.0074760043 -0.028111875 0.0058080675 -0.0110268835 0.06921755 -0.06047409 0.09242033 -0.0075026616 -0.0044202716
?AT8553 -0.010249317 -0.020055624 0.039791703 -0.022939479 0.05843582 -0.07364795 0.02779328 0.022573026 0.0008953183 -0.0053236815 -0.04455551 -0.022973401 -0.051780317 0.021443993 0.009788794 -0.044205204 0.015518955 0.019193342 0.02182691 0.052746747 -0.03656516 0.025804007 -0.053574637 -0.02308032 -0.016434198 -0.003430413 0.02509839 -0.09492269 0.011463282 0.037347414 -0.013397474 0.058553897 0.010654501 0.014272603 -0.01678241 -0.0032045154 -0.0038000373 0.017893927 0.07224724 0.026137292 0.059073728 -0.029666735 -0.03370913 0.051540434 -0.03360952 -0.021940272 -0.024837628 -0.05232528 -0.08481343 0.046824444 0.02595843 0.02825085 0.029747354 -0.029492738 0.0106105665 0.07055928 0.0032060444 0.024851225 0.0927777 0.019994149 0.006353985 0.035124596 -0.004624899 0.012598282 0.042020954 -0.008547945 -0.009290714 0.030239528 0.10505763 0.06079497 0.016926693 0.009376484 0.05260535 -0.027364044 0.043598 -0.01204586 0.03678135 0.04432314 0.03141323 0.006346917 -0.030857049 -0.02540901 -0.0148896305 0.02004961 -0.008817311 0.017827341 0.008675059 -0.03364001 -0.045582354 -0.009978661 0.05883171 0.05084921 -0.103458285 0.06397608 0.005216199 -0.056395482 -0.008835367 0.071803465 0.042493097 0.046458095 -0.06344648 -0.0460696 0.044342663 0.041725975 0.0008611724 0.032649964 0.06536388 0.040190876 0.04250509 -0.01728085 -0.018826667 -0.07229175 0.038278956 -0.029717784 -0.02022874 0.06700575 0.0054601277 -0.028544484 -0.07351701 -0.061268505 0.016975245 -0.01592153 0.020625617 -0.0010819747 -0.025243426 0.08930278 0.037249986 -0.017197398
?AT0028 0.04634706 0.00025822673 0.002988274 0.05711166 -0.016673714 -0.05429844 0.059951488 -0.006410005 0.007600394 -0.026771985 -0.015860276 0.047838725 0.00044070926 0.012930201 -0.046941776 -0.054607052 0.12183335 -0.040646862 0.0019903632 0.1336261 -0.06142565 -0.043721996 0.05651185 0.002735753 -0.01779356 -0.02994648 -0.018088752 -0.03460148 0.03484886 -0.038263466 -0.049636934 0.0078590885 -0.048407547 -0.06692767 -0.09968485 0.029088708 0.038432665 -0.005018197 0.03363828 0.08257303 -0.010999957 0.06915476 0.009398408 0.018985968 0.0086984765 -0.0023536365 0.06334501 0.022074493 0.027019754 -0.0033821785 0.008975459 -0.025690798 -0.083398856 -0.022505166 -0.054579698 -0.03242725 0.0020694542 -0.0063812993 -0.11655815 -0.0050727534 0.08006832 -0.059018567 0.06313999 -0.038092345 0.0435868 0.008935017 0.0090286 0.000569526 0.046400614 -0.007777241 0.05489316 0.056950625 -0.06432825 -0.029232265 0.0031087648 0.0375429 0.015949436 -0.086581625 -0.07355243 -0.026800163 -0.060631454 0.016210185 -0.03541326 0.053356335 0.06867547 -0.02164282 -0.06680717 -0.046417736 0.015103996 0.032186236 -0.019604865 0.006723077 -0.095649354 0.07846315 0.0479946 0.06347371 -0.06344553 0.041807152 0.10756696 -0.0035799735 -0.08044991 0.013856112 -0.01933264 -0.008856233 0.0073462226 -0.01120532 0.0038521069 0.057127714 -0.05870129 -0.030173492 0.034003377 -0.024648182 0.010051677 -0.059643064 -0.04635427 0.04126596 -0.01614238 0.061471555 0.039054655 -0.005437497 -0.056522418 -0.018736932 0.06358386 -0.029440517 -0.017205166 -0.041813057 -0.023952225 -0.077379145
?AT2883 0.040899593 0.042697586 -0.071717896 0.00506198 -0.023826439 0.014916264 0.022585198 0.04683284 0.048176218 -0.076050065 0.03948601 0.031600878 -0.02223894 0.05382181 0.026961403 -0.015188588 0.079875045 -0.02578773 0.02691074 0.09564764 -0.04198325 0.042307224 0.056575812 -0.025597408 -0.060366638 0.008084099 0.009988415 -0.036298838 -0.02711862 0.024311673 0.07640638 -0.025118172 -0.05093356 -0.016929064 -0.09118966 -0.056973968 0.04042747 0.0012138771 -0.024819126 -0.022196282 0.01635526 0.021191856 0.06431502 0.080135405 -0.10210306 -0.092983745 0.025651554 0.045416586 0.04083539 0.07696774 -0.067901745 0.029565912 -0.101905696 0.06467823 -0.026484346 0.039867803 -0.051094647 0.09148211 -0.07456668 0.019611616 0.0077664545 -0.017460467 0.06572112 -0.08713798 0.045078155 0.00015129783 -0.0072674532 -0.038944963 0.011012357 -0.02905412 0.052892927 0.061418705 0.0026725456 -0.02236734 -0.048398845 0.05245278 0.0024499733 -0.026184713 0.00810211 0.015114928 -0.044678316 -0.00024822465 0.0048491 0.06460553 0.025350457 0.014656069 0.0005989986 -0.09669919 -0.08364385 -0.029561223 0.00077371445 0.042997334 -0.043334443 0.10154291 -0.013812609 0.0682824 0.011829228 0.019957615 0.061761096 0.024791652 -0.0146557 -0.093400225 0.006167841 0.0068464577 -0.015844218 -0.057484776 0.02449042 -0.029358562 -0.0008850264 0.032007724 0.00200231 -0.079294965 0.022522107 0.004179 -0.026096173 0.062626585 0.013731215 0.03911275 -0.0091867875 0.006698922 -0.004862211 0.0011448391 -0.037159763 -0.023636531 0.05242109 0.058490906 0.007068293 -0.021262927
?AT0084 0.027278922 0.03838929 -0.026035054 0.03780694 0.037314262 -0.04404842 0.012056328 -0.065016784 0.0056599327 0.01300794 0.06471792 -0.03238524 -0.01992052 0.06274547 -0.044458162 -0.017940585 0.04404462 -0.05577852 0.033635367 0.06187811 -0.096215114 -0.056695517 -0.0282466 -0.067440875 -0.031197252 0.04462966 -0.002412532 -0.0021902518 0.014232306 -0.027086508 -0.0047695898 0.0013574383 -0.0069519505 -0.06926642 -0.0535388 0.050412778 -8.806455e-05 -0.012196394 0.064309254 -0.0060466873 -0.029945478 0.07230011 -0.06736366 -0.05023247 0.064686045 0.026964696 -0.0276518 0.037544776 0.028581334 -0.03951364 0.040076554 0.012959143 -0.030576784 0.052918967 -0.016661562 -0.015121049 0.02539029 -0.04653199 -0.06473943 -0.022254355 0.0049214745 -0.01743229 -0.01982618 -0.0021759889 -0.014296191 0.009748725 0.025538238 -0.008836372 0.032481786 0.01690466 0.04403425 -0.057354413 -0.06856763 -0.019860044 0.016702857 0.009936551 -0.0031162743 -0.0059929676 -0.06112537 -0.0139802685 -0.020664087 -0.0040570213 0.07234133 0.02216187 -0.015690995 -0.050490912 -0.06746413 0.049713716 -0.013137923 -0.037776746 0.0019630147 0.047437236 -0.027039858 0.017972527 0.031101024 0.017528407 -0.05467492 -0.002280435 0.041151572 -0.0050021224 -0.05291858 0.009337546 -0.04892775 -0.022588857 0.022068262 -0.03356946 -0.026619675 -0.011661647 -0.027903995 0.08464077 0.009685519 -0.033585194 0.019303849 -0.06803134 -0.03475335 0.055139393 -0.0049227956 0.046444092 -0.01580842 -0.006818425 -0.07010283 -0.009452244 -0.010679706 -0.090226196 -0.00565042 -0.02307066 -0.028512655 0.0003881753
?AT1838 0.005465778 0.026414672 0.051583562 0.049305584 -0.009868387 -0.00011135494 -0.020075168 -0.02854877 -0.034530118 0.012889803 -0.06804815 0.012349006 -0.021125183 -0.03685407 -0.016493203 0.0027193357 0.064529516 0.0034956369 0.033137847 0.061830785 -0.039155755 -0.03512247 0.11853575 0.053674817 -0.016664548 -0.002522335 -0.004132146 -0.07647444 -0.019889865 -0.076337814 -0.07290815 0.020674102 -0.0021040644 0.0003026287 0.0075564636 0.0054966738 -0.012456241 0.06809413 0.027851474 -0.0038088902 0.053344883 0.05819305 0.047985736 0.007331509 -0.034512304 -0.010013194 0.010767283 -0.05441897 0.026380168 -0.0020500666 -0.05821667 -0.029207064 -0.0053827893 -0.029308032 -0.058094073 0.06016525 0.036056995 -0.05696718 -0.045155827 -0.0057341843 0.10119463 0.0021353294 0.027073555 -0.063893884 0.017494319 0.01584618 -0.0029443412 -0.05020334 0.01702487 -0.052572858 0.06893566 0.04274238 -0.022775142 -0.01555195 -0.087040134 0.04116653 0.08192216 0.0045844098 -0.0738833 -0.078172505 0.02275281 -0.0063838814 0.033742674 0.00090190704 0.07963755 -0.005439588 -0.0045196093 -0.03985467 0.07149955 -0.061551213 -0.022015212 -0.0036721355 -0.050688524 -0.04578284 0.025433073 0.032132912 0.06275056 -0.06669922 0.047843914 0.0137382895 0.037751127 -0.012348684 -0.0077439575 -0.03513362 -0.029935434 -0.051300813 -0.07616845 0.059017424 0.019268963 -0.042975307 -0.030508915 0.0197657 0.04674092 0.008393005 0.046534132 -0.020482585 -0.060991086 0.011379752 0.015237806 -0.053762257 -0.017418213 -0.023520615 0.079755165 -0.01679861 -0.04942356 -0.056308255 -0.037849043 -0.027064275
?ATC060 0.00634146 0.045781698 0.040444367 -0.0083101075 0.0022042254 -0.0939058 -0.039477132 0.0047532944 -0.028727023 0.023353474 -0.009127877 0.025787411 0.014221716 0.013347957 -0.0021652936 -0.000566523 0.09219574 0.0036547957 0.024716359 0.052217588 -0.0048769424 0.04503697 0.0013405369 0.020082906 -0.02589931 -0.07281305 0.03210992 -0.017889384 -0.01755213 -0.045394465 -0.02867358 0.029568287 0.019508692 -0.036661338 0.0020121941 0.018129107 0.080256395 -0.046885934 -0.044929896 0.035671063 -0.013976773 0.03751127 -0.018139288 0.022670675 -0.010597269 0.03130289 -0.0038475667 -0.034185655 0.005117851 -0.041767098 -0.013515103 -0.015209609 0.018342167 -0.046531014 -0.011351927 -0.006599192 0.009375854 -0.0662125 -0.036907665 0.076767124 0.054491296 0.008037156 0.055437148 -0.0034895597 0.07694504 0.014863918 -0.039768502 0.018052226 -0.020789817 0.08394038 0.049240675 0.06693985 -0.0041855588 -0.064580396 -0.055727616 0.049120113 0.053689737 0.005515259 -0.051807933 0.079403505 -0.026640905 -0.007506988 -0.0051014745 -0.039411224 0.016916335 -0.0704344 -0.041146137 -0.041763544 0.02366744 0.037270155 -0.07278052 -0.028577525 -0.09943309 -0.007755095 0.056218818 -0.008674056 -0.00022583664 -0.06379478 0.040035598 -0.010689303 0.009311213 0.045460608 0.010175254 0.061919674 -0.043729704 0.013418609 -0.05850623 0.0376611 -0.011067863 0.040362008 0.06643749 0.01153883 0.07345686 -0.030674806 0.009164618 0.0018542963 -0.04174803 0.09153625 0.043942675 0.008851486 0.009128489 -0.049824532 0.09093986 0.034095135 0.0037031092 -0.061166037 0.08504708 -0.04096408
?AT0037 0.01358196 -0.031990036 -1.3634271e-05 0.03059431 0.060162988 -0.059634976 0.055318978 0.0051940954 0.021686623 0.011579929 -0.021308284 0.05376276 0.05724853 -0.083172254 0.03731766 -0.034653895 0.025958583 0.023018489 -0.039935503 -0.00038622718 0.011838611 -0.040329468 -0.0797035 -0.06577317 -0.006281298 0.01929186 0.022780268 0.0038543877 0.027145343 0.027957786 0.07461026 0.005144639 0.0022308957 -0.056551173 -0.06438468 -0.014948053 0.06907775 -0.057243172 0.006987221 -0.012050851 0.017667824 0.0043463726 -0.042146802 0.03153964 0.00535844 -0.004888205 0.07780023 0.0015643642 0.061609432 -0.020352041 -0.053467985 0.031040123 0.038226776 -0.07765646 -0.050901726 0.034994956 -0.05381542 -0.0117929485 0.03509617 -0.008423881 0.051753186 -0.022100445 0.052534312 0.05760647 0.005616133 0.017008115 0.04344811 -0.033548303 -0.059337363 0.015407879 0.031368013 -0.029187066 0.045530125 0.001750559 -0.011579612 0.045506604 0.0024041554 0.013108139 -0.019742716 0.07546339 0.0039153355 0.0023510943 0.00831686 -0.024517333 -0.039205793 0.052368782 -0.040760852 0.04856851 0.07376331 0.009908297 0.00408372 0.024578135 -0.022590835 0.008622177 0.032820467 0.051895034 -0.0057895025 -0.020128816 0.031339694 0.042343356 -0.0014440721 0.07188415 0.027414016 0.04483066 0.0068504736 -0.0064825076 0.0022142832 -0.0052456083 -0.03331473 -0.01962411 -0.04358023 0.06688124 -0.028667288 0.02504108 0.039751012 -0.017963348 -0.022801714 0.015318477 0.019804463 0.009367409 -0.009648525 0.028642882 0.024763048 -0.066598155 -0.0015070514 -0.03686744 0.026578967 -0.039178055
?AT4134 -0.0073907655 -0.008116482 -0.0032549133 0.058318928 0.05199187 -0.069524795 0.02122885 0.023087827 -0.030695008 -0.047177143 -0.014454435 0.049068313 0.09556335 -0.02288802 0.023537606 0.041299623 0.0126886275 -0.027933473 -0.026302397 0.039527837 -0.024876924 0.024659546 -0.040936187 -0.01670087 0.040932674 -0.007020586 -0.05452808 -0.026456948 -0.023305275 0.04943006 0.051205683 0.00682737 0.024772556 -0.04016985 -0.0048313183 0.067589924 0.06441719 -0.058060646 -0.07069231 0.0004984091 0.0016730542 -0.049421243 -0.05901998 -0.017614797 0.021738006 -0.05782064 0.0019938499 -0.0051092473 -0.059230465 -0.07083654 -0.0037545303 0.085113734 0.02382264 0.0047251727 0.008262874 0.04777675 -0.008277905 0.05875401 0.080914795 -0.019750401 0.03138559 0.057853248 0.04277468 -0.012409181 -0.027325584 0.045106757 0.03551817 0.04529 0.01598488 0.06028582 0.02014372 0.03540785 0.015486598 0.025226044 0.0101540545 0.055731967 0.019107083 0.009724465 -0.006388458 -0.025674997 -0.0020767208 0.020245694 0.029621467 -0.038513146 -0.010043567 0.051256355 -0.051788248 0.036707677 -0.025217136 0.031552393 0.06871108 -0.020233756 0.042018827 -0.050236266 0.011809953 0.032086253 0.0347423 0.0030374522 0.008439213 -0.0153156705 -0.02072773 0.04842443 0.037234347 0.016191162 0.020161694 -0.061000925 0.023663152 0.0028728668 0.018244198 -0.0032974775 0.02085676 0.063913375 0.0865871 -0.018889891 0.01940166 0.033016466 0.008009786 0.008027778 0.03989293 0.0680051 -0.021560792 -0.005939207 0.003606247 -0.07090885 -0.050162416 -0.020387456 0.011853249 -0.02773717
?AT4057 -0.027775886 -0.0031223083 0.023504483 0.029299118 0.07749248 -0.08611802 0.0040807845 -0.024246689 -0.0038716178 -0.047095243 -0.016773127 0.08815238 0.020978373 -0.107321836 0.050916065 -0.026389906 0.032956377 0.014125828 -0.020139577 -0.040857967 0.033149924 0.0103247035 -0.08128756 -0.0440191 -0.018622203 0.017953463 0.036034174 -0.038766902 -0.01788711 0.010877338 0.05388116 -0.080816865 -0.0060736355 -0.04113914 -0.04604883 -0.0146555025 0.015930835 -0.005452669 0.025832642 -0.060537472 0.0013534843 -0.040998425 -0.018424127 0.018610876 -0.07200162 0.012924717 0.060926445 0.09465297 0.022461733 -0.008035814 -0.05710825 -0.04795505 -0.03715531 -0.013826212 -0.0013398086 0.08134164 0.04196283 -0.054664817 0.020060174 -0.044164684 0.04717557 -0.02975072 -0.020596653 -0.0052477834 0.04587396 -0.023341777 0.078716114 0.046119243 -0.031404313 -0.03824494 0.08204107 -0.013490094 0.031380575 0.017604606 0.010148072 0.04194302 0.079208456 0.047999892 -0.03309106 -0.03233912 0.018371731 0.02573013 -0.013223093 -0.014478264 0.023189703 0.017653225 0.0447969 0.0063809427 0.03552251 -0.031934027 0.015169366 0.03853924 -0.03515758 -0.0465732 0.02580583 0.054629643 0.03352408 -0.041610967 0.023386596 -0.042774044 0.012135443 -0.020443037 0.047306456 0.063089654 -0.044656847 0.045461413 -0.033598196 0.03931882 -0.014505788 0.03370712 0.00015479197 0.019071432 -0.006743898 0.036788084 -0.009163974 -0.03783469 -0.08217719 -0.010293508 -0.0142487055 -0.068947084 -0.010277194 -0.0026951616 0.005765056 0.0024285682 -0.014874622 -0.030780554 0.013389097 -0.024691036
?ATC112 0.015450511 0.03674227 0.018125681 -0.0022918163 0.084189564 -0.058033265 0.044311315 0.02428848 0.03499348 -0.017370997 -0.065929666 0.034135044 -0.021216495 -0.058972564 0.030913655 -0.01563771 0.035322182 -0.04611633 0.0045789657 -0.028570734 -0.0029951378 -0.04953879 -0.055081226 -0.018317083 -0.029809618 -0.013010737 0.0560825 0.005922891 -0.036940806 -0.063584656 0.076835215 -0.020404316 -0.0615369 -0.033485927 -0.05709087 -0.047398806 0.015456831 -0.06431205 -0.008079844 -0.08405996 0.03423925 0.0121867005 -0.01585037 0.01778462 -0.039002046 0.0067702583 0.08092229 0.045136042 0.10213921 0.052438274 0.017836707 -0.08163598 -0.015135871 -0.0057952357 -0.037461173 0.025391174 -0.013184128 -0.06747308 0.04736703 -0.055003002 -0.00415978 -0.011837606 -0.021006245 -0.023842366 0.00070715195 -0.006116176 0.0014002635 0.024188751 -0.0495293 -0.07547319 0.008885718 -0.015941162 -0.057324063 0.034669988 -0.015771654 0.07987382 0.041173328 -0.0030962848 -0.06470303 0.015207243 0.043212138 0.006975048 -0.066553675 -0.04625306 -0.018506693 0.0024722898 -0.009727975 0.03892921 0.061833944 -0.052279525 -0.027427629 0.014051305 -0.018943094 -0.015435679 0.03092776 0.0073753367 -0.014203467 -0.07690414 0.043407053 0.014226567 -0.0035865954 -0.004647475 -0.005873427 -0.039722767 0.0045087244 -0.018405512 -0.04837767 0.044671614 -0.07712796 -0.0113757225 -0.0030782311 0.07607319 0.0044033756 -0.022826418 0.00724873 -0.03855668 -0.05304144 -0.0133380415 -0.027569572 0.051805053 0.041778933 0.050333787 0.10584307 -0.0019449249 0.030637957 -0.06701222 -0.005068276 -0.0016016308
?ATC492 0.03383159 -0.02412593 0.058089044 -0.00033624674 0.002805242 -0.076920606 0.049751434 0.015752992 -0.004847836 -0.038109254 -0.111637965 0.0728434 -0.00019436992 -0.025178269 -0.03841906 -0.007169049 0.06283469 0.016897196 -0.001184172 -0.038086314 0.0268858 0.01653259 -0.119051106 -0.06081001 -0.032584783 -0.08319209 0.021678222 0.0007056947 0.012371096 -0.0050530536 0.070773885 -0.04012454 0.015489328 0.031909283 -0.08336031 -0.059059598 0.029022034 -0.018214874 0.023993978 -0.016896809 0.017427672 -0.0018461106 -0.049468935 0.03663109 -0.05235152 0.01791667 0.06707163 0.041092783 0.014441343 -0.0023847255 -0.096539564 -0.07301323 -0.062281284 0.02093957 0.006161717 0.007842117 0.016401052 -0.043256257 0.017227175 -0.0039038481 0.064921685 0.017827246 0.0034826242 -0.03485147 0.033759672 0.033972252 0.053963084 0.028131314 0.04333757 -0.056969933 0.053414803 -0.018342206 -0.0112625975 0.043674428 0.018539881 0.009374195 0.017859926 -0.00048145506 -0.002935707 -0.055291954 0.06679761 0.026194854 -0.034932803 -0.03971131 -0.028681831 -0.005614173 0.00484214 0.039250165 0.05930026 -0.04972904 -0.059721086 0.036799636 -0.051224492 -0.018639848 0.0368234 -0.03069181 0.0029522947 -0.03173663 0.0849141 -0.03719486 0.010225769 -0.026318196 -0.03761137 0.04261183 0.028420033 0.037114967 0.011797596 0.020534383 -0.091551036 -0.0035105373 -0.06136282 0.038632266 -0.00025294808 0.028380828 0.062459394 -0.054425918 -0.04017125 0.051088385 -0.062456973 -0.016068637 -0.0705248 0.02846605 0.014460923 0.00026954873 0.06927824 -0.002461778 0.07283556 0.011658519
?AT8170 -0.0034518663 0.011032262 -0.03779049 0.0370256 -0.010666874 -0.01340811 0.0062679113 -0.0027613454 0.061131876 0.038291506 -0.023029706 -0.021081248 0.03443516 -0.048177954 0.020259714 -0.021901006 0.045414012 0.00046080162 0.02111165 0.045343522 0.030899 -0.01410045 0.0058840546 -0.019740079 -0.0033829943 0.029131955 -0.009483069 0.033276323 0.016450701 0.03473511 0.03207542 0.018054694 0.022909742 -0.026317494 -0.018986387 0.03772858 0.026804166 -0.107563555 0.042517137 0.020475393 0.055881947 -0.00895354 0.021427413 0.027037626 0.0058404105 -0.026818343 0.04268118 0.018080361 0.06380679 -0.018584022 -0.03265049 0.04145661 -0.023032451 -0.08084635 -0.08114919 -0.028491627 -0.034415193 0.028454192 -0.029289028 0.052657522 0.023913438 -0.045450088 0.034878522 0.058452643 0.015456995 -0.012457872 -0.002895068 -0.06970505 0.009889359 0.06477036 -0.031977374 -0.016347075 0.042016614 0.0670744 0.011828077 0.002706873 -0.010754239 0.027799103 -0.0029324973 0.042444013 0.045641713 -0.019677844 0.03887747 -0.0066246977 0.015155229 -0.052084684 0.026538774 0.010766434 0.0641769 0.021336967 -0.031959463 0.0045264997 -0.024037393 -0.015723605 0.025658906 -0.029050883 -0.016936557 -0.059637215 0.013915875 0.10020619 -0.0029192169 -0.008080668 0.04446982 0.009825651 0.012536134 -0.0013588752 -0.010521047 -0.047954835 -0.002359822 0.00056904997 0.027693594 0.019250143 -0.023187345 0.025322556 -0.017752493 -0.0045259665 -0.06132212 -0.020636924 -0.042908605 -0.028171519 -0.007520928 -0.062399857 0.046494156 -0.013643044 -0.08046657 0.0009441154 -0.010532894 -0.027217645
?AT0038 -0.014833303 -0.017322056 0.016303606 -0.03343868 -0.068465345 -0.002597066 -0.01646674 0.054618333 -0.05742293 0.049888816 -0.021042837 0.04303232 0.031768832 0.09877867 -0.026354475 -0.029693356 -0.017056407 0.024861079 -0.03941977 -0.058372144 0.02869904 -0.026737455 0.02882421 0.036072753 -0.009951048 -0.040590074 -0.034183163 0.03243835 0.0020694202 0.008903087 -0.01872656 0.011815853 -0.078929566 0.00058763946 0.053152952 -0.042928323 0.0009825667 0.008000367 -0.009202356 -0.063084595 -0.032362662 0.022347687 -0.03508707 -0.038611192 0.010889383 -0.08762886 -0.035495162 0.023645781 -0.0015882433 -0.057524297 0.013815475 -0.07656515 0.04787336 0.009250897 0.011758859 0.06608714 0.026391348 -0.08872239 -0.0385987 -0.028715078 -0.02065032 -0.03448232 -0.026349215 0.052538343 -0.024824915 -0.025738116 0.022123523 0.033250973 -0.030353526 0.04316743 -0.05114133 -0.023192758 0.07098331 -0.035092868 -0.025557412 0.03201938 -0.055117898 -0.036762483 -0.08413953 -0.031520862 -0.0205772 -0.01639173 -0.050208572 0.09770616 0.009403599 -0.029047428 -0.015282091 0.020035159 -0.056511715 -0.011474652 0.027369564 -0.08958555 -0.028523263 -0.0026587476 -0.07318066 0.031206978 -0.018544508 0.016602382 -0.041252572 -0.060296852 -0.018875653 -0.039386425 0.02657519 0.0062909494 0.025901131 -0.035314076 0.0005589595 -0.048014242 0.046497174 -0.038027048 -0.065635815 -0.0011074033 -0.008043527 -0.09426848 -0.019993633 -0.025646899 -0.0048495885 0.099909104 0.06542419 -0.0015832804 0.0153877335 0.034387857 0.013378957 -0.0026292242 0.015953654 0.014457275 0.028432682 0.043397136
?AT1396 -0.058834795 0.01471377 -0.033172272 0.07291094 0.006910474 0.029067546 -0.032715324 0.108996116 -0.075776115 0.0020138724 0.01685531 -0.02925931 -0.019936563 0.052459713 0.01792286 -0.016249811 -0.044039305 -0.038446322 -0.05819615 -0.09455738 0.056368984 0.1334396 0.07551844 0.03192797 0.04375402 -0.047099985 -0.021594329 0.08488659 0.034355503 -0.011674436 -0.032651078 0.02102464 -0.05348928 -0.019927125 0.072801664 -0.0070369686 0.09079196 -0.00797276 0.011883405 -0.064064115 -0.039629627 -0.019178256 0.074967206 0.0076747355 0.058427755 -0.037614312 -0.018774368 0.073727354 -0.043844447 -0.068643585 -0.076644085 -0.06375756 0.09506934 -0.011308445 0.066397555 0.07748022 0.062657095 -0.059816748 0.01597762 -0.041594625 -0.014290623 0.0031007754 -0.03598068 -0.009463863 0.007639456 -0.04682848 0.030045988 0.036001433 -0.044493187 0.027729524 -0.044204406 0.0015412624 0.05624129 -0.053247184 0.0065230485 0.0026979363 0.003451449 -0.0048586736 -0.04519602 -0.037681926 -0.055206537 -0.045351576 -0.047106773 0.07641088 -0.009763681 -0.08292857 0.053587057 0.037307784 -0.061305966 -0.014279353 0.054346822 -0.057770416 -0.0688049 0.08638746 -0.050741956 -0.041507836 0.043336377 -0.037221797 0.035765182 -0.035306614 0.00024114334 -0.0014164771 0.044539183 0.016868217 -0.06011309 0.013121722 0.0059842495 -0.018869974 0.06915599 0.011716857 -0.03357035 -0.022543883 -0.02874724 -0.057423472 0.01823375 -0.032158177 0.07509839 0.05693048 0.013647147 -0.019809345 0.02632741 -0.010159246 -0.036651473 -0.07724947 0.07537204 0.07946158 0.0071275 0.026081657
?AT0049 0.060567897 -0.06880103 -0.0797834 0.059528634 0.059721977 0.03204502 -0.027012235 -0.022540135 0.059980292 -0.018648084 0.119460426 -0.035454027 0.07492937 -0.055304706 0.008978378 0.04950589 0.02084112 -0.094826885 0.017248992 -0.06121228 -0.0057638627 -0.037413437 0.030519739 -0.06998826 0.06760047 -0.052327003 0.009875472 -0.041075278 -0.059088327 0.06781994 -0.036823977 0.054382596 -0.044411276 -0.061712284 0.054104857 0.049844723 0.008813781 -0.07300586 -0.018245012 -0.036168244 0.07595363 -0.02207081 -0.050283086 -0.007158482 -0.034581773 0.023688257 -0.033664342 -0.028884983 0.023907064 0.014014537 -0.09889162 -0.016598122 -0.0020030877 0.07960783 -0.05702562 -0.0006579609 -0.038381148 0.033616494 -0.019341528 0.023706952 -0.044482056 -0.004241971 -0.010011382 -0.016627181 0.014715109 -0.058426544 -0.09126122 -0.037510756 -0.00028447394 0.009044894 0.038413856 0.035091136 -0.017632406 -0.018553225 -0.025909292 0.009848446 0.011219697 -0.024217738 -0.017688904 -0.0547557 0.053902846 -0.032808997 -0.048804566 0.06943559 0.10188354 -0.014552697 0.08475169 -0.0007496654 -0.025402129 0.026331441 -0.07256918 0.043316565 -0.033130046 0.02264308 -0.055981662 -0.015217806 -0.059255105 0.019675998 0.0067603914 0.016874209 0.04021296 0.0123947775 0.02451309 -0.048149563 0.023847759 0.01111453 -0.036537014 0.018064953 0.02028105 0.00033060854 -0.038025804 0.06518465 0.032358006 0.1085569 -0.060532875 0.025693137 0.036259826 -0.07115191 -0.064009495 -0.0068831462 -0.082164764 0.04136177 -0.061524484 0.049958434 -0.0057539386 0.025009634 -0.00042768999 0.08487044
?AT6711 0.019735046 -0.036409892 -0.06623487 0.07114495 0.056810334 -0.009434841 0.010285383 -0.045539904 0.01492986 0.04205757 0.050213903 -0.047831833 0.00712987 -0.04836487 -0.045383234 0.05600575 0.01951063 -0.07945769 0.056465343 0.009429056 0.013929099 -0.108616665 0.016556416 -0.057360563 0.069062665 -0.008983742 0.0007229702 -0.06102207 -0.025920074 0.05350143 0.055979837 0.05635786 -0.02108865 -0.024970246 0.027466923 0.06827763 0.040348075 -0.0050033834 -0.04103011 0.011336644 0.028134894 0.06270699 -0.058010805 0.012806621 0.009230787 -0.0013834266 0.024081726 0.058223028 0.028779967 -7.648079e-06 -0.072932124 0.011895244 -0.02990317 0.03185766 -0.058077443 -0.045354445 -0.05499705 0.046995286 0.044894114 0.021065695 0.0047886646 -0.036479365 -0.037696097 -0.012218368 -0.008675412 -0.026808048 -0.058627497 0.05241977 0.0107045965 -0.028156878 -0.057669707 -0.027353283 0.07118576 0.04673675 -0.02971968 -0.050039466 0.013148843 -0.05920511 -0.03971536 -0.016959528 -0.011509997 -0.031915568 -0.0030810928 0.015311296 0.0360105 -0.0009392682 0.010234858 -0.02550408 -0.01194761 0.04454062 -0.023312906 0.059970327 0.022903027 -0.0038208016 0.01755074 0.040737122 0.07376907 -0.010809947 -0.0024598148 0.040145483 -0.02454525 0.023144497 -0.06205299 -0.07690126 0.024490109 0.0072180564 0.009879012 -0.021956332 0.004336822 -0.05452237 -0.046034224 -0.02746345 0.015336195 0.05973803 -0.0414542 0.010360726 0.014454292 0.019769588 0.017831061 -0.027943972 -0.010775497 -0.04109917 -0.030071124 0.082044244 0.045268144 0.09689225 -0.047488555 0.02090125
?ATB005 0.030967535 -0.023172785 -0.06887122 -0.06577491 -0.06150689 -0.04947161 -0.037105497 -0.015917344 0.0813156 0.015474759 0.02190249 0.042122982 0.020079087 -0.046940602 0.045304738 -0.024773715 0.0496816 -0.058793124 0.06740723 -0.06679996 0.057756066 -0.0131747965 -0.0048084655 -0.020103633 -0.019124568 -0.055570524 -0.03757626 0.007609752 -0.03721268 0.048678268 -0.0011216096 0.0834987 0.011892203 -0.011376395 0.010235712 0.04251626 0.07013433 0.0036297878 0.0089830905 -0.052187473 0.01581638 -0.07681189 -0.023272121 0.03162324 -0.024106449 0.05622904 -0.080367506 -0.061454777 0.021278322 0.03188484 -0.032384943 -0.010182776 0.06607518 0.014397704 -0.048023477 0.026753625 0.00018089057 -0.015806515 0.010450283 0.04559503 0.03875583 0.0005557544 0.043673594 -0.015444203 -0.0011508815 -0.032740682 -0.029239185 -0.05660561 -0.007966042 0.014386401 0.06732402 0.0054420466 -0.024793115 0.017451074 0.04181117 0.022033669 -0.07851718 -0.018186329 -0.0009541151 0.02861029 -0.0439927 0.054788284 -0.022685315 -0.042143382 0.034085903 0.0047687553 0.030642273 0.0117315315 -0.061425727 0.041228186 -0.09215212 0.00795576 -0.056411847 0.04523539 -0.043215007 -0.04202806 -0.031997055 0.054560173 0.00841915 0.03183691 -0.006680092 -0.011475365 -0.02963252 -0.022960437 -0.01239091 0.042595405 0.0012178097 0.08472549 0.041228354 -0.056923717 -0.06777039 0.09336319 0.049464755 -0.013041792 0.032388665 0.05189512 0.060049165 0.030741578 -0.07423429 0.089367285 -0.05022705 0.04597333 0.002915576 0.01821338 0.012745686 0.03967344 -0.07262007 -0.002885397
?ATC349 0.023518687 -0.04859302 -0.027691117 -0.0012204633 0.030114634 -0.04937638 -0.020706516 0.018166471 0.0061829626 0.02029184 0.051470537 -0.017005768 -0.08109336 -0.039444238 0.0062386263 0.079442054 0.022774242 -0.037848946 -0.009872637 -0.010232062 0.041195583 -0.002773258 0.062880084 0.034054704 0.011162517 -0.04863529 -0.08765823 -0.004315371 0.00382527 0.09333858 -0.040673643 0.009288708 0.0041169343 -0.028239364 0.03227999 -0.036934197 0.10293084 -0.050251003 -0.007572897 0.0033728268 0.012723993 -0.08245735 -0.0029166515 -0.012112072 0.056727864 0.031381 -0.0052993335 -0.015698254 -0.054883856 -0.04245158 0.04275024 0.0023379228 0.066869885 0.020155292 -0.049187504 0.03472358 0.028596213 -0.0044598854 -0.08224748 -0.020020895 0.058681246 -0.04949144 0.03146457 0.03255504 0.074054375 -0.04809803 -0.04664017 -0.0033544966 -0.009118795 -0.07260969 0.004790755 -0.053987816 0.032137837 -0.008881878 0.041081842 -0.0076061157 -0.027411122 -0.042221963 0.03621309 0.014580094 -0.01348266 -0.041102163 -0.077691555 -0.038779374 0.08184532 -0.030219091 0.06676034 0.0061589004 0.068234816 0.017208993 -0.029000603 0.042021904 0.0046531796 0.056957114 0.038091384 0.014370519 -0.056264214 0.033086106 0.058754254 0.0018520309 -0.00061380304 -0.037274405 -0.018922975 -0.060480002 -0.0048781596 -0.011728755 -0.029624358 0.06636659 0.032841586 -0.047513545 -0.018805573 0.020777311 0.010905368 -0.06933037 -0.006182552 -0.03502602 0.082087964 -0.024956493 -0.035808552 -0.052040204 -0.07152217 0.037354745 0.008598622 0.0196393 0.03931945 -0.030629475 0.012103788 -0.035064176
?AT9687 -0.087850094 -0.108791076 -0.027529199 0.04053777 0.031693008 -0.05759147 0.024054565 -0.014975195 0.029015552 0.0029890314 0.05218258 0.0004911318 0.036161758 0.006767798 -0.017082911 0.065498404 -0.0075568515 0.0093663735 -0.005949062 -0.0029103425 -0.036024053 -0.062027223 -0.047313668 -0.11086872 0.029749444 -0.014700658 -0.0058327774 -0.08628037 -0.09195532 -0.0016806286 -0.043164965 0.093618326 -0.023713356 0.027500229 -0.03623518 0.0123361675 -0.022250922 0.044405665 0.009055698 -0.044392996 0.05552776 -0.009490115 -0.030360112 -0.00080969057 0.009409907 0.072094284 -0.027734026 -0.09212433 0.06941883 0.04159163 -0.034261797 -0.06654377 0.01765104 0.06568212 -0.026094345 -0.027527079 -0.00247788 0.02041104 0.024667189 -0.013735889 0.04590476 -0.022738729 -0.021763906 0.026935901 0.06399772 -0.014529136 -0.06922379 -0.03638293 -0.07767875 -0.0727536 0.025857382 0.08076683 0.018365115 -0.080659494 0.030552158 0.019818572 0.09207626 0.023244644 -0.0162949 0.023060666 0.028691303 -0.022943188 -0.028378742 0.058317613 0.011100882 -0.05789542 0.023449648 0.006109014 -0.01821157 -0.033936642 0.025728395 0.03177042 0.015215226 0.09029261 -0.09214062 -0.034284327 -0.06859739 -0.02761516 -0.012111954 -0.00361069 0.08722405 -0.014651865 0.03235878 -0.023909485 -0.05276683 0.07661943 0.00459678 0.038897745 -0.06328179 0.05048859 0.040197782 -0.0049470197 0.0032533112 0.06724835 -0.060666557 -0.03956227 -0.041808847 -0.034734346 -0.018763477 0.042467773 0.017266784 -0.032510642 -0.034019172 -0.013834771 0.0034755757 -0.03499042 -0.001493472 0.09165897
?AT9838 -0.038250387 -0.009214512 -0.03569454 0.04864038 0.015591051 -0.025607599 -0.06298479 0.06831659 0.11226431 0.07152375 0.006471299 0.011248565 0.07971963 0.029210446 0.089755066 0.06608375 0.0046428307 0.06393574 -0.049452912 -0.07901527 -0.06202025 -0.030713975 -0.014406084 -0.061424203 0.06158411 -0.030983109 -0.008225022 0.014829627 -0.014218414 -0.015613091 0.01948333 0.03727169 -0.03845225 0.05759615 0.04827482 0.076670475 -0.011303851 0.009143022 0.033430327 0.04747059 0.117663965 -0.012690164 -0.013223781 -0.10371807 -0.036721922 0.025810782 0.056825638 -0.022496594 0.020435274 0.009631442 -0.09849239 -0.0055575306 0.0432314 0.06337049 0.02401444 -0.011337628 -0.06438976 0.02752817 0.024274355 -0.0067113964 0.0056584976 -0.02497795 -0.039910223 0.023483915 0.09166745 -0.012064843 -0.052910686 -0.025519092 -0.0409373 0.011697403 0.101855025 -0.04559158 -0.014047968 0.0040143398 -0.051934347 0.011539704 -0.012579432 -0.08639019 0.025606204 -0.023733182 0.057859093 -0.0065838518 -0.05495515 -0.0048814067 0.025230732 0.03811333 -0.061730385 -0.009731264 -0.047713425 0.024868358 -0.052434236 0.0424026 -0.0006103999 0.0179824 -0.10045233 0.055052537 0.006948754 -0.033063717 0.024589293 -0.07215851 -0.042443886 0.017593121 -0.0023463592 -0.0045045055 -0.022939293 0.022623578 -0.0347089 0.029039375 -0.03237324 0.030011225 0.020462034 0.044827484 0.008160206 0.036076173 0.011458095 -0.00023621676 -0.031397615 -0.050517857 -0.019363368 0.048518855 0.0316604 -0.02573243 -0.022098273 0.034482215 0.048237722 0.01808699 -0.064956 -0.04846639
?AT9658 0.041644175 -0.06522088 0.011164444 0.05710663 0.010576247 0.032697666 0.05107683 0.0141474735 0.06829218 -0.06043325 -0.025899047 0.010146238 -0.0007123125 -0.07659157 0.048492074 0.020442175 -0.032759234 -0.016453654 0.030193482 0.013815314 0.010638794 0.046736334 0.0425354 0.016430313 0.035672404 -0.013669142 0.044714477 -0.028539069 -0.031268958 -0.029792385 -0.0773734 -0.007138316 -0.018681664 -0.042316828 0.006155184 -0.061988156 0.06628981 -0.03157677 0.043094624 -0.0074248617 0.035119403 0.054444086 0.0073200753 0.0057549793 0.018527385 -0.05372811 0.03519636 -0.040927496 -0.01626165 -0.0683504 -0.041043136 -0.03633455 -0.057979416 -0.017355345 -0.07145315 0.03747139 -0.021890974 0.05652778 0.029852035 -0.0017391768 -0.091173075 0.01713124 0.0411338 -0.005537285 0.003365807 -0.08602593 -0.020294014 -0.03764101 0.027582854 -0.055641897 0.042809647 0.02428222 -0.033749882 -0.054270163 -0.007620355 0.013958159 -0.059241354 -0.01976984 0.025038265 0.02135922 0.059920494 0.049197823 0.00227992 -0.0062248074 0.07350254 0.026090492 -0.025812196 -0.045504056 -0.07132559 0.00014940629 -0.038526487 -0.010029739 -0.05305791 0.030167658 -0.06940865 0.06622155 -0.032372866 -0.021308005 -0.012588516 0.052503027 0.039053593 -0.004404555 -0.0073561347 0.024532964 -0.022471273 0.029136619 -0.048170183 -0.0051185507 0.07299755 0.024168232 -0.03332942 0.019854454 0.012539967 0.091972545 -0.034259394 -0.03541445 -0.008986736 -0.049474247 -0.027687637 0.012685812 -0.0631297 0.05707964 -0.079138815 -0.034723815 -0.059185404 0.006386909 0.018117046 0.073294535
?AT9690 0.040899172 -0.03465399 0.014950614 0.058988646 0.054001514 0.0035389494 0.08767438 0.04393814 0.045940854 0.011479139 0.057714693 0.018052168 0.0049815425 -0.0046472964 0.069923714 -0.0032648987 -0.018117545 -0.050531905 0.022114702 0.06408172 -0.0074012764 0.054839607 0.0655589 0.026105661 -0.03655932 -0.04436987 0.020003662 -0.02597944 0.014710605 -0.018709743 -0.115241446 -0.023994327 -0.047641575 -0.04607893 0.030738482 -0.10050252 -0.01720242 -0.06436615 -0.070925325 0.014957889 0.018977175 0.03366923 -0.03236975 -0.02214533 0.041617274 -0.07666784 -0.01556142 -0.009031466 0.11066718 -0.008931756 -0.04883602 0.065844074 0.03444656 -0.04759101 -0.056570873 -0.02332496 0.0020463513 0.06934609 0.09091353 -0.061303303 -0.041354258 0.02248262 0.04694546 -0.0074992185 -0.033650365 -0.058209646 -0.0069998894 -0.006456357 -0.040726382 0.00035801512 0.005348334 -0.026738133 -0.031750612 -0.06264311 0.031141115 0.024868954 -0.02797037 0.02994133 0.015954321 0.013080568 0.04567347 0.014902289 -8.942674e-06 0.055443563 0.052659813 -0.05582942 -0.004039471 -0.054341357 -0.048474465 0.036128156 0.026160927 0.049024038 -0.07975329 0.0058077523 0.009426459 0.005667032 -0.010912446 -0.08197269 0.05359664 0.044133987 0.03249524 -0.016673632 0.0073918384 -0.023196802 -0.014752742 0.10417129 -0.105718344 -0.010238123 0.02239332 0.06714119 0.008599537 -0.041099157 0.02175814 0.07106963 -0.027356504 -0.018341603 -0.028232167 -0.06256296 0.059516314 0.008815895 -0.01201661 0.0612648 -0.019430868 -0.06826041 -0.019566823 0.046342533 0.08783976 -0.029620422
?AT0059 0.056276713 0.019710938 0.04724624 -0.06125582 -0.041444506 -0.030211926 0.08331371 -0.010207317 0.03320675 -0.073628135 0.01312806 -0.02345011 -0.07941608 -0.031880848 -0.011668812 -0.03984585 -0.0010309501 -0.011551949 -0.015949737 -0.04543213 0.021645479 0.014316728 -0.040873278 0.015464463 -0.029564649 -0.059580162 -0.04646044 -0.010663501 0.019444255 -0.07900603 -0.010369799 0.06194427 -0.05230351 0.030233406 -0.016835677 0.046010297 0.026881035 -0.03277715 0.047906473 0.01989827 0.0070451023 -0.032268554 0.008340608 0.028063348 0.029744504 0.027382387 0.03765908 0.011607281 0.0492999 -0.023937691 -0.047515646 0.012730114 0.020243552 0.013149622 -0.04794267 -0.026468908 0.010600085 -0.009507876 0.07953371 0.028496772 -0.017707523 0.016844073 0.01054106 0.06376921 0.03191042 0.023931758 0.0049071447 0.039473806 -0.02943604 -0.007269783 0.045511194 0.040007707 0.0132756075 0.024442231 0.05539639 0.021732902 0.000376725 0.048620276 -0.038362112 0.018784495 0.0625812 -0.007403293 0.033105556 -0.053464554 0.03589867 0.086511016 0.027599573 -0.019000573 0.05445917 0.059937384 -0.00058603165 0.01820566 0.07796049 -0.02718051 0.05032882 -0.07259821 -0.006599017 -0.018357255 0.0072916094 -0.026048623 0.034647927 -0.03650624 0.009181765 -0.0035946835 -0.09092805 -0.00096495374 -0.047481664 -0.043179538 0.070261195 0.03730031 0.038703322 -0.004193972 0.028191917 0.00795007 0.035315845 -0.055420067 -0.03391736 0.008067533 0.054583345 -0.033765774 -0.02389165 -0.028426446 -0.012627817 -0.045942243 -0.049814228 0.03609695 0.040218476 -0.022618245
?AT8731 0.022780508 0.0093520405 -0.036500063 -0.079107754 0.037955873 -0.022770112 0.02605237 0.017627228 -0.073860705 -0.028318387 0.013420767 0.08281261 -0.07163727 -0.01652749 0.037826173 0.01999198 0.038823586 -0.053180072 -0.007520481 -0.0067701745 0.0144868335 -0.00027428495 -0.041463587 0.034545537 0.024280226 0.03668679 -0.05524312 -0.01427181 -0.00427873 -0.08851324 0.042748254 0.0049022925 0.04381671 -0.0007510824 -0.011081309 -0.0258927 -0.025448242 -0.059900295 -0.027840074 0.005945378 0.04189149 -0.0012584229 0.055324446 0.04436329 0.06885161 0.0037241918 0.07850558 0.026238369 -0.009803754 -0.021734372 -0.06582268 -0.033145435 -0.00029319973 0.01855775 -0.022206645 -0.04479348 -0.013074981 -0.043733414 -0.02922209 0.050234992 -0.014998416 0.0055000396 0.016987732 0.013866202 0.0062989113 -0.015441906 0.022093402 0.009877936 -0.02117681 -0.032448225 0.01139602 0.028662628 -0.015890347 0.05844841 0.015320693 0.032979183 0.04584705 -0.026008781 -0.04817211 -0.01176156 0.055933256 0.026478516 0.05532741 0.00048154994 0.036126945 0.056931008 0.0144698 0.0498656 0.025450964 -0.008111705 0.04771785 -0.010103343 0.07299392 -0.013030184 0.03676011 -0.033109866 0.042780526 -0.009003632 0.086588435 -0.035809714 -0.0034772672 -0.021170096 0.05173543 -0.03681068 -0.006726672 0.022724468 -0.03907995 0.037647467 0.016438186 0.037524354 -0.047069803 -0.008229314 -0.05048429 -0.015366103 -0.014210558 -0.057941943 0.0021654507 -0.081577085 0.06347446 0.026721066 0.030164352 0.020349294 0.04226212 -0.0282024 -0.04902902 0.007815031 -0.022481715 -0.018903274
?AT4713 0.060312815 -0.02966958 0.080294095 -0.04972784 -0.06598025 0.04102357 0.012053361 0.021325324 0.013158182 -0.07757025 0.04639646 0.04665572 -0.045682494 0.0020503695 -0.016694384 -0.0053580077 0.026662221 0.0145780295 -0.027742852 0.027246295 -0.0075364504 0.08742513 -0.068287 0.04842429 0.043896053 -0.02184896 0.038925827 0.008517561 0.022428324 -0.07990871 -0.036106378 0.0925759 -0.0006145482 -0.015714148 -0.04573072 0.009455849 0.060445346 0.041048937 0.025043402 -0.006881152 0.0235392 0.017937578 0.014349363 -0.025602572 0.03207131 0.048507232 0.032541655 -0.02443987 0.06961186 -0.02315886 0.011491973 -0.023050321 0.011216453 -0.066045985 -0.04829257 -0.021494998 0.02788308 0.051639475 0.043623798 0.010759026 -0.027788961 0.013483671 0.076119855 0.073051006 0.03019819 0.04395947 -0.0787846 -0.02012677 0.0046988986 -0.029748876 -0.0018833036 0.061219227 0.0009425565 0.016515035 0.016413342 -0.03359347 8.862069e-05 -0.007259354 0.0090436535 0.074029215 0.10059484 0.022076719 0.041181482 0.050365742 0.032577794 0.042779088 0.0017839395 -0.039803434 0.0043326668 -0.00048157328 -0.07681083 0.02262623 0.01377633 -0.0018619099 0.014763521 -0.034868605 -0.0036224786 -0.041163567 -0.0077438694 -0.04900937 -0.023678835 0.0367812 -0.034274794 -0.04870386 -0.046074223 0.04431857 -0.015711388 -0.04968523 0.029815188 -0.017195143 -0.031723496 -0.035377186 0.0023226915 0.10132296 -0.06757442 0.043640755 0.04993636 0.07976245 -0.061454408 -0.019395439 0.0011330572 -0.08247769 -0.027775666 -0.001002745 0.058054533 -0.043082837 -0.018955234 -0.018895699
?AT0070 -0.045421623 0.03797078 0.020258015 -0.015972476 0.09644729 0.013245062 -0.012921779 -0.020333147 -0.10197241 -0.06788667 0.049893353 0.06764785 0.016197227 -0.047716044 -0.10023832 0.058217995 0.09887962 0.019435622 -0.0012311407 -0.010584071 0.02844746 -0.009673661 0.026626894 -0.03170032 -0.003308854 0.012461827 0.035335414 -0.073822826 -0.019091928 -0.046888456 -0.04689785 0.082564756 -0.011217772 0.043615833 0.07602375 -0.006490608 -0.018111462 -0.016417103 -0.020760857 0.10537291 0.08396107 -0.04543281 -0.016018365 0.054026496 -0.049510017 0.02350036 0.066381805 0.05000146 -0.046919268 0.054896105 0.03340183 -0.0289628 0.002121158 -0.08094362 0.04279493 -0.03230906 -0.029683217 0.025348552 0.0007340369 0.004480431 -0.07175025 -0.06881738 -0.06282774 0.05454103 -0.014214149 0.0223691 0.0014617561 0.009757879 0.026096562 0.058060333 0.041779943 -0.11656237 -0.05782902 0.01672357 -0.0025655671 0.031986617 0.047899902 -0.014190659 -0.063984305 0.034737416 -0.0034431585 0.023069853 -0.0044195517 -0.029771425 0.008915075 0.024071002 -0.08064974 -0.07641304 0.040944654 -0.045856297 -0.04313087 0.04905814 -0.0032600646 -0.030484369 -0.033441335 -0.03633666 0.010340476 -0.006311814 0.09008268 0.04165911 -0.008388106 0.015960615 -0.03308028 0.02804198 0.013742552 0.048565995 -0.042712223 0.015948145 -0.033786885 0.06465813 0.0015732121 -0.008334057 0.080236636 0.07328506 -0.02371304 -0.031098502 0.010092429 0.029796755 0.002753924 0.034244925 -0.029307878 0.045564473 -0.031207092 0.029675901 -0.07354697 -0.015017311 0.07195926 -0.044628985
?AT2015 -0.043186903 -0.070013076 0.078335226 -0.011428289 0.071615376 0.05081383 0.007837436 -0.018357832 -0.02607865 -0.07958896 0.0385133 0.02332573 0.06306281 -0.05925225 -0.06992285 0.057725813 0.0366777 0.008550423 0.021776527 -0.036930084 -0.02102296 0.01401331 -0.03893038 -0.0074475873 0.0041848565 -0.05899854 -0.0013757446 -0.04826413 0.023405373 -0.024860783 -0.014002078 0.06346633 0.013036025 -0.05001912 0.09352106 -0.08692668 0.012231162 -0.024635071 0.10452531 0.041660164 0.05042484 -0.062172018 -0.032567073 0.03954338 0.022275094 0.069448985 -0.024679862 0.054600228 -0.016154492 -0.05168585 0.0719391 -0.0604642 0.037704684 -0.046060216 -0.01585076 0.03962077 0.023165494 -0.01091483 0.017213615 0.003292419 -0.021948017 -0.014807364 -0.039675243 0.06957649 0.049366284 -0.0042123906 0.039990023 -0.05895476 0.068130784 0.008650003 -0.021559857 0.000111215646 -0.039681405 0.019182844 0.032112658 -0.029055616 0.024306884 0.0685243 -0.03360423 0.06317403 -0.032857176 0.0014565287 0.08790393 0.003283757 -0.027498985 -0.0131289745 -0.032282047 -0.0033171028 -0.0015521544 -0.037671153 -0.0030383375 0.014427813 0.030183496 -0.0026137298 -0.0048567075 -0.022936285 0.048399795 -0.026506241 0.0442807 0.09090429 0.075249575 0.008511741 0.056658678 -0.03777897 -0.01916484 0.03791255 0.011891162 0.016583674 0.0073280204 -0.025960092 0.032781392 -0.019910546 -0.029423753 -0.023597205 0.015925026 -0.050314367 0.0028366009 0.018051054 -0.05055128 0.08605292 -0.031846363 0.017460348 0.014200415 0.049137596 -0.005781089 0.024619844 -0.015573185 -0.042179935
?AT6074 -0.002405039 -0.03991238 -0.004844852 0.021753116 0.004704713 0.042914495 -0.055647217 0.01407802 0.01100644 -0.008844338 0.0146892 0.015003071 0.10797333 -0.009366445 -0.009225328 0.08604811 0.077579066 0.031098714 0.005867291 0.012723625 0.026414989 -0.0044776634 0.093589105 0.019730221 0.035667926 -0.024787787 -0.0059647323 -0.047179937 0.05749792 -0.097266786 -0.03963211 0.034844097 -0.022048822 -0.052080046 0.078770995 -0.008464879 0.030676324 -0.030130198 0.083108954 0.085039735 0.028160807 0.022911835 0.023647398 0.030987477 0.0015079868 0.029618217 0.0044593904 0.03747839 -0.025028 0.0054203724 0.025333608 -0.021089498 -0.031901877 -0.05138073 0.02116622 -0.092731126 -0.0055732955 0.036702488 -0.08501447 -0.00531264 -0.09256541 -0.06680484 -0.01158858 0.049227122 0.05860424 0.0032069632 0.049427718 -0.09840995 0.009857202 -0.020401917 0.00049291516 -0.10000386 -0.0119035 0.09724669 -0.050949518 0.029849978 0.061925456 0.008386851 0.032321773 0.11435217 -0.102649026 0.030119212 0.015884185 0.021423612 0.038588677 -0.05672939 -0.0305154 -0.025600843 0.024297861 -0.00014292155 -0.007630815 -0.020415833 0.041828744 0.022112148 0.0024382789 -0.0605832 0.011688678 0.029886082 0.011234965 0.02553227 0.057528626 -0.017252296 0.029509064 -0.06282979 -0.031504557 -0.017297683 -0.057286073 -0.024968036 -0.032457065 0.006396054 -0.036644462 -0.012819716 0.03367261 -0.017995762 -0.02897233 -0.0024091292 -0.0044241 0.0077507705 0.008822768 -0.03817372 -0.026619466 0.095338546 -0.00025478232 0.069760405 -0.0076928944 0.07549486 0.02514261 0.0006398644
?ATC110 -0.0130998455 0.033836648 0.05310385 0.018354613 0.05531944 0.018853499 -0.013151382 -0.03973811 -0.07283295 -0.005979759 0.10243969 0.04893743 -0.008356008 -0.0005919925 -0.046188187 0.06424994 0.033629596 -0.00071728235 0.035190128 -0.09939956 -0.0028332192 0.017683493 0.10437507 0.012903261 0.029803462 0.011147362 0.11247651 -0.08870841 -0.015130278 -0.02992131 0.008035685 0.022291878 -0.04479725 -0.024872335 0.04448408 -0.027909389 -0.032314897 -0.050917864 0.010970782 0.026359512 -0.038599182 -0.09991909 -0.05626511 0.0230896 -0.016976528 0.04267327 0.0377011 0.030449683 -0.08177008 0.05349641 -0.052233458 0.009568843 0.026470263 0.01819731 -0.020904038 -0.046748728 0.050916467 0.01681339 -0.06075415 0.050680164 0.009270816 0.0009729833 -0.042861216 0.092268094 0.07624539 0.0012229665 0.025806261 0.005330142 0.024517464 -0.02209379 -0.059185322 0.0074170227 0.052061528 0.06493403 -0.016152153 -0.044589702 0.027140217 0.0031198582 0.013406713 0.067765474 -0.024383139 0.027206583 0.065107726 -0.01045516 0.030956166 0.05089654 -0.052978713 -0.018665671 -0.039229374 0.0106744 -0.041048642 -0.011440956 0.081771545 0.0021765733 0.04214642 -0.057282805 -0.045034345 -0.027689528 0.055368103 0.06820667 0.03203773 0.013151348 0.09318123 -0.061612733 -0.03856567 -0.013434197 -0.058313802 0.018171847 -0.04524291 0.020788455 0.036312956 0.04301828 0.061872695 -0.03198751 0.014382177 -0.079572484 0.020352243 0.054797992 0.0144165745 -0.023047443 -0.019759001 0.029087929 0.012272249 -0.033241093 -0.030366318 -0.05242257 0.0055316947 0.02530077
?AT0890 -0.015557764 0.0478968 0.07632022 -0.0107339835 0.024839818 0.061615862 0.008749338 0.03318158 -0.064614296 -0.05935043 0.019163117 0.013598831 -0.005040771 0.012712231 -0.08040775 0.07001699 0.033503443 -0.011287048 -0.028629469 0.02068097 0.0042127706 -0.0013207998 -0.012266898 -0.04014783 -0.032049987 -0.086393684 -0.007381223 -0.069161266 -0.018650116 -0.00539336 0.0023857004 0.0737183 -0.04930943 0.047455627 -0.008679018 -0.008643844 -0.064457946 -0.00786127 -0.07381567 0.064810276 0.057340756 -0.07385894 -0.0035209286 0.0047113867 -0.08055636 0.054472663 0.10060365 -0.068657614 0.0471694 0.059182145 -0.03779297 0.014013441 0.024389848 -0.077454165 -0.02238252 0.0055255066 -0.0042464277 0.024827013 0.01575565 -0.04415309 0.008492576 -0.045687523 -0.006538743 0.07496911 0.04622239 0.1182657 0.0037454546 0.0655828 0.070680134 -0.023860345 -0.0098950835 -0.015349798 -0.016654806 -0.03200495 -0.044018097 -0.041952763 -0.018343847 -0.05188339 -0.08753506 0.04697619 0.031079816 0.05229896 0.07424224 -0.07315003 -0.0668712 -0.00063868496 0.031645164 -0.07989207 0.07212435 0.0072332677 0.006996769 -0.005529438 -0.027952733 -0.005096112 0.021516718 -0.02722299 -0.026778465 0.07325653 0.053648826 -0.007841286 -0.005350189 0.016480368 -0.082082234 -0.00064663135 -0.0229224 -0.00075530226 0.032231778 0.010891167 -0.09044169 0.0485934 0.0081156045 -0.009246871 0.039839104 0.049826723 -0.046523158 0.032420784 -0.00036273495 -0.056187835 0.0040868702 -0.015411821 -0.059278306 -0.022665061 0.014309867 0.027654897 -0.0070165005 0.039353706 0.036287557 -0.07327778
?ATA677 -0.072060466 0.0335719 0.0020428915 -0.073417984 0.04736803 0.020321421 0.008901079 0.0627416 -0.098398164 -0.02717416 0.01665927 0.039586958 -0.047629964 -0.07624752 -0.041613393 0.061480165 0.0031818273 0.02755017 -0.026633747 -0.007863158 0.033997543 -0.024260476 -0.00914695 -0.06170743 -0.04899506 -0.05356795 -0.016253978 -0.004190536 -0.07563271 0.06430766 -0.01892241 0.06258402 -0.016077347 0.11522953 -0.028955726 -0.06826654 -0.05332959 -0.032826863 -0.055891782 0.10618322 0.08002109 -0.017778462 -0.03173363 0.06655335 -0.017553963 -0.019180402 0.025675464 -0.009201232 0.051277597 0.08789909 -0.041915983 -0.052078906 -0.0008084838 -0.038958937 0.061512828 -0.017150952 0.01971605 0.03778379 -0.025917444 -0.06551232 0.03631022 -0.05090237 -0.06839984 0.10709738 -0.04320455 0.07239125 0.072664835 -0.022506623 0.008782567 -0.02338444 -0.046362944 -0.009988724 -0.09020106 0.032680795 -0.051345155 -0.031193877 -0.0055624177 0.04027059 -0.06625079 0.04359041 -0.018950535 0.04320899 0.06958706 -0.016656835 -0.06979372 -0.07087128 -0.04969355 -0.020960987 0.07149823 0.025117442 -0.0071091224 0.056153685 -0.0025077225 -0.0017470758 0.03709131 -0.068634525 -0.027843777 0.051898416 0.06866816 -0.066096 -0.0058942335 0.03457187 -0.04760909 -0.0048630903 0.057948146 0.02507861 0.036738783 0.009609643 -0.014664082 0.04305173 -0.013123586 -0.018591274 -0.027695622 0.006942157 -0.087448545 0.016073897 -0.04072949 0.008430572 0.011739403 -0.05670704 0.02905397 -0.014663762 0.026422279 -0.0702193 0.030573595 -0.040096693 0.016647208 0.019240072
?ATB734 -0.031212315 -0.0031267833 0.06524948 -0.061553378 0.07441827 -0.018895693 -0.03077456 0.025646094 -0.0601094 -0.046404496 0.020407235 0.03811376 -0.090841256 -0.025500085 0.0026901297 0.0057363166 0.026582684 0.031692397 0.044920065 0.02760418 0.01574103 -0.010368514 -0.02908099 0.046844676 -0.07945214 0.051461473 -0.009736636 0.0026691789 -0.033993673 0.028450565 -0.010214163 0.091950074 -0.09978901 0.03838072 0.004697463 0.016670404 -0.0053769946 -0.035941597 -0.089795314 -0.0004943853 0.04005504 -0.099628106 -0.02130709 -0.00050866377 -0.070391245 0.023883123 0.07964226 -0.006419247 -0.028817326 0.10105993 0.0025081558 -0.009035782 0.039162677 -0.0984553 0.077100694 -0.049819373 0.017776197 0.018206362 0.032030374 -0.07900076 -0.017460786 0.03204954 0.01726459 0.045498636 -0.06324423 0.06991511 0.06670025 0.056027386 0.0072370614 -0.046136677 0.014907103 -0.028168865 -0.051121823 -0.019405946 -0.010728402 0.068606846 -0.013288775 -0.050557997 -0.03875318 0.025369013 -0.046738755 0.03994079 0.011775803 -0.062315185 -0.0045138546 -0.023401644 -0.024882564 -0.085162796 -0.04171034 0.02923297 0.04120525 -0.012973993 -0.011772421 -0.043618046 0.043031245 0.010593227 -0.0315979 0.050567098 0.07934544 0.014894125 -0.05380555 -0.018480608 -0.046938386 0.04223673 -0.0029801123 0.036403697 0.0051789675 0.055759873 0.006013253 0.05945525 0.011169196 -0.03131597 -0.03133041 0.022065947 -0.042898607 -0.056465305 -0.012231398 0.024915604 -0.038440194 -0.101164855 0.0574242 0.043251883 0.05794993 0.05527085 -0.072964855 -0.059346743 0.07443805 -0.048885092
?AT6016 -0.02243848 0.021733342 0.035248872 -0.017053938 0.023667283 -0.04104005 -0.047999587 -0.02805145 -0.053646497 -0.039960135 0.062912166 0.00029934954 0.038542345 -0.04932671 0.010820682 0.06630906 0.07527421 0.014477868 0.03778726 0.028651925 0.04071416 -0.065707445 0.072646804 -0.0076667126 0.021978363 0.008983056 -0.030161753 -0.060269743 -0.011303709 -0.0077689304 -0.04173617 0.039293412 -0.0056280172 -0.013512033 0.042395044 0.004302422 0.06394316 0.0040516225 0.01352233 -0.045341328 -0.03440623 0.03503999 -0.0011862355 0.058838032 -0.022055507 0.047347907 0.015961738 0.08236268 -0.10419365 0.023774197 -0.031100495 0.04273607 -0.0051230565 -0.034474738 -0.04330119 -0.051185958 -0.010987076 0.0471999 0.02291924 -0.030039228 -0.12887251 0.0123882815 -0.03356425 -0.09131772 -0.01791312 -0.0008016811 -0.065838024 0.031383876 -0.013966956 0.048328504 -0.015139381 -0.013592888 0.00063718646 -0.01425463 0.041208707 -0.050266262 0.022101596 -0.022446543 -0.07105106 0.038075183 0.019472612 -0.0421325 0.041313525 0.055626605 -0.032686397 -0.09292088 -0.049763072 -0.024238277 -0.0510261 0.029132482 0.021551216 0.037841327 0.014782021 -0.0095214695 0.07255199 -0.0544827 0.050925028 0.010941073 0.004470053 -0.07731294 -0.027069217 0.032805547 0.008619855 0.08224182 0.071679614 0.021326087 -0.02644163 0.02090743 -0.0005119295 0.002643626 0.0731857 0.07063748 0.04513472 0.044467967 -0.08505414 -0.0432156 -0.018826153 0.027191017 -0.055215485 0.0009933161 0.017570976 -0.0145251425 -0.032865085 -0.018024188 0.02407569 -0.108118646 0.00073887676 -0.068454035
?AT0078 -0.05873193 -0.029797405 -0.0064491695 -0.03944747 -0.048301116 -0.016389601 -0.08160243 -0.062313855 0.009121478 0.0832131 0.024332952 -0.06643419 -0.011286991 -0.049935013 0.00064570433 -0.04473012 0.011566617 0.00029291736 0.0015995412 -0.026051767 0.0015275613 0.033501778 0.014756322 -0.057029843 -0.03252057 -0.010932359 0.041714087 -0.016464759 0.006949731 -0.07447651 -0.026187418 0.020734228 -0.085113674 0.091762856 0.017661547 -0.06068389 0.008161152 0.0146514885 0.032266255 0.028936116 0.035605844 0.014329351 -0.010232833 0.00052419555 -0.04897886 -0.009184457 0.06412783 -0.11016826 0.015190617 -0.009827444 -0.0012067351 0.011946077 -0.052618038 -0.030877713 -0.10952167 -0.12566051 0.00788104 0.06558128 -0.049752608 0.019475628 0.0022357877 0.02226958 0.0100623965 0.051357117 -0.103676505 0.017340992 -0.024203222 0.009163377 0.06411737 -0.0140262535 0.029320711 -0.046338454 0.03061385 0.01873206 0.029078033 0.05196062 -0.023935318 -0.0007371814 0.050289057 0.036292512 0.11279291 0.01174696 -0.0068285214 -0.040655114 0.038141932 -0.027001623 -0.044560764 -0.01998146 0.02160391 -0.047025967 0.05832127 0.005378029 -0.054863382 0.011683924 -0.049229614 -0.10176047 0.024715247 -0.0032067113 0.05141127 -0.080336995 -0.06601103 0.07197696 -0.008946301 -0.04038414 0.04435058 -0.0455256 -0.04308166 -0.0078667365 -0.040485088 -0.01764897 -0.038891397 0.008617044 0.021158168 0.020191917 0.002567048 -0.05512882 0.03414703 0.03773472 -0.002951829 0.041386124 -0.0564236 0.024390046 -0.02055019 -0.039244093 0.07409271 0.067174606 0.07712804 0.048704505
?AT3682 -0.017772447 -0.05941646 -0.064257495 -0.014976596 -0.009644829 -0.012780543 -0.016500229 -0.097746395 0.05087269 0.031777877 -0.01007283 0.03580887 0.03880094 -0.04674344 -0.022221884 -0.056154866 -0.010205724 -0.04158606 0.042574443 -0.015861664 -0.0015952309 -0.055351604 0.04485849 -0.030735085 -0.12240051 -0.014936409 -0.030401578 -0.010825844 0.07730035 -0.11739275 -0.05073487 -0.0066031907 -0.031008238 0.10726141 -0.0521836 -0.09666228 -0.007521833 -0.050618514 0.07417699 0.02341658 0.06988275 -0.008184784 0.06543469 -0.028722508 -0.034738656 0.044936094 -0.055666845 -0.032828424 0.02124551 -0.0989388 0.09542763 0.02192545 -0.12495896 -0.015523277 -0.03170209 -0.06365634 0.059063084 0.068730205 0.04658203 0.06279797 -0.009861265 0.047830343 -0.023278922 -0.025299415 -0.032635335 0.014044885 -0.033876084 -0.029311854 0.040665373 0.0051734606 -0.015493836 0.0066615143 -0.08187421 -0.023950648 0.016758135 -0.054831 0.024758466 0.011072113 0.03330286 0.023943657 0.046147417 -0.0069891443 0.025018653 -0.003759502 -0.021424158 -0.026074378 0.014942793 -0.07224898 0.0676389 -0.00874008 0.03320858 -0.011457014 -0.028021153 0.026709504 -0.07172718 0.00023021118 0.0006521252 -0.070499085 0.048992228 0.012873432 0.0043281824 0.03666174 -0.03739322 0.0395561 0.08836469 -0.008841035 -0.0473829 -0.0038946501 -0.031766273 -0.0796476 -0.011455781 -0.037094906 0.045320887 -0.019878859 0.028827978 -0.023771439 0.018135797 0.025188453 -0.009988507 0.047881722 -0.057113815 -0.023155194 0.05224379 0.02464922 0.024834035 0.045970038 -0.018734572 0.05697061
?ATB474 0.022941722 -0.0012700235 0.030349327 0.027217835 -0.06274303 0.040501088 -0.047947515 -0.03941677 0.035685718 -0.009165058 0.07048015 -0.010152545 0.022525873 -0.042746246 0.055498563 -0.0056374525 -0.014090639 -0.0037759778 0.017278524 -0.01975793 0.060245287 -0.013434052 0.026368517 0.052908257 -0.04766108 0.00095920276 -0.036478616 -0.020346688 0.0075465846 -0.05758969 -0.014555383 -0.034604836 -0.032008354 0.019207846 0.016678961 -0.062960215 0.050335165 0.025591323 -0.031446453 0.027784318 -0.02124046 0.034422368 0.017804815 0.05598536 0.04143347 0.012239096 0.02106421 -0.028144866 -0.053764988 -0.038150057 -0.005630259 -0.015424728 -0.016268069 -0.018693196 -0.050709113 -0.0043045618 0.043158468 0.04137692 -0.013080937 -0.005449557 0.04809548 0.02241882 -0.017173568 -0.018412273 0.006607889 0.097085506 -0.05464633 -0.027774386 0.097042195 -0.05130188 -0.012189285 0.012362439 0.04248532 0.00635499 0.055557985 -0.031325262 -0.025160939 -0.048815127 -0.015997102 0.00847923 0.09764511 -0.013538872 0.01296013 0.016920473 -0.07241454 -0.0044833845 -0.012998272 0.021407442 0.060073808 -0.027061885 0.008654693 -0.095810965 -0.095519245 -0.046243306 0.025936278 -0.13210543 -0.043504544 0.0436439 0.05826786 -0.05790621 0.03246528 -0.013612092 -0.04439544 0.028343713 0.043142587 0.021984898 -0.04315353 -0.0022771852 -0.002434905 -0.07490626 0.033549055 0.039563328 0.069864444 -0.044939343 -0.02415623 0.014327268 -0.05189438 0.024186218 0.0053383047 0.07112381 0.06526806 -0.041375946 -0.023694234 -0.062406357 0.059630293 -0.017830702 0.038605824 -0.011878084
?ATC993 -0.07270341 -0.0497906 -0.04298568 -0.00827382 -0.03717951 -0.054283798 -0.0744499 -0.08676142 -0.016741646 0.020633345 0.079658896 0.025712853 -0.020447062 0.004123753 0.053877603 -0.028939446 0.00954114 -0.05027578 -0.0010810504 -0.027868154 0.069596894 0.0694156 -0.0028886572 0.017926846 -0.06614498 0.028919091 0.049851827 -0.08538548 0.059267897 -0.028504957 0.017918378 -0.007825774 0.06251978 0.068975255 -0.0739499 -0.06414452 -0.058870275 0.06490669 -0.008138683 0.022459645 0.065035954 0.066631295 0.00089846645 0.034486435 -0.014752695 -0.066631876 -0.06810303 -0.023171116 -0.0038697973 -0.06274211 0.05057407 0.0018260744 -0.0020616592 -0.024577243 -0.09547308 -0.09098384 0.047110625 0.027087841 0.032527126 -0.06938885 -0.059606697 -0.010223723 0.0027771066 -0.034581766 -0.059008148 -0.0072942954 -0.058387503 -0.031210585 0.04632487 -0.06653882 0.022404354 -0.088718206 -0.03820553 0.011508278 0.053562082 0.035087034 0.08257005 -0.018232634 0.036515918 -0.020383716 0.032832716 -0.041637864 0.035821687 0.014170529 -0.040429465 -0.016560523 -0.09549298 0.0011931086 -0.0011513613 -0.016801361 0.030254027 -0.05653121 0.03582209 0.011499114 -0.00444837 0.0008917214 0.06062858 0.016089296 0.097365 0.007249184 -0.035925426 0.032144964 -0.0007653903 0.0023539457 0.13002361 -0.019850982 -0.03434057 0.009846265 -0.041502133 -0.026437119 -0.022325713 0.047351945 0.04289848 -0.034669302 -0.04864995 -0.043027155 -0.06358549 0.039374147 0.007342786 0.02846299 -0.06068156 0.016221512 -0.028898077 -0.010757455 0.019638604 -0.005853783 0.037398018 0.06298279
?AT4860 0.028531382 -0.1268217 0.053432092 -0.06394149 -0.06051362 0.09148704 -0.052423354 -0.049611323 -0.0168542 -0.03539011 0.09124963 0.022525152 -0.040000837 -0.040741194 -0.04146439 -0.0022437961 0.071042106 -0.029854877 -0.013620986 0.0265735 -0.04059341 -0.02403658 0.0006789371 0.05590697 0.02056343 -0.01892193 0.008147599 0.03807893 -0.03673158 -0.054259244 -0.0009529694 0.08575348 0.0025817496 -0.04803545 0.005382266 -0.0014776452 0.015772542 0.045909043 0.0008770737 0.011341584 -0.027845863 0.013727073 -0.0654677 -0.041703194 -0.0872104 0.046341754 0.028808247 -0.029949937 0.0049309833 0.012225007 0.018083034 0.04539728 -0.046516653 -0.0489895 -0.037213895 -0.08063881 -0.034543786 0.011601129 -0.030727731 0.04140499 -0.0484628 0.0068482975 0.015559161 0.063965626 -0.035227858 0.027566427 -0.07497051 0.036652256 -0.0017052995 -0.026787208 -0.06279802 0.02170057 0.032138728 0.0061495253 -0.04028381 -0.020885222 0.049975254 0.0030004515 0.005197807 -0.0061496873 0.041076604 0.044767223 0.0599281 0.061980825 -0.0028041194 -0.009402618 0.043635942 -0.019993486 -0.023020724 0.0018051276 -0.031688057 0.05584363 0.033749063 -0.058069956 0.014063798 -0.062337965 0.042675428 0.0064901463 -0.0035259246 0.0106297275 0.002150806 -0.02831156 -0.019182242 -0.023967903 -0.04727352 0.05370112 -0.01631274 -0.021059552 0.019035723 -0.030003507 -0.052716184 0.041858483 -0.053686272 0.06911801 -0.042032614 0.053553317 0.038993027 0.08034052 -0.037155278 3.227753e-05 0.028823067 0.055756256 -0.0103975395 -0.079306684 0.028673176 0.040759206 0.07020973 0.062866315
?AT7172 0.07013234 0.00056089903 -0.017242322 -0.034296922 -0.015962766 0.002137724 -0.015496943 -0.027295206 -0.024152204 -0.00085470756 0.06980578 0.026518304 -0.053216275 -0.015209994 -0.045345653 -0.0051074093 0.010986233 0.0146452 -0.05199309 -0.005267157 0.0066892584 -0.0056882384 0.011864354 -0.024251845 -0.03712829 0.009203587 -0.01570014 0.09838816 -0.03085016 -0.03847825 -0.055765115 0.05239211 -0.03108025 0.059848342 0.07420439 -0.056772854 0.033482973 0.0019603968 0.04596223 0.006536547 0.0099875275 0.0032560667 -0.018073574 0.011468343 -0.054400887 0.047172 0.061393086 -0.035623465 0.021082764 -0.019642731 0.0133362925 0.04973019 0.0035499118 -0.053673975 -0.0024809742 -0.024585772 -0.094939835 0.02938546 -0.08357418 0.039181184 -0.056797903 0.010464784 0.009155844 0.020126706 -0.060811155 0.019981254 -0.042030644 -0.028531268 0.053688914 0.054311752 0.031389594 0.015666207 0.009947562 -0.0032246346 -0.028619455 0.009264679 0.018790852 -0.0383273 0.05125261 -0.015084491 0.06913553 0.010103788 -0.022330198 0.018665584 -0.034219656 0.058538362 -0.040766038 -0.016018877 -0.026008885 -0.016266651 0.0219927 0.025424002 0.02886354 -0.0035120936 -0.024439327 -0.022952098 0.014469074 -0.023927072 -0.03896384 -0.0076172613 -0.02816273 -0.006254295 -0.0043982477 -0.007982118 0.06563749 -0.024480782 0.037821457 0.0064536813 -0.03320085 0.0005551756 -0.0321012 0.054679815 -0.034176204 0.055751592 -0.009048789 -0.042503707 0.01766779 -0.002975148 0.019838046 0.06349352 -0.007529789 0.025237294 -0.023488296 -0.10364704 0.05138358 0.05618755 -0.0046553086 0.12007925
?ATB108 -0.049956936 -0.02308936 -0.036490194 0.05861902 -0.0027023675 0.058058847 -0.04962889 -0.006854525 -0.010259354 -0.009678108 0.0331591 -0.05985042 -0.026384339 -0.022486301 0.050597694 -0.026900357 0.014081699 -0.014758601 -0.038523115 0.08142746 -0.075277075 0.07264923 0.057184048 -0.072717756 0.0019962096 0.051363427 0.050747387 0.008037481 -0.025604732 -0.039474573 -0.05161029 0.04601826 -0.022848448 0.04772556 0.09417014 -0.07066332 0.0060853274 0.0029638035 -0.035638228 0.100946054 -0.0073163765 0.018453065 -0.011880791 -0.0012487948 -0.09893982 0.012555189 0.046747338 -0.10019786 0.08366835 -0.013447049 0.006689579 0.06493482 -0.057554223 -0.068610385 -0.0062837815 -0.090945885 -0.043461353 0.099602245 -0.017100384 -0.054482795 -0.023735475 0.026180204 -0.038096562 0.0069190194 -0.053357035 0.0136080785 -0.06308659 0.07644804 0.0797745 -0.008053424 -0.0359757 -0.019012274 -0.014333966 -0.025484169 -0.040055167 -0.00801037 0.015113314 0.004592018 0.0881226 -0.00451814 0.048476115 0.009275117 0.030540084 0.0041523455 0.017074766 -0.022243943 -0.095068105 -0.024465024 -0.02457027 -0.033664998 0.061364982 0.030918617 -0.01326222 0.035778668 -0.039192233 -0.059683613 0.033937674 0.01848786 -0.006081534 -0.042480186 -0.07114533 0.05426422 -0.005227262 -0.04171161 -0.059004284 0.025211845 0.018144967 -0.0441488 -0.00068006857 0.039431024 0.051306676 0.016291067 0.01392662 0.01978772 -0.046418134 -0.023579452 0.03976166 0.081048094 0.020988949 0.033718504 -0.013074626 0.07486401 0.030381322 -0.03862964 0.062163312 0.0037351584 0.059764426 0.09720581
?ATC728 0.03809887 -0.04043664 -0.031069936 -0.07669303 -0.015101993 0.010784899 0.024980772 0.019990964 -0.0017104737 0.01903869 0.054280113 -0.05738272 0.0014440458 -0.040362295 0.03285718 -0.013825155 0.03370179 -0.018217603 -0.016448189 0.04312233 0.048736375 0.013158631 -0.06342023 0.037699904 -0.030423267 -0.0072697303 0.043014135 0.014767801 0.0120126335 -0.09044686 -0.06725863 0.049136247 -0.098899215 0.0036842031 0.028509941 -0.0042826347 -0.030992249 -0.055183675 0.019978873 -0.00538214 -0.041514926 0.028355462 -0.077077605 -0.052327994 -0.05861963 0.043349117 0.039138254 -0.07847316 0.0190878 -0.033005804 0.010849555 0.03249068 -0.08109511 -0.0788153 -0.025584191 -0.018177336 -0.06063934 -0.022036351 0.015278686 -0.01527301 0.043588087 -0.070524216 0.03368714 -0.0013226782 -0.054408077 0.012474352 -0.010634308 -0.025169674 -0.009448021 -0.039525818 0.08358848 -0.011225568 -0.030695306 0.037933555 0.0152357835 0.023724753 0.039749097 0.0030335702 0.014334126 -0.00792642 0.008606541 0.016502334 -0.026751393 0.022622105 -0.02210531 0.018869039 -0.046700303 0.051026635 0.010269256 -0.02432882 -0.020952258 0.043002114 -0.04513975 -0.030466167 0.003640746 -0.039834976 -0.022368236 0.022121148 -0.07232633 -0.08050437 -0.02031322 0.047258608 -0.05595452 -0.03500088 0.044907797 0.017088901 0.018976105 0.010361005 0.02554879 0.024813632 -0.028236007 -0.058916442 -0.019362755 0.037635803 -0.019866783 0.013154875 -0.01949858 -0.059481725 -0.062013116 0.008393242 -0.011256698 0.03849541 -0.03210001 -0.019945284 0.00598785 -0.009753343 0.010340448 0.027216977
?AT0079 0.112924375 -0.0033605564 -0.02667566 -0.016780889 -0.053945772 0.04750784 -0.013274456 0.111840576 0.05163758 -0.0472053 0.015369918 -0.045769945 0.03850202 -0.07584649 0.007888369 -0.004348379 -0.021845669 0.0067196875 -0.048554905 -0.022616401 -0.020604534 -0.007932649 0.0040921527 -0.05764443 -0.019805532 -0.010268741 0.030935813 -0.041178495 0.018402264 -0.044741627 0.011972795 -0.016985387 -0.015483783 0.035029024 0.03582614 -0.019591363 0.0499089 0.011789439 0.03624598 -0.009813165 -0.06282718 0.0080873715 -0.045558255 -0.012199476 0.118181355 -0.008833847 0.04252936 -0.049554873 0.08836574 0.005847216 0.061680086 -0.0044036126 -0.004663979 -0.043787695 0.051351454 0.0068289903 0.039412666 0.059867874 -0.014940285 0.05618394 0.010342292 -0.0060523185 0.07524042 -0.0635334 0.018333819 -0.014796279 0.011278828 0.022228613 -0.0028560301 -0.039248016 -0.007982657 0.073993824 -0.041316025 0.0482361 0.007994251 0.056357987 0.0010530076 -0.0057364404 0.06126669 -0.016885053 0.04497065 0.030596176 -0.04050225 0.019795734 0.0019943004 -0.007905445 -0.025338897 -0.025073046 -0.074022815 -0.017979853 -0.023220435 -0.026185757 -0.0075867972 0.0077429684 -0.079750314 0.040804204 -0.083359815 -0.03909557 0.022944354 -0.018367372 -0.012520417 -0.021383421 0.0015741287 -0.0126864035 0.005148411 5.578124e-05 0.004785884 0.03740394 -0.050173797 -0.09011678 -0.033589877 0.05636001 0.05959044 -0.024465464 0.03374481 -0.016791292 -0.0032526327 0.04437995 -0.07209078 0.0076962616 0.0041895923 0.011006518 0.0006680821 0.003719934 0.05364413 0.026648803 -0.05609156 0.014030452
?AT3323 0.023148298 -0.047515217 -0.018549064 -0.011709772 0.020126622 -0.00181733 -0.060776528 0.012633598 0.056563064 -0.026136417 0.043862753 -0.060130335 -0.013971032 -0.015908403 -0.030458525 0.034734234 0.003194382 0.015555559 0.0072712093 -0.07789794 -0.011153832 0.004409198 0.07277262 -0.05758525 0.039739266 0.08337048 -0.059729937 -0.0343026 0.07065493 0.035260987 -0.0055344314 0.029538551 -0.07236353 0.025986858 0.007335445 0.010345112 0.0043630414 -0.05035138 -0.0686616 0.038989708 0.03345328 -0.0036010244 0.022920433 -0.01801367 0.02882511 -0.037501242 0.053177223 0.02446326 -0.0018536232 -0.006546354 0.010323518 0.044148672 0.0017468043 0.020001786 0.057174567 0.040675465 -0.026556592 -0.03596779 -0.027992338 0.022305332 0.05924036 0.0028274702 0.0778544 0.015540467 0.016261851 0.024892317 0.020199923 0.011022167 0.054576077 -0.018771796 0.0010289463 0.044085957 -0.029968407 -0.0006921159 0.0047727325 -0.0108775515 0.068718225 0.007675715 -0.027888665 0.039648466 -0.028195115 -0.036735527 -0.018514354 0.010300687 -0.04793168 -0.018097466 -0.050896656 -0.04929047 -0.011663821 0.096496694 0.0019030694 0.0028741714 -0.007080942 0.019325368 -0.04683851 0.0005886336 0.04451341 -0.066389225 -0.047755685 0.040493138 -0.08227453 0.044507034 0.0592122 -0.063424334 -0.03436145 0.02746003 -0.017059399 0.034703184 0.02504507 -0.03748174 0.01174747 0.014031373 0.05953101 0.07343061 -0.00047082893 0.08312507 0.021280797 0.058024153 -0.049082074 0.0076973904 -0.03620733 0.03539907 0.04520548 0.011739039 0.018683104 0.0033842854 -0.052259035 0.09846701
?AT6605 0.079833135 0.06673461 -0.04213183 0.06648964 -0.0031153343 -0.0031747352 -0.0024239242 0.049299125 0.1164047 -0.058563188 0.041696694 0.07860476 0.016717402 -0.06708824 -0.03394696 0.0064423564 -0.016811926 0.02231084 -0.0325473 -0.00024886252 -0.015433702 0.043884348 -0.05539081 0.0025242611 0.0015772765 -0.030395603 0.021667752 -0.0055255448 0.003057491 0.013812332 -0.0128740445 0.022038663 0.09424348 0.033681743 0.007522855 0.0064890245 0.018257635 -0.029849354 0.03703188 -0.038794596 -0.04907177 0.037706114 -0.040213514 0.038471334 0.030775618 -0.0293678 0.019651664 -0.022185752 0.052378245 -0.029890165 0.077986546 -0.07867855 -0.07932798 -0.057679035 0.007314324 0.043854192 0.090461515 0.08299242 0.017928012 0.070841655 -0.010170746 0.0005001718 0.026738964 0.039368115 -0.045016356 0.062762 0.032036398 0.04393263 -0.03327115 -0.07478757 -0.022052893 0.029997315 -0.027443718 0.029987233 0.019190788 0.021051485 -0.014012721 0.043092497 0.0010263992 -0.03939775 0.025305035 -0.0005243507 -0.047942992 -0.04090876 -0.008387529 0.02644081 -0.009269797 -0.04112344 -0.02412557 -0.024733722 0.022107696 -0.017571103 0.06557235 -0.044999916 -0.028730169 0.04234371 -0.059573006 0.07387534 0.054776486 -0.04375432 0.109043345 0.057569157 0.018053226 -0.042476412 -0.02454101 -0.009881347 0.032102466 0.033048164 -0.02735898 0.024719562 -0.10513717 -0.02531307 -0.041007973 -0.076486595 0.10638427 -0.026288113 -0.035637036 -0.019057244 -0.021720495 0.038430665 0.04323423 -0.049703885 -0.0814547 -0.030794835 0.03396854 0.04526655 -0.08074848 -0.03051706
?AT9642 0.0485748 -0.018108284 0.020488895 -0.038932636 -0.076144524 0.051303037 0.03836394 0.037861265 0.0064694206 -0.05829755 -0.007425542 -0.03485063 -0.010881086 -0.08044134 0.05704413 0.016280891 -0.0034087608 -0.033042274 -0.032185826 -0.051991895 -0.051775455 -0.07614991 -0.036556244 -0.0648481 -0.07763272 -0.02572329 -0.0027837246 -0.045253143 -0.01367071 -0.009248676 0.07915794 -0.008102026 -0.0006040169 0.0525368 0.02331617 0.00042976596 -0.034346502 0.0097634755 0.012395341 -0.030216435 0.022772465 0.0034805615 0.0023217208 0.01759412 0.075266965 0.026276946 0.015557575 -0.034367863 0.10875784 -0.019517794 -0.020016247 -0.07180001 0.05962534 -0.03322118 0.10010473 0.025862742 -0.071661875 -0.041372728 0.025320176 0.091582544 0.07376599 -0.023656595 0.03619541 -0.009955125 -0.055139303 -0.02946322 0.033455998 0.046607826 -0.02141869 0.00010097303 -0.064176336 0.07216076 -0.07412385 -0.041993972 -0.0024153644 0.09879951 -0.016097028 0.04181817 -0.00011114667 -0.034746595 -0.017240552 0.073733024 -0.004128917 0.029027533 -0.02466104 -0.010487162 0.056350004 -0.062408313 -0.023055 -0.05102083 0.06924004 0.003982776 -0.044092853 0.010217429 -0.044681586 -0.05862854 -0.055090174 -0.07536339 0.05166618 -9.395755e-05 -0.008879767 -0.016618429 -0.04793035 -0.040905114 -0.018798398 -0.009547605 0.0052621607 9.4192364e-07 -0.028770566 0.01311284 -0.010411816 0.07590979 -0.00093035307 0.030446302 0.023301803 -0.021705411 0.06893401 0.024218636 -0.025380785 0.04512283 0.050664533 0.0061229626 0.029539626 -0.037529618 0.04470217 0.04480677 -0.032008566 0.074607976
?ATB017 0.047447965 0.048613396 -0.054265 0.035146862 0.014659962 0.054067843 0.03686155 0.06374786 -0.0149169555 -0.004136758 -0.09587544 -0.043740552 -0.027432082 -0.05001039 0.07761756 0.015164364 -0.04723745 0.06215548 -0.007578031 -0.051903263 -0.05068841 0.030907786 -0.096752055 -0.04127122 -0.017829914 -0.033143558 -0.035288844 0.0047951937 -0.0053230794 -0.057234224 -0.016729886 0.04498898 0.005513295 0.061287884 0.05872428 0.0064357733 -0.0023719163 -0.03820502 -0.034483597 -0.011260383 -0.007825519 -0.024272189 -0.015333423 -0.043967906 0.028959243 -0.02248812 0.072505474 0.016983781 0.06873878 0.040768392 0.04305034 -0.04278187 0.10281374 -0.0060888347 0.060349397 0.02128061 -0.0007820114 -0.0404028 0.026246361 0.078539856 0.047871884 -0.058562342 0.0337832 0.020422174 0.046416745 0.023546793 -0.017112643 -0.006062012 -0.014129119 -0.09359625 -0.022969916 0.05506659 -0.05347824 -0.020087324 0.036850892 0.044344563 0.04003099 -0.0008801747 0.058653627 0.0051878723 -0.0130781755 0.0510975 0.0009073685 -0.03386836 -0.0061255316 -0.06083514 0.05060046 -0.03978483 -0.03251668 -0.00039273183 -0.042119887 0.024472147 -0.060588203 0.035576105 -0.07335272 -0.055583257 -0.093538314 0.007833657 -0.04262742 -0.031068638 -0.01809867 0.055100787 -0.06463551 -0.027257826 -0.030025482 0.013833541 0.0007015574 0.026828462 -0.060290303 -0.016494872 -0.07174968 -0.0044820886 0.009598292 -0.029616335 0.0073097623 -0.040144946 0.006035678 -0.02926451 -0.057702567 0.013909413 -0.055533472 -0.019507507 0.12537828 0.027324531 0.071628004 -0.011511134 -0.071585074 0.033087894
?ATB086 -0.041503754 0.03619206 -0.025347987 0.019987263 0.020201227 0.032535337 -0.0122394 -0.04219391 -0.04237472 -0.015279026 0.026714236 0.011390388 -0.053562608 -0.00018653504 -0.031146608 0.0022236332 0.021619514 -0.072627254 0.07996787 0.020137038 -0.023428187 0.021400867 -0.023238149 -0.08394309 -0.018284086 -0.028721785 0.04103078 -0.037326675 0.010765383 -0.0379393 0.030213807 0.052366823 0.02759043 -0.031922933 -0.05044207 0.0128058 0.0044408855 -0.018255176 0.013124537 -0.011082785 0.07202471 0.052186355 -0.011624771 -0.016416715 0.035169516 0.001951138 -0.07800194 0.02310158 -0.049459483 -0.08861739 0.0561151 0.04086566 0.005066349 -0.020152386 0.016859187 -0.02993495 -0.046451315 -0.08438545 -0.007085922 -0.023780057 0.055176586 0.025594724 -0.08612714 -0.00514953 -0.04005615 -0.023841841 0.0072655934 -0.04869124 -0.050385773 0.0689407 0.017224254 -0.051276512 0.008490107 -0.041819 0.00017775854 0.012015758 -0.024531202 0.03851907 -0.04948841 -0.04921728 0.035326015 -0.030696426 0.03701622 0.031713013 -0.0022144266 -0.08188 -0.0011162237 0.009039825 0.006996694 -0.020576043 -0.022787692 0.024854904 0.029200068 -0.059159856 0.061643668 0.049111553 -0.04997191 -0.010460949 -0.030020444 -0.0075018783 0.015374572 -0.067735285 -0.04467608 -0.040501967 -0.06365526 -0.04863707 -0.06770311 0.042216178 0.01840149 0.050889008 -0.020439439 -0.07788365 -0.02863529 -0.008048627 -0.030451585 0.09634702 -0.048409797 0.034466054 -0.038898557 -0.037841137 -0.011636551 0.05868415 -0.071418755 -0.09030389 0.069950424 0.05498997 -0.037976973 -0.037487205
?AT0093 0.06652631 -0.045733746 0.062692136 -0.080888785 0.06858681 -0.025585357 0.09845826 -0.06837173 -0.030327417 -0.06584625 -0.012279445 0.05549633 -0.11566978 -0.051945575 -0.006624723 0.062349685 -0.01711465 0.066384934 -0.0008375764 0.043492828 -0.03357771 0.07024556 0.004215383 -0.0338884 -0.031133283 0.0905343 -0.014800979 -0.0113057615 -0.0046612206 -0.027414553 0.012756721 -0.10373571 0.03440828 0.01749477 0.06263685 -0.038717423 -0.0188478 -0.059030637 -0.03865414 -0.060049687 -0.050109528 -0.069385074 -0.020761764 -0.026484085 -0.039316364 -0.009326468 0.0779487 -0.117207214 -0.020511849 0.04203132 -0.0047628423 -0.014150286 0.029076157 0.046540663 0.037492458 0.016571593 0.05680747 0.029423704 0.051628824 0.01403424 0.010041977 -0.034723677 -0.043140005 0.018942742 -0.05250788 -0.011721701 0.047385756 -0.048296355 0.017114284 -0.057406258 0.032381766 -0.017355356 0.0075398153 -0.013161246 -0.0666611 0.07662761 0.03444036 -0.0066905916 0.090332046 -0.05707326 0.017897991 -0.0026905946 -0.0754491 -0.0031763152 -0.008828974 0.04905252 -0.02602757 0.03986398 0.012804246 0.007879662 0.08511278 -0.030072233 -0.053733252 -0.0632758 -0.020430796 -0.05838623 -0.048606195 -0.048251584 -0.07645692 0.0059501478 -0.03303096 -0.07418152 0.035232317 0.045534387 -0.039476216 0.052042443 0.020057516 0.010075165 -0.010112971 0.019628726 0.03919652 -0.03741338 0.009074564 0.035199888 -0.09112937 -0.086410396 -0.020725284 -0.0030193743 0.07303321 -0.01830723 0.07780119 0.0439742 0.026387516 -0.006215834 0.019976286 -0.020722358 -0.019996904 0.041431755
?ATB955 0.009040627 -0.0021547533 -0.05182275 -0.049895197 0.0053096516 -0.03268681 -0.00024154429 -0.0560514 0.009816443 -0.004380927 0.00025854702 -0.026759211 -0.0038595658 -0.022536356 0.011985787 0.011858924 -0.09204484 0.08700413 -0.03107975 -0.030272584 0.056219462 -0.054481942 -0.04495326 -0.09309206 -0.07923627 0.0694134 -0.058562905 0.024120076 -0.014175544 -0.013649875 0.036420412 -0.05528338 -0.0025241438 0.008336634 -0.016135888 -0.042202458 0.0045582815 -0.017811935 0.022160305 -0.11195594 -0.028059099 -0.053381015 -0.016807267 0.05064469 0.04830263 -0.004221798 -0.017868407 -0.036561053 -0.050507598 0.05827655 0.04340621 -0.01402814 -0.04436021 0.011332961 -0.04844909 0.002410989 0.116738826 -0.003218914 0.034995295 0.007117032 0.0071553066 -0.05308473 -0.0626763 -0.010755666 -0.02804856 0.023583036 -0.003631357 0.016335418 0.015654515 -0.026340911 0.018138992 -0.009704517 0.058848266 0.006482136 -0.04709139 -0.05031897 0.028254533 0.028388703 0.047141526 -0.043216493 0.046005525 0.054740775 -0.09124107 -0.00843451 0.035885964 -0.026488828 -0.0422379 0.009897133 0.070021674 -0.004268334 -0.00034853458 -0.0033871778 0.0003801618 0.0698668 0.021480007 -0.02218665 -0.026009051 -0.03886387 -0.06013421 -0.040300325 0.054981403 0.048181735 0.020355381 0.0581981 -0.05637483 0.054506857 0.06512246 -0.030058352 0.027139 0.04032632 0.043198068 -0.002912591 -0.019462055 0.056625385 -0.017307611 -0.031647082 -0.0011979304 0.025534758 0.022528414 0.031325765 0.015405964 0.06385206 -0.033468492 -0.038813386 0.054537598 0.0024789344 0.035081107 -0.04964566
?AT8711 -0.008155085 -0.0012307403 0.080473736 -0.015123555 0.013507873 -0.02430559 0.057586536 -0.023030508 0.007226749 0.022202838 -0.0020884948 -0.0008881899 -0.0889647 0.0020178 0.002789279 -0.002517107 0.019436467 0.08602528 0.0062205405 0.069514915 -0.03132215 0.022573348 0.01932635 -0.012497364 0.042638913 0.0015792084 0.042179953 0.019953845 0.035567585 -0.016778156 -0.019528583 -0.02642276 0.009267736 0.042520836 -0.015589613 0.035953045 -0.030248258 -0.027283339 -0.03632356 0.007418349 -0.039844487 0.007777422 -0.06750661 0.013099043 0.049492434 0.0049954336 0.07158952 -0.022020092 -0.030611923 0.052204933 0.04470876 -0.032452222 0.0061767604 0.06366448 0.071055405 -0.036239594 0.04956343 0.031255167 0.0031275523 -0.008255816 0.027931742 0.009363498 -0.065407716 0.025939748 -0.018443894 0.05100482 0.09606576 -0.0652503 -0.03843413 -0.06106105 -0.0038146365 -0.02299164 0.028674098 -0.050548278 -0.09088348 0.044575747 0.014942685 -0.023931475 0.0020861148 -0.05940578 0.025053939 -0.0013996286 0.009751378 0.0063830907 -0.01695316 -0.00749937 -0.0065220916 0.011923702 -0.007080325 -0.04811776 -0.033063866 -0.02769458 0.033536263 0.03535312 0.017367197 -0.04908431 0.045162775 -0.0010679201 -0.04153457 0.024833193 0.06549598 -0.04998872 -0.01820156 -0.0074510607 -0.008503082 0.054276925 0.0043528946 -0.0009646539 0.037332676 -0.08336603 0.05426798 0.04246504 -0.05373563 0.0453358 -0.035120584 0.037039947 -0.03818606 0.034815803 0.01160224 0.07229403 -0.009599475 -0.032728262 0.008952416 0.02407624 0.0029245825 0.059761073 -0.041357614 -0.060247287
