1909 128
?AT0004 -0.04808156 0.33704722 -0.38850835 -0.63341296 0.14166313 -0.5623256 -0.25696763 -0.43003833 -0.28342244 0.33080956 -0.5425513 -0.43329272 0.59939075 -0.02692382 -0.42234266 0.12617235 0.6508386 0.0020039876 -0.15993395 -0.15574642 0.005621213 -0.7091372 0.28634924 -0.1645085 -0.44853544 0.48400107 -0.56379896 -0.5187468 -0.5139812 0.46733347 -0.4317704 -0.540632 0.34832928 0.0131772775 0.12549713 -0.28722143 0.5184732 0.35166806 0.434164 0.06348785 0.18793513 -0.18725511 -0.4118025 0.12748004 0.09595369 -0.993412 -0.3089046 0.13497175 0.09219074 -0.591142 0.08870979 -0.5134038 0.06542342 0.3514154 -0.2277854 -0.054866273 -0.2817116 -0.34408584 0.079542145 -0.96825665 0.37055135 -0.24171647 -0.017712485 -0.14555301 -0.499318 0.09333391 -0.00885718 0.30841163 0.21797557 0.37183633 0.42903158 0.3693088 -0.29895142 1.0320834 0.3195868 0.7938994 -0.5882522 0.661941 0.014241854 0.79099905 -0.2105579 0.05483325 -0.036504924 0.15396921 0.36522767 0.5344865 -0.8018505 -0.38382336 -0.5123935 -0.19893841 0.3576743 -0.1777879 -0.2755386 0.28879195 -0.27568638 0.7082043 -0.08036675 0.29958838 0.69162834 -0.62190104 -0.20102794 -0.34266704 0.019352127 -0.10130741 0.10391219 0.4413328 0.28856722 -0.43110412 0.26158434 0.26568365 -0.116115265 0.6252173 0.37033966 -0.27384314 -0.37005246 0.15287554 -0.23848477 0.5813117 -0.2537498 -0.22046073 -0.12619403 0.3961957 0.2767466 -0.46596196 -0.5641001 0.5091314 0.2619821 0.28933623
?AT8933 -0.13598296 0.0751089 -0.008792061 -0.22494256 0.25316092 -0.08075095 -0.12141676 -0.56457824 -0.17628556 0.2271664 -0.067263976 -0.12467251 0.2993944 -0.072663486 0.032711215 0.038241465 0.085652165 -0.06186433 0.08661025 -0.017219838 0.15665129 -0.347704 0.12737428 -0.2640242 -0.4673785 0.45441753 -0.12532629 -0.29161656 -0.41310826 0.22217306 0.086645395 -0.21783172 0.13339013 0.2977322 0.14007294 -0.42993522 0.38512582 0.13629477 0.16059683 -0.1296244 0.081072226 0.07642945 -0.24163762 0.09082208 0.016382184 -0.53520286 -0.0021975122 0.10988351 -0.009022443 -0.20067589 -0.06486171 -0.56546944 -0.18499899 0.041336738 -0.4144704 -0.12741229 -0.122637525 -0.17214161 -0.1814084 -0.27159056 0.15243693 -0.25377795 0.09603935 -0.057073046 0.03901324 0.009062909 -0.09137536 0.3294523 0.23575485 0.3674047 0.039576825 0.118417084 -0.01881534 0.29880503 0.24766697 0.49658287 -0.05652456 0.43941197 -0.034460302 0.16265123 -0.017041562 -0.02407467 -0.10419383 0.07315805 0.17971939 0.44970372 -0.46228617 -0.016985923 -0.47557846 -0.11827485 0.24381617 -0.040899143 0.00023640775 0.5807135 -0.24891855 0.43526983 -0.05635639 0.2920225 0.45897073 -0.39702484 -0.2955959 -0.015090747 0.14426026 0.034049567 0.1492198 0.25517383 0.12455755 -0.27555186 0.3616162 0.35892054 0.0959699 -0.024938839 0.2973832 -0.35157403 -0.21408041 0.27564692 -0.051548947 0.45346767 0.03168029 -0.21665233 -0.33295593 0.2634286 0.38599873 -0.09974373 -0.38537753 0.11739761 0.27706414 0.49562553
?AT5331 0.005762797 0.46112657 -0.5244304 -0.6437406 0.15541197 -0.9615042 -0.50444853 -0.14349596 -0.1640853 0.3044954 -0.6710987 -0.50982213 0.6436952 0.037873216 -0.4479217 0.11119259 0.68874174 0.012656447 -0.34755993 -0.08818167 -0.074548304 -0.4916024 0.15589331 -0.26762918 -0.2180886 0.39018112 -0.77356577 -0.62468773 -0.5247858 0.38644624 -0.7912931 -0.35061976 0.37278312 -0.16568065 0.32093954 -0.2045874 0.6448458 0.38628417 0.3263029 0.06527695 0.2054853 -0.4395212 -0.41573173 0.13240017 0.053358857 -0.74343324 -0.56236124 0.14778638 0.033764612 -0.6478642 0.092552416 -0.5173312 -0.03104781 0.3689115 -0.061919756 -0.23701085 -0.44138557 -0.32052583 0.4403975 -1.0089136 0.46166772 -0.49776366 -0.0828816 -0.23218217 -0.63833547 0.16786723 -0.13401866 0.35460588 0.10871644 0.56606805 0.6686397 0.29796964 -0.1953815 1.2148513 0.35205635 0.6705837 -0.61815804 0.5613615 0.15303072 1.3196471 -0.30583653 0.2248817 0.121570684 0.14557499 0.24371663 0.49467766 -0.7151388 -0.48326346 -0.55325013 -0.20366623 0.39064562 -0.28828463 -0.537506 0.23593137 -0.51455295 0.9346872 0.094707705 0.11692122 0.6948714 -0.60009885 -0.2098958 -0.5266672 0.08653961 -0.2447565 -0.07946533 0.4198988 0.11374272 -0.31582463 0.39778328 0.25252694 -0.062435888 0.66806954 0.375758 -0.4195003 -0.28637603 0.3189238 -0.27588746 0.8109351 -0.3528081 -0.21951072 0.14248528 0.39255905 0.21021302 -0.46255663 -0.5820631 0.5248914 0.1955229 0.3331065
?ATB708 -0.08868768 0.39931127 -0.575821 -0.79604137 0.24086434 -0.6588938 -0.24875064 -0.45815843 -0.37293646 0.32965615 -0.6141711 -0.6355376 0.5871893 0.061848428 -0.5614797 0.19499981 0.7250203 -0.029507492 -0.11396119 -0.15887202 0.06326953 -0.95564723 0.45261568 -0.20336129 -0.4255495 0.47098744 -0.57152563 -0.624316 -0.4757046 0.4653289 -0.34730175 -0.55480397 0.36158904 -0.026365174 0.16607043 -0.24974093 0.6730562 0.54996234 0.2524072 0.005957654 0.28548166 -0.35863382 -0.5263359 -0.05851688 0.061360575 -1.0918828 -0.5982857 0.120748304 0.048958655 -0.7990651 -0.08824787 -0.72412694 0.12927215 0.5049033 -0.39997238 -0.1460324 -0.18307067 -0.41276857 0.146913 -1.125593 0.33149007 -0.35612613 -0.007892796 -0.1490428 -0.69826025 0.09494181 -0.0011514573 0.18504336 0.23252346 0.37613705 0.5725743 0.20830095 -0.23868904 1.2180706 0.28640968 0.82702863 -0.60777706 0.69823647 0.13444129 1.0546968 -0.23755054 0.059066594 -0.069683075 0.11560601 0.5740778 0.67751837 -0.93071645 -0.39654645 -0.4482957 -0.056755807 0.39909828 -0.11926779 -0.30787444 0.26103818 -0.41494632 0.9039859 -0.061606996 0.18219909 0.6490517 -0.6278246 -0.032504793 -0.253345 0.011974381 0.019312182 0.11801883 0.54750663 0.32412258 -0.4516619 0.25001493 0.25050637 -0.25752637 0.64440733 0.27196562 -0.28926188 -0.3981252 0.15806852 -0.30615264 0.70693016 -0.3661888 -0.32927206 -0.16919564 0.48708048 0.44125 -0.41884172 -0.7441958 0.6641492 0.45924413 0.21785048
?AT0008 -0.38476306 -0.57656825 -0.025740791 0.26042196 0.48193985 -0.255211 0.6946884 -1.315927 0.007050491 0.30674255 -0.20935759 0.102810845 0.45183182 -0.10356764 0.79026085 -0.66234505 -1.3427196 0.29683268 -0.53341 0.75839025 0.2147359 -0.55764407 0.15632421 0.33356786 -0.5398129 0.28658664 0.39777306 -0.12279416 -0.0579957 -0.28407168 0.16995986 -0.41972739 -0.5149776 -0.2628855 1.0148295 -0.8061979 -0.48792315 -0.46244872 -1.1683247 -0.8158715 0.911889 -0.2565105 0.3867405 -0.16536285 -0.10865437 -0.101283684 0.107798055 -0.4785407 -0.95010144 0.09197737 0.63918495 -0.11810144 -0.9047362 -0.7185874 0.22534396 0.075352274 -0.41248152 0.21893063 -0.23971567 -0.0796757 0.5470881 -0.7685262 -0.4390793 -0.58560735 -0.19708322 -0.29636526 -0.35516217 0.3584947 -0.9691281 -0.15245475 0.34188765 0.282531 -0.7924178 -0.2934891 -0.6786746 0.22530259 0.3767705 0.55766916 -0.084171906 -0.5686656 -0.098145194 0.5142283 0.60461485 -0.81526303 1.1236827 0.02640346 0.43960577 0.10996961 0.012007402 -0.16199811 0.1115202 -0.06665537 -0.31305516 0.33558217 -0.35412765 1.0650764 -0.030147543 -0.9250744 -0.041990627 0.54316694 0.13662598 -0.37598827 0.2712136 -0.42651904 -0.12759279 -0.1412002 0.012958754 0.63004726 -0.21551552 0.7833622 -0.49667823 0.7037912 -0.36718583 0.2976803 0.75858915 0.2864054 0.76370114 0.30647373 -0.054358628 -1.3796159 0.05236743 -0.19087066 -0.35020787 0.30998313 1.0533947 0.7389546 -0.0313433 -0.82160246
?ATB071 -0.3843554 -0.620922 -0.16359249 0.2859807 0.38557842 -0.38538632 0.68144435 -1.3622495 0.07271413 0.29564315 -0.22151192 0.16917741 0.4518593 -0.16890045 0.73144597 -0.69772124 -1.4101447 0.3737032 -0.5698487 0.82960504 0.14826287 -0.5826471 0.1686786 0.40873536 -0.40710226 0.37760374 0.36223787 -0.17268471 -0.07527023 -0.31739935 0.07154262 -0.5309377 -0.6331489 -0.19632812 1.0536494 -0.82325286 -0.6475876 -0.40483066 -1.05188 -0.95270777 0.98253113 -0.24621727 0.28672642 -0.14122225 -0.015554493 -0.18400395 0.044500656 -0.59655225 -0.99205065 -0.031901266 0.6379176 -0.097521 -0.8989883 -0.74690384 0.38954654 -0.078778505 -0.51058185 0.23482905 -0.3775201 -0.14665131 0.43467855 -0.9220004 -0.50386643 -0.58078027 -0.2569386 -0.34035733 -0.26100525 0.42520672 -1.0281451 -0.22285412 0.27109417 0.3501729 -0.856861 -0.23811497 -0.76581395 0.22132188 0.36193967 0.70892256 -0.092140354 -0.7364018 -0.07530694 0.55682915 0.5918812 -0.9298075 1.085103 0.014194491 0.59099406 0.14281385 0.03505252 -0.24314801 0.091271944 -0.03532714 -0.27158993 0.40660942 -0.25091708 1.0942316 -0.16553262 -1.0699263 -0.00192938 0.52491456 0.24003482 -0.3939612 0.48393506 -0.49472925 -0.15118925 -0.022237686 -0.043614004 0.7542753 -0.18396758 0.7943997 -0.57355833 0.7431281 -0.36356813 0.3979665 0.776305 0.324951 0.74840456 0.34344834 -0.06533835 -1.4444443 0.082743995 -0.26710755 -0.3681767 0.37919205 1.131619 0.748339 -0.07675988 -0.80939037
?ATA767 -0.33577594 -0.37122697 0.0033286915 0.29228956 0.41104174 -0.14314039 0.54806465 -0.9212873 0.060994398 0.21930164 -0.3054103 0.19672272 0.24876705 -0.045282207 0.661307 -0.34104276 -1.0235915 0.25756112 -0.3467909 0.40652028 0.3845062 -0.522751 0.03673727 0.21469012 -0.42163968 0.24147247 0.43902913 0.043646935 -0.19221205 -0.0645313 0.38099283 -0.37862542 -0.41804406 -0.15567385 0.89368695 -0.6969483 -0.3223439 -0.3096668 -1.003094 -0.52032834 0.7021448 -0.4246612 0.4211311 -0.058267854 -0.20926878 0.049994074 0.16753554 -0.4774797 -0.73013824 0.18433575 0.2803224 -0.118849926 -0.708632 -0.4262552 0.24234416 0.0709716 -0.29087025 0.1970913 -0.27983147 -0.11215168 0.45456815 -0.7643534 -0.36405432 -0.2885783 -0.21474446 -0.08807894 -0.17263886 0.20076571 -0.633545 -0.009843112 0.49251884 0.06331826 -0.6520708 -0.17985474 -0.60499835 0.18681121 0.21485355 0.52345484 0.0014312356 -0.40164346 -0.038064156 0.23752052 0.4054196 -0.6725276 0.80037725 -0.022595238 0.20472296 0.15796065 -0.112907805 -0.08362813 -0.012867241 0.21538754 -0.21873581 0.22694717 -0.2728578 0.76654816 0.039035372 -0.6700653 -0.05967918 0.40673688 0.06033267 -0.1965017 0.10733676 -0.28240466 -0.080354854 -0.09912976 0.11637541 0.59124196 -0.21149291 0.8532783 -0.28874916 0.57547456 -0.32044077 0.25655228 0.66759896 0.28730208 0.53738415 0.31489703 0.03487241 -1.1855959 -0.12452422 -0.15140776 -0.29690203 0.2647509 0.9248461 0.75920105 0.096397586 -0.7487328
?AT0010 0.061249148 0.03804776 -0.07719369 -0.25811356 -0.1849446 0.9945229 -0.2621939 0.26056638 -0.018777184 0.74113995 0.28854564 0.9506287 -0.013745983 -0.072802655 0.6401515 0.047299583 0.104429 0.21027869 0.23373239 -0.2740945 0.86792994 0.18755005 0.09203811 -0.62293607 0.025257546 0.7572063 0.27568516 -0.030723937 0.25601622 -0.37883472 0.37697092 -0.022913821 0.05937149 -0.09661106 0.33056492 0.006668069 -0.29296806 0.353188 0.22619969 0.2984115 -0.40917575 0.278862 -0.3154038 -0.22621113 0.07132867 -0.87816113 -0.20261705 -0.057730485 0.29383314 0.3824899 0.12041554 -0.102671556 -0.12280328 0.10780998 -0.1406606 -0.25550443 0.5224862 -0.17351322 0.084019065 -0.19334847 -0.47009534 0.054191615 -0.22349831 -0.46027458 -0.039773945 0.1506262 -0.055807024 0.32656512 -0.3897751 -0.104424916 -0.027552914 0.052268986 0.026764562 -0.57061076 -0.6257007 0.4168689 -0.13699538 -0.40926105 0.20363462 0.31503314 -0.3280231 -0.5329312 0.083598524 0.19216117 0.27651882 -0.0239252 -0.4013961 0.32446685 -0.28181347 -0.30472872 -0.1635072 0.425171 0.091165856 0.95954645 -0.6194208 -0.18252781 0.86010915 -0.0011907966 0.856068 0.09132935 0.04109086 0.29314736 0.5609687 -0.24571358 0.30932304 0.58689344 0.18315035 -0.23186515 0.578769 -0.46760884 -0.3932331 0.30009988 -0.11647563 -0.42821872 -0.18227907 0.39087155 -0.17577162 0.6740344 0.09672746 -0.5278054 -0.32360646 0.15498866 -0.08520118 0.09998298 -0.4826357 -0.28872538 0.3075811 -0.29720956
?AT0507 -0.0020477076 -0.13784267 -0.029347941 -0.28429136 -0.125391 1.2590274 -0.47311756 0.3131019 -0.18970563 0.4886788 0.31818286 1.1396064 0.17935486 -0.22189596 0.8632925 -0.05661632 0.6408547 0.21239065 0.30664733 -0.17641896 0.9045031 0.2739323 0.12713091 -0.66385853 -0.36345258 0.8495239 0.23267801 0.010877142 0.2004547 -0.17304046 0.26087832 0.23763794 -0.24012807 0.07779327 0.17044804 0.26270577 -0.30705526 0.51011264 -0.052546635 0.115586475 -0.100701876 0.26422703 -0.81584376 -0.39591616 0.16500747 -1.0104092 -0.4280476 -0.07688464 -0.015323204 0.4143182 -0.14062643 0.04268342 -0.27758762 -0.15758982 -0.27671346 -0.303982 0.261328 -0.18481489 0.24373467 -0.20525722 -0.45908397 0.35197353 -0.32736513 -0.47286645 0.1653434 0.18639567 0.13300353 0.16104575 -0.43542442 -0.01940877 0.024159338 0.06925042 0.4749397 -0.71090907 -0.6139268 0.26280493 -0.13067193 -0.36538282 0.19376917 0.07705115 -0.586311 -0.8019635 0.2482965 0.39195174 0.59608114 0.0027066406 -0.4978818 0.4050518 -0.28918085 -0.5199716 -0.22662096 0.516746 0.08272663 1.1527494 -0.73018 -0.20115113 0.8274044 -0.23814948 1.0538647 -0.03901666 0.016573112 0.2428594 0.40919486 -0.267417 0.1829012 0.71565413 0.18813089 -0.19816324 0.5992519 -0.29142967 -0.56682694 0.4937508 -0.42452627 -0.45783564 -0.020650424 0.2838068 -0.29577112 0.8616198 -0.07715969 -0.4963742 -0.5298998 0.22522135 -0.23469971 0.39636683 -0.38531303 -0.33688617 0.43512192 -0.052951682
?ATC367 -0.0674692 -0.018122183 -0.2741224 -0.34342083 -0.024091106 0.8741862 -0.10075796 0.1680842 -0.099535875 0.549892 -0.030000897 0.57725364 0.18792124 -0.30612367 0.76005006 -0.121237844 0.4350227 0.15214476 0.33607137 -0.118403666 0.7733963 -0.0036479484 0.36692265 -0.4593557 -0.0888424 0.8579609 0.2552472 -0.0027168242 0.08183551 -0.14803226 0.6318888 0.03658006 0.08868057 0.24764976 0.30410436 0.39415383 -0.30782655 0.4646114 -0.04333575 0.32179543 -0.2161664 0.052245278 -0.37363234 -0.24229889 0.15086322 -0.8047351 -0.4911153 -0.17340948 -0.16528001 0.28176013 0.21177463 -0.275325 0.051436573 0.060493067 -0.13297726 -0.2671045 0.33242717 -0.34673613 0.101168096 -0.2216589 -0.36921996 -0.023449866 0.027651489 -0.398715 0.024769653 0.22753714 -0.1731925 0.40239546 -0.16368671 0.23209542 -0.0032682447 0.013138189 0.08643292 -0.35614583 -0.44040024 0.32879382 -0.1501678 -0.68174016 -0.28048205 -0.02259849 -0.49586254 -0.3745255 -0.040676326 0.24753919 0.51772475 0.28328922 -0.4194948 0.28240183 -0.17262478 -0.21908641 -0.0010838859 0.07291472 -0.19192743 0.58915776 -0.34705076 -0.18574876 0.77912676 0.056048535 0.89069474 -0.025323857 -0.11239019 0.37678164 0.37852702 -0.24868722 0.17588314 0.503828 -0.061916173 -0.05745354 0.6040727 -0.47819734 -0.261183 0.31521583 -0.11367554 -0.5298603 0.1326479 0.30600086 -0.15133251 0.5592045 0.14232089 -0.34597096 -0.5756047 -0.09582359 0.05382516 0.3095259 -0.4282059 -0.06805887 0.35312542 0.14599246
?AT9633 0.4052283 -0.057400875 0.020425916 -0.057043564 -0.4584312 0.5396402 -0.013033534 0.26202682 -0.002699581 0.7649252 0.21893464 0.755705 -0.350344 0.14438987 0.00033360784 0.27809048 -0.49756885 0.0105433585 0.014633412 -0.3172189 0.63115823 0.13650273 -0.19694968 -0.39062786 0.47033107 0.38226616 -0.11004073 0.14000465 0.14984743 -0.70659584 -0.0065176506 -0.042795062 0.105926275 -0.53449243 0.34513766 -0.29931042 -0.2402705 0.26297772 0.104664415 0.14957559 -0.1664099 0.20370619 -0.07197294 -0.17708583 -0.10415844 -0.52865976 0.07149137 0.39354837 0.52564585 0.30131993 0.27356786 0.12254126 -0.027763253 0.203854 -0.1161098 -0.114948735 0.44412655 0.014388225 -0.18507776 -0.13163497 -0.16361134 -0.21540013 -0.1472395 -0.2666171 -0.19273242 -0.028309856 -0.21251419 0.09549853 -0.21582651 -0.4566783 0.11093537 0.12949097 -0.47084588 -0.14374141 -0.24948567 0.5130715 -0.0034669917 0.07324464 0.3862795 0.58467084 -0.10271312 -0.33411312 0.3127604 -0.24473473 -0.2753629 -0.17081784 0.13507077 0.08722277 -0.20025425 -0.12485811 -0.24290223 0.2208136 -0.06973615 0.6940216 -0.42035967 -0.017920332 0.7202617 0.17497534 0.50704837 -0.14168637 0.40575552 0.07286718 0.40892938 -0.20740755 0.6338991 0.51539725 0.2336676 -0.24639055 0.25176576 -0.29679704 -0.18557134 -0.018808775 0.06600284 -0.1595084 -0.14242564 0.54208916 -0.099433415 0.32010037 -0.117826834 -0.3066524 -0.007480969 0.22086838 -0.01027218 -0.025334684 -0.35540265 -0.23573244 0.25310192 -0.4837687
?AT0019 0.36962834 -0.3173091 0.14237364 -0.12118898 0.090312816 0.39608142 0.30258963 0.77472174 0.13782679 0.2621657 -0.7255508 0.3997653 -0.114896104 -0.3559543 -0.14928293 0.5054398 -0.331936 0.33309448 -0.022703795 0.044794757 -0.18395346 0.27399272 -0.63535726 0.22632459 0.098042935 -0.0020825781 -0.037437063 -0.109603554 0.09594804 0.20773344 0.041317016 -0.5575838 0.08862112 -0.09497325 0.07900365 0.010641952 0.032454062 0.2522462 -0.24084628 -0.2772078 0.26299873 -0.0008453145 0.28526825 -0.6776073 -0.32464975 -0.34369057 0.32046688 0.08290251 -0.12346099 -0.46848884 0.56254536 0.26604432 0.049252026 -0.06540765 0.17129423 -0.30515242 0.3981493 -0.29932958 -0.042626634 -0.07879682 -0.3226676 -0.48537222 0.39329427 -0.32543266 0.18301275 -0.11632886 -0.009781074 0.26572236 -0.21920946 0.053910907 -0.37333393 -0.28027952 0.05468168 -0.069127485 -0.139532 0.5745808 0.2515164 -0.066860184 0.15050972 -0.19543953 0.08143471 0.19272856 -0.024844497 0.3689571 0.0760301 0.2708632 -0.11328288 0.6194386 0.3798426 -0.017548705 -0.12509352 0.096658 -0.44330102 0.74730986 -0.039200928 0.5551498 -0.14934027 0.035817165 0.25512248 0.091918595 0.044873912 -0.09641642 -0.0866601 0.71844685 -0.15187846 -0.3978359 -0.1741327 0.15602858 -0.05960388 0.53521925 -0.11554899 0.78997266 -0.25314206 -0.057161704 0.2742316 0.4085025 0.10494013 -0.29104283 -0.1802337 -0.32304046 0.19233441 0.24203913 -0.68508977 0.1512397 -0.6363566 0.3061119 0.07736443 0.053509355
?AT2989 0.6033133 -0.10629007 -0.17214298 0.17296556 -0.105195984 0.3049616 0.1297464 0.5914791 -0.0953057 0.16894163 -0.5443382 0.3249622 -0.08281685 -0.1066092 0.09114852 0.5069585 -0.31787714 0.3209826 0.2786512 0.2481118 -0.23069207 -0.19111274 -0.3989238 -0.0090878755 0.08210751 -0.058854043 -0.10924779 -0.08856617 0.058352366 0.112059064 0.018808225 -0.59399223 0.17204759 0.06548181 0.07340028 0.017749622 0.26826897 0.15005626 -0.26186016 -0.02963151 0.1972846 0.04347587 0.48095238 -0.32285908 -0.41652977 -0.3703546 0.1070426 -0.059819087 0.13048217 -0.35220563 0.11807359 0.39961722 0.032311767 -0.15290977 0.23398411 -0.1129012 0.41616184 -0.088387564 -0.040604223 -0.13209829 -0.34940496 -0.414295 0.6163938 -0.23932223 0.06426754 -0.16632625 -0.3480691 0.15718931 -0.32284456 0.40372974 -0.44414943 -0.54928327 0.11589879 -0.07724757 -0.19198522 0.7880968 0.31434083 0.033520613 0.11949262 -0.090292834 0.32941797 0.26675358 -0.24343707 0.32999977 0.15521882 0.10398491 0.038401462 0.41346213 0.07814038 0.1267763 -0.25548014 -0.13328868 -0.43056205 0.38548258 -0.14861032 0.59605527 -0.05453106 0.16701323 0.16460352 -0.016236551 -0.18828118 -0.010903692 -0.22525054 0.49003586 -0.054601766 -0.58958143 -0.08081415 0.41396326 0.011626085 0.4676778 -0.017584153 0.8470402 -0.39019898 0.16485831 0.6725984 0.0961859 0.37158203 -0.12895766 -0.15788181 -0.4265205 -0.08579638 0.40083483 -0.38199493 0.09649063 -0.4963785 0.23937319 0.1634063 0.019741897
?AT8553 0.017406488 -0.4264487 0.3155994 -0.09154492 -0.007232213 0.3408601 0.2173721 0.54140604 0.2881631 0.10520322 -0.66733366 0.39926994 -0.16702098 -0.37860677 -0.17564936 0.38125792 -0.24004824 0.2579792 -0.25244573 0.12636176 -0.18541585 0.46952266 -0.6776189 0.40263957 0.20524687 -0.19941556 -0.081708975 0.057022084 -0.07441321 0.113353476 -0.06305938 -0.2929651 -0.1487518 0.093506075 0.12679522 0.18823391 -0.13881548 0.28396115 -0.117845304 -0.2373339 0.32611996 -0.010424738 0.12121937 -0.84506625 -0.22540495 -0.11284504 0.28889602 0.115950584 -0.19910826 -0.4436298 0.74287343 0.23651741 0.10450533 0.04729754 0.20640452 -0.29082686 0.0031884804 -0.34623018 -0.03446963 -0.060571276 -0.039748885 -0.34197938 0.1823972 -0.3956263 0.32631847 -0.050301325 0.17283863 0.08815489 -0.121618494 -0.11412013 -0.18288535 -0.29721576 0.13727497 -0.007924096 0.036028486 0.36034966 0.24202192 -0.2739722 0.06502451 -0.14532924 -0.06672112 -0.27484405 0.17204022 0.30726224 0.159641 0.24698295 -0.19771485 0.8343367 0.558994 -0.3315617 -0.02383499 0.23290166 -0.45641035 0.60517967 -0.13177687 0.41331127 -0.26272997 0.09502516 0.25521195 -0.14781703 0.17109697 -0.07422057 -0.24499743 0.49261487 -0.16155496 -0.11498634 -0.37789044 -0.19509962 -0.054009352 0.2919381 -0.107132986 0.6847519 -0.110653125 -0.25609958 -0.0518294 0.2713847 -0.13606569 -0.14256044 -0.050274942 -0.08072245 0.01638358 0.20508815 -0.7111075 0.107240394 -0.57529515 0.38968185 -0.089759246 0.11379776
?AT0028 0.6311468 0.640681 0.22189702 -0.093690194 -0.30733275 0.4887351 -0.6470045 -0.15888132 0.22900897 0.12272388 0.5157337 0.06396816 0.00034839025 0.39854822 -0.09894301 0.049124382 -0.17784482 0.04518792 0.8466721 0.54820585 -0.39583394 0.21759559 0.40559083 0.16151375 0.20785846 -0.51675725 -0.1949088 0.28956318 -0.2747408 -0.3470516 -0.2689631 -0.88771445 0.07680442 0.37048736 0.8599804 0.14699169 0.03666598 -0.245445 -0.6760117 -0.2494034 -0.19784051 0.12658304 -0.5978352 -0.31210497 0.047327198 -0.16325578 -0.2227515 -0.44773006 -0.53225356 0.5370952 -0.17903455 -0.29944092 -0.5093641 0.385242 -0.027964102 -0.11679666 0.63680047 -0.24220476 0.22322805 0.3823829 -0.28524205 -0.748856 -0.61634386 0.0007510862 -0.19173545 0.048694413 0.4062357 -0.483042 -0.82604975 0.5623711 0.017860187 0.3089343 -0.2309766 0.40348193 0.121365465 -0.14720654 0.5178429 -0.12233378 0.6447071 -0.15490879 -0.2814013 -0.007842306 0.42003304 0.2910391 -0.23638633 0.6520413 -0.0033309315 0.29572952 -0.012537421 0.5057433 0.42082387 -0.4575451 -0.13735569 0.5856395 0.035210293 -0.4581813 0.5957619 0.557209 -0.16355944 -0.3601687 0.5060189 -0.43499178 -0.4131258 -0.20314433 -0.05463697 0.40734363 0.19503242 0.009802927 0.37223423 0.121862665 0.33860448 0.27765188 0.57786477 -0.25915128 0.34777123 0.3059521 -0.5542596 -0.30081373 0.12779021 -0.1017844 0.6812353 -0.35459012 -0.27277347 0.030397046 -0.35598886 -0.016957307 -0.26289287 -0.23539187
?AT2883 0.6364891 0.30247873 -0.072016016 0.25415006 -0.46133402 0.25311556 -0.29462248 0.18535888 0.5465817 -0.04317507 0.5480349 -0.056219403 0.015416315 0.9206071 -0.1099056 0.3423131 0.024901586 -0.3052685 0.7634289 0.57169706 -0.5346995 0.23066497 0.3558182 0.08703609 0.19580108 -0.5161074 -0.33120283 0.5844391 -0.07061446 -0.16220269 -0.22084592 -0.9041816 -0.117806755 0.3570943 0.8692996 -0.15583444 -0.02164083 -0.19909513 -1.1116123 0.031861845 -0.31878006 0.2721104 -0.5869114 -0.25546518 -0.05772966 -0.17057474 -0.21352124 -0.7518617 -0.741293 0.4560323 -0.28037363 -0.3801949 -0.6422014 0.49309516 -0.15781726 0.0634198 0.5271241 -0.33471915 0.38951668 0.21399379 -0.6532996 -1.1109294 -0.5950728 -0.21550937 -0.07166544 0.38411 0.3392956 -0.44800538 -1.3123456 0.124414414 0.33687082 0.44589227 0.00811095 0.393487 0.3665597 -0.21657634 0.2477714 0.16903313 0.44345668 0.3718456 0.04630155 0.17141265 0.47644532 0.21338919 -0.088470206 0.75156623 -0.33845827 0.099856414 -0.42548227 0.3559435 0.68750125 -0.57272875 -0.39462906 0.4852835 -0.28979203 -0.6960378 0.72514164 0.57125145 -0.17075694 -0.49107292 0.907517 -0.10925645 -0.65205586 -0.49466985 -0.16195169 0.43428218 0.23124851 -0.11429486 -0.013410286 0.17369309 0.082662486 0.33806726 0.16043657 -0.16199885 0.68181056 0.43512097 -0.653914 -0.7022956 0.1881247 0.23687568 0.5556645 -0.45198444 -0.41781914 0.19214873 -0.7922493 -0.1664077 -0.6324226 -0.20169689
?AT0084 0.5922491 0.8293321 0.097447924 -0.36109903 -0.45388663 0.60215724 -0.43908766 -0.22445713 0.27151978 -0.11646453 0.37394348 0.1623955 0.21553673 0.33494553 -0.35955656 0.1389657 -0.49492037 0.13636522 0.80769587 0.45877406 -0.47060606 0.21398099 0.45610076 0.08639549 -0.18469232 -0.6040224 0.20020747 0.13511506 -0.04445879 0.014388078 -0.25877652 -0.900793 0.3784747 0.3232443 1.1247187 0.35832262 0.19430068 -0.39979267 -0.5060136 -0.39039654 -0.26550204 -0.050354425 -0.8148165 -0.17940482 0.24362127 0.051342815 -0.6508399 -0.71050006 -0.1343523 0.32283485 -0.30045503 -0.33192465 -0.3192334 0.3593885 0.17343983 -0.23165087 0.44956306 0.016212845 0.15988763 0.49092722 -0.27140468 -1.0226903 -0.28261864 0.019646788 -0.38561282 0.102536425 0.61642635 -0.2570821 -0.60884047 0.6635068 0.019933786 -0.08114386 -0.35161456 0.20972162 0.046820153 -0.20607519 0.87254167 -0.0076377736 0.5237569 -0.36928797 -0.23424207 -0.2502652 0.92223084 0.14056852 -0.21934797 0.5662207 0.21145704 0.36259264 0.22134483 0.4827627 0.6644728 -0.36990386 -0.33649102 0.4549107 0.06431956 -0.71388155 0.5052965 0.4995601 0.29309952 -0.4852168 0.5140965 -0.75714153 -0.6256781 -0.21397802 -0.06090225 0.0033270663 0.34826887 0.06518247 0.91986233 0.05915883 0.3598619 0.06578739 0.56302 0.11277996 0.23315918 0.18010779 -0.50076485 -0.27830705 0.09735489 -0.3620543 0.43993363 -0.74972934 -0.11733425 0.1036011 -0.24087037 -0.051087424 0.045895766 -0.33418036
?AT1838 0.19768666 0.518116 0.08352621 -0.4128686 -0.35554972 0.28954077 -0.6209416 -0.17957738 0.18148124 0.23960277 0.7256475 0.036136262 -0.048381634 0.14211729 0.011949581 0.078315146 -0.1978003 -0.029109905 0.92021716 0.4250991 -0.27478212 0.35065147 0.42825872 0.1564581 0.2625693 -0.5661894 -0.120697714 0.30462822 -0.51694864 -0.52102935 -0.17601153 -0.5765035 0.0110274805 0.4414047 0.6612216 0.13180304 -0.09930639 -0.035140976 -0.6007327 -0.18539047 -0.009011088 0.11851668 -0.43655872 -0.2631385 0.057620667 -0.14097717 -0.29182816 0.21120463 -0.21209495 0.3138188 -0.2216956 -0.16301511 -0.3432067 0.22358193 -0.01528087 -0.12562554 0.41609567 -0.21824299 0.15783711 0.08973985 -0.2566066 -0.40166476 -0.6090817 -0.044684626 -0.041508958 -0.0165517 0.103862114 -0.5521994 -0.6925804 0.41780803 0.057540603 0.082147144 -0.27939403 0.46160868 0.15984772 -0.063745506 0.46213502 -0.27545586 0.48442152 -0.21463186 -0.3509462 0.01937414 0.044753693 0.19033317 -0.2893957 0.12743893 -0.13931605 0.42243087 -0.34968725 0.29169527 0.0035091408 -0.47194424 0.23310764 0.43345487 -0.12952672 -0.22794504 0.046550743 0.6990731 -0.35919908 -0.16094172 0.008365649 -0.4486407 0.09094463 -0.07449346 0.115146965 0.532699 0.074109934 0.098083846 0.15609987 -0.087542 0.44167432 0.37124375 0.75332844 -0.29915357 0.20131855 0.12593746 -0.133453 -0.026144838 -0.13169219 0.0042220727 0.5305221 -0.29142874 0.035454694 -0.29686812 -0.35983413 0.26289904 -0.4537936 -0.016770037
?ATC060 0.5730544 0.6336336 0.31509882 0.028498523 0.06881631 0.46255887 -0.77887875 -0.15491 -0.3610761 0.18532214 0.55558234 -0.040939007 -0.12945153 0.20654659 0.0778471 -0.11996513 -0.042247895 0.2701666 0.64627737 0.32703468 -0.13940898 0.21326956 0.44294992 0.3494168 0.25615057 -0.3679775 -0.45187208 0.13845813 -0.27725697 -0.65988094 -0.09902879 -0.5980402 0.093369335 0.31232756 0.36840636 0.11438084 0.0012922011 -0.28430206 -0.42757612 0.051569927 0.11337141 0.11597372 -0.45454565 -0.23281394 -0.07080686 -0.1657793 -0.079639606 -0.14574042 -0.7828817 0.41895714 -0.35729626 0.15348984 -0.6407622 0.2809149 -0.0019751287 -0.13001415 0.727176 -0.46574336 0.16929166 0.49083972 -0.0459711 -0.33531544 -0.49452576 0.20524101 0.12423928 -0.19268689 0.27704477 -0.54446256 -0.56523454 0.3741378 -0.22491157 0.47939584 -0.55209225 0.6141632 -0.020613339 -0.014338612 0.3249241 -0.06266548 0.31312642 0.034324653 -0.13007675 -0.20506446 0.26404586 -0.050170705 -0.13243793 0.6059435 0.07337861 0.436681 0.26693836 0.30851623 0.099511094 -0.30614576 -0.10734773 0.5500454 0.08024889 -0.13213336 0.2243401 0.5560999 -0.06729622 -0.18017898 0.05552465 -0.54359454 0.08314141 -0.32674992 0.030708376 0.42151898 0.29960787 0.15276049 0.13739051 0.042085085 0.2832484 0.15016553 0.3776092 -0.6523212 0.43717635 0.15498412 -0.3412265 -0.19207235 0.23834747 0.12466478 0.6991834 -0.42060745 -0.07343565 -0.2154122 -0.46186614 0.13913757 -0.09421788 -0.31245348
?AT0037 0.8096584 -0.47807607 -0.0013648334 0.119730055 0.088961124 -0.30976006 0.2930909 0.1325457 0.50685793 0.11870807 -0.16640155 0.30126166 -0.3553924 0.8416488 0.058261186 0.41129538 -0.15969947 0.4324854 0.63349354 0.17955056 0.22612342 -0.3607017 -0.16639562 0.70562434 0.42187122 -0.35091847 -0.1425129 0.53398633 0.5702503 -0.2103305 0.23736672 -0.7952994 -1.0623748 -0.123903364 0.6384045 0.046747707 0.16753078 0.24121071 -0.2301636 0.8255885 0.027824875 -0.13261586 -0.6042182 0.8728813 -0.44714022 -0.9458083 -0.13273175 -0.6581851 -0.9942104 0.93161654 0.12880091 -0.26615885 -0.7558165 0.040693983 -0.4218893 -0.4090061 -0.25052166 -0.2686467 0.39530173 -0.94130784 -0.33534524 0.07178491 -0.3882204 0.36536807 -0.5982281 0.06483184 0.20891343 0.32981142 -0.49879122 0.055808604 0.33180633 0.44978967 -0.2144018 0.15032741 0.12127496 0.4068287 -0.34379807 0.42738634 -0.10458534 0.32924828 0.3854191 -0.7918273 0.030491937 -0.29997694 0.75565386 0.5352801 -0.32578135 -0.32334515 0.4213128 -0.54209423 0.064165406 -0.8238703 -0.9610205 0.25862372 -0.14842811 -1.3687049 0.8117196 0.10793914 -0.53226745 -0.26158246 0.34315592 0.12452351 -0.8506453 -0.054955848 -0.77059305 0.5008758 0.057340916 -1.1899585 -0.59046865 -0.81388175 -0.29023838 0.006524883 -0.34408933 -0.35908592 0.19660048 0.17943442 -0.4854547 0.49986172 -0.032276534 -0.32798806 -0.020619886 0.28731263 -0.7499533 -0.6805834 0.17653307 -0.17216301 -0.23523664 0.35509536
?AT4134 0.9303178 -0.4725485 -0.14455378 -0.0042057163 0.13452567 -0.09280935 0.2525038 0.109573945 0.08703437 0.25306398 -0.1512554 -0.013263994 -0.15839724 0.62136865 0.12763214 0.42175183 0.06510957 0.60839003 0.43323112 -0.061650585 0.07924897 -0.0021296416 -0.2374512 0.45023888 0.52863294 -0.057889167 -0.082726456 0.3241986 0.703449 -0.32428724 -0.20555972 -0.95011175 -0.7588339 -0.25655326 0.8061278 0.30051234 -0.091857046 0.19014926 -0.021272926 0.50772166 0.064709075 -0.08681072 -0.43535298 1.243709 -0.16149355 -0.66690296 -0.3428659 -0.5404904 -0.7869494 1.103972 0.24707 -0.40989533 -0.8033307 0.23297659 -0.24020982 -0.4441622 -0.07379417 -0.26054788 0.17669773 -0.7931485 -0.28011203 0.22972906 -0.3745849 0.36976767 -0.35401845 -0.12206915 0.4874105 0.15950438 -0.37459147 0.37510005 0.030349571 0.28339842 -0.53614825 0.31294048 -0.21313463 0.27345958 -0.088500805 0.38098693 -0.4469757 0.5430235 -0.09816427 -0.90256804 0.40155926 -0.08978943 0.7052237 0.5768564 0.19476566 -0.4232696 0.6961199 -0.5940025 0.07503036 -0.8806904 -1.0467241 0.3326052 -0.04019698 -1.0313363 0.30404735 0.13511738 -0.4901695 -0.36937624 0.012421236 0.09493487 -0.7312958 -0.40254134 -0.63005126 0.29598382 -0.18303668 -0.9539608 -0.037575103 -0.62732875 -0.118482925 0.017038891 -0.337051 0.051251836 0.14563091 0.15592954 -0.26567593 0.62884957 0.18261275 -0.6613143 0.14545509 0.58312607 -0.5202818 -0.69267815 0.5965479 0.26929206 -0.42282686 0.27759013
?AT4057 0.62346095 -0.3000664 -0.020683274 0.06696563 0.06582986 -0.37052035 0.19063006 0.16170499 0.50980806 0.067573644 -0.26470575 0.4379446 -0.43356612 0.912562 0.17041223 0.34870002 -0.25066146 0.5016735 0.52142876 0.21694799 0.28331634 -0.18792419 -0.24735822 0.81331587 0.35095212 -0.42515144 -0.17917073 0.47230527 0.65098333 -0.25444692 0.40158463 -0.6775011 -1.0624369 -0.11831354 0.44615102 -0.013878239 0.25999802 0.12142911 -0.15303499 0.6276535 -0.051309075 -0.080502704 -0.5483341 0.6722574 -0.32888788 -1.0897694 -0.15700938 -0.44787395 -0.90204644 0.7865634 -0.01784766 -0.11759176 -0.49876875 -0.11094974 -0.3512092 -0.30681783 -0.39013308 -0.347418 0.24169646 -0.7907487 -0.19988725 0.25172228 -0.56424403 0.30394256 -0.5693053 0.21379998 0.00088651193 0.3542889 -0.11888328 0.06217857 0.43590042 0.37979636 -0.022063272 0.030922359 0.07800161 0.3890379 -0.26360264 0.35075969 0.14588836 0.093521 0.5317824 -0.33005467 -0.04222332 -0.34683207 0.70621115 0.46212608 -0.29327846 -0.010757503 0.19606768 -0.4382846 0.15071666 -0.86504036 -0.62845695 0.26693982 -0.12559995 -0.96103805 0.89026666 0.07083442 -0.42403272 -0.36869287 0.5761501 0.050290197 -0.85139024 0.045548014 -0.621897 0.63018775 0.21224122 -1.0619645 -0.64794964 -0.76636255 -0.3097861 -0.024820978 -0.18149877 -0.49998719 0.2111121 0.15419273 -0.46633473 0.40080673 -0.32465053 -0.20960507 -0.110243484 0.33344343 -0.6854859 -0.58948255 -0.028422847 -0.36979875 -0.0042538536 0.29186377
?ATC112 0.6957205 -0.44381118 0.10238013 0.072717786 0.13124676 -0.39336017 0.20905322 0.18479916 0.44181 0.03256366 -0.22982298 0.44190928 -0.4396277 0.92441225 0.1316731 0.34971395 -0.15516461 0.61465603 0.60602343 0.20822911 0.23378399 -0.12746552 -0.21781817 0.72384024 0.32497063 -0.59228116 -0.2036298 0.53124106 0.59107 -0.16677174 0.35897848 -0.63848394 -1.0194091 -0.105459936 0.41930428 0.10022341 0.1620532 0.22857526 -0.16727261 0.6405918 -0.02147204 -0.054028116 -0.65080893 0.63052934 -0.44085672 -1.060459 -0.0634941 -0.48607975 -0.954661 0.7376058 -0.052057605 -0.075907394 -0.5266274 -0.13422668 -0.34942654 -0.18480094 -0.3133538 -0.3642332 0.14366491 -0.78176117 -0.17670032 0.19163367 -0.55364645 0.28831315 -0.731524 0.047481388 0.023922313 0.36845472 -0.15229324 0.021673072 0.42059544 0.5055487 -0.039325558 -0.054576434 0.14623916 0.5144716 -0.42776105 0.32382214 0.13548502 0.174313 0.5475079 -0.4213749 -0.12128352 -0.2386411 0.7184894 0.34378743 -0.34038606 -0.031731084 0.23461741 -0.44860065 0.11240579 -0.89469516 -0.73212576 0.18487285 -0.18968756 -0.9531492 0.89986384 0.004583071 -0.43798786 -0.28615594 0.42016694 0.028685985 -0.83389443 0.015755067 -0.6878467 0.6088851 0.092002496 -1.0458362 -0.6817308 -0.7799951 -0.3634105 -0.029606046 -0.27332458 -0.5398336 0.27889565 0.071083464 -0.50008404 0.4069207 -0.34891197 -0.24942212 0.0033972822 0.31283793 -0.6586075 -0.70436186 0.044927415 -0.439252 0.06781058 0.28939947
?ATC492 0.6880477 -0.16190372 0.02952848 0.008709235 -0.0628522 -0.28099918 0.27856132 0.25202018 0.7953798 0.043313812 -0.21616282 0.4519841 -0.2480939 0.8600545 0.10923633 0.19362073 0.036864888 0.015532298 0.60256237 0.2812999 0.096816 -0.33202317 -0.2968708 0.81856376 0.12816723 -0.2402286 -0.25671047 0.5415154 0.6606624 0.050435927 0.23924084 -0.51121664 -0.76038074 -0.016565425 0.47303396 -0.17029284 0.12130078 0.14288372 -0.1704474 0.7529901 -0.018460225 0.0098731825 -0.4541694 0.5263878 -0.21477291 -0.9574218 -0.11509966 -0.89931387 -0.92135906 0.56032026 0.0965528 -0.105206385 -0.6539713 -0.27779254 -0.35984313 -0.024661858 -0.30631834 -0.16034965 0.25344494 -0.6492316 -0.27507713 0.17900547 -0.1841314 0.30362043 -0.32564896 0.12112682 0.27262253 0.03733939 -0.61578524 -0.2709025 0.3828146 0.47793093 -0.15250069 0.18879297 0.26393998 0.50294375 -0.5858181 0.4376024 0.022603814 0.48010772 0.59059256 -0.38872546 -0.0789783 -0.20467933 0.59373224 0.505703 -0.23985755 -0.27384686 -0.04565043 -0.4028909 0.10524399 -0.62230927 -0.6709744 0.41335163 -0.10297038 -0.99755573 0.6603918 0.19553702 -0.21611114 -0.29493535 0.6556657 0.290907 -0.89692587 -0.05628872 -0.8704684 0.75942826 0.34312278 -0.6970894 -0.62422615 -0.662744 -0.28945285 0.013853039 -0.10521185 -0.37797013 0.22334151 0.121423386 -0.5009657 0.4372462 -0.28004333 0.051338114 -0.1206712 0.26271933 -0.72976166 -0.6391468 -0.1404204 -0.111444905 -0.21439545 0.2772512
?AT8170 0.9861178 -0.5143659 -0.055762887 0.27183932 0.0015520357 -0.41712844 0.24513994 0.1453304 0.6025693 0.09405278 -0.06476117 0.25736982 -0.40031108 0.9038125 0.22738022 0.2802576 -0.11251506 0.42598093 0.7634973 0.13072239 0.12621184 -0.244217 -0.096460715 0.9083165 0.42878252 -0.42768702 -0.25028658 0.582755 0.58090657 -0.18230934 0.31784713 -1.0495679 -1.1810093 -0.13993825 0.4919524 0.14221385 0.035222895 0.25252134 -0.3013029 0.9115884 -0.080490164 -0.12176378 -0.5452211 1.0013096 -0.5208751 -1.0327564 -0.033853646 -0.7562728 -0.9086232 1.0255655 0.15577687 -0.31796405 -0.7099931 0.08794984 -0.4888448 -0.37120545 -0.2684528 -0.14085063 0.20768529 -1.0468209 -0.31472042 0.18442018 -0.475094 0.42018732 -0.69187367 0.08559874 0.2431619 0.58819705 -0.44666573 0.12545678 0.39239144 0.399121 -0.35300502 0.22772887 0.30451092 0.4267305 -0.411091 0.24839118 -0.1431727 0.4449745 0.5699276 -0.8605272 0.04704334 -0.4389504 0.6235058 0.71001685 -0.36297956 -0.19706172 0.3206989 -0.4837242 -0.08046299 -0.90797126 -0.98829156 0.5867639 -0.3388805 -1.3926709 1.0146092 0.19036771 -0.53382844 -0.5080012 0.41008323 -0.010163653 -0.9651487 0.015380657 -0.7847045 0.39522782 0.0748831 -1.3546246 -0.6156009 -0.92251337 -0.17551294 -0.06982872 -0.41428095 -0.22120796 0.06481108 0.34831595 -0.6704764 0.6417671 0.09040855 -0.3088887 -0.110378526 0.4037425 -0.8108292 -0.85936856 0.38979313 -0.24731256 -0.12537315 0.31842828
?AT0038 -0.35437024 0.27933356 -0.21804962 -0.022000816 -0.32794318 -0.16550729 0.21510875 0.48615655 0.034051336 0.23709337 -0.53825533 0.074875385 -0.14522235 -0.5528189 -0.17325547 0.16077445 -0.26020998 -0.13562731 0.12471312 -0.18259943 -0.30954984 0.30075106 -0.1553723 0.16650647 0.4488349 0.039066806 0.43400276 -0.14377032 -0.08338145 0.31815037 -0.058477208 -0.78394485 -0.036361866 -0.21924561 0.24037294 0.009105403 -0.3505363 -0.11578027 -0.21191373 0.47665733 -0.051775556 -0.07087707 0.20602567 -0.73746765 0.124790914 -0.012717805 -0.027280794 -0.113177955 -0.39461073 0.06830915 0.16099179 0.1896062 -0.46355125 -0.0999956 0.21781908 -0.1522451 -0.17696387 0.086790286 0.41827837 0.12279784 -0.09514748 0.14337778 -0.2867928 -0.34685704 0.16605422 -0.30083933 0.40633667 0.048566416 -0.22884811 0.17107236 0.025378361 0.17156923 -0.640072 0.7502361 -0.11871552 0.88339776 0.13318105 0.14415555 0.76212126 0.1239338 -0.11158607 -0.31979743 0.064198986 0.09185193 -0.3854221 0.33617473 -0.12180407 0.43717206 0.11775042 -0.48110548 -0.046820078 -0.7750988 0.1473153 -0.2734819 -0.36377442 0.31174704 0.06609825 -0.4974583 -0.03450591 -0.2519026 -0.13045214 -0.054247253 0.13749567 -0.51811683 -0.09279211 0.22711985 -0.23592985 -0.1734533 0.08110892 0.061791282 0.3471817 0.5518691 -0.06081907 -0.20610291 0.021595923 0.34458908 0.25673306 -0.25352398 -0.23202294 -0.27036214 -0.027303375 -0.13382287 -0.50750726 -0.17187043 -0.06157298 -0.49004847 -0.13370897 -0.21305005
?AT1396 -0.3620433 0.31276625 -0.07398752 -0.28685236 -0.29056126 -0.26427108 0.16832505 0.30937314 -0.06393762 0.22207163 -0.36700043 0.09177537 -0.09002217 -0.55508506 -0.19517523 0.14481641 -0.14995643 -0.18147008 0.08500281 -0.11138362 -0.2603781 0.30661875 -0.19998494 0.19451262 0.23200867 0.011839444 0.3931339 -0.08307127 -0.14181598 0.37564993 -0.075395525 -0.6403891 0.041411918 -0.2101447 0.186982 -0.050881036 -0.329325 -0.014639633 -0.21095423 0.43515012 -0.012030451 -0.09862209 0.24500675 -0.5876073 0.2791265 0.014445859 0.013238728 -0.06922567 -0.27373576 -0.034825593 0.21368104 0.11432178 -0.33507755 -0.023473779 0.16228655 -0.07529872 0.013499937 0.11957079 0.33039975 0.035198387 -0.06819439 0.19233258 -0.14370796 -0.36160243 0.08784278 -0.35112104 0.36454704 0.13268526 -0.15095921 0.2052338 -0.061118506 0.0024470654 -0.5607863 0.69414216 -0.0871893 0.7020818 0.18012992 -0.027558232 0.48698837 0.020182269 -0.12049757 -0.32129195 0.092673324 0.045595918 -0.32299945 0.23882237 0.0013658472 0.6038894 0.053224612 -0.44916558 0.107093155 -0.5719452 0.13824944 -0.033117283 -0.36019903 0.26443377 -0.11632133 -0.36892393 -0.055983108 -0.31757963 -0.24181423 -0.17453055 0.12325107 -0.36753651 -0.1083198 0.16452447 -0.15032761 -0.23311408 -0.061953306 0.08985206 0.2908255 0.42603266 0.0029385998 -0.22674584 -0.15776014 0.45499963 0.22739425 -0.19981815 -0.067797445 -0.3046711 -0.027709063 -0.15551764 -0.42128614 -0.35646722 -0.092469744 -0.4195794 -0.1174579 -0.18386331
?AT0049 0.5832075 -0.16746233 -0.040383648 -0.5897954 0.4651904 0.12450605 -0.40378967 -0.24371906 -0.5439002 0.07235348 -0.05152051 -0.4775464 0.4157347 -0.30143046 0.26982588 0.08993258 -0.43518877 -0.19237094 0.565724 0.16758528 -0.07691551 0.636825 0.62611496 0.24905123 -0.33438742 -0.116547756 0.4304543 0.31934553 -0.5381538 0.78475803 0.14171124 -0.16023423 -0.13447194 -0.198086 0.65461737 -0.33876204 0.55589324 0.13337521 -0.09057929 -0.16010302 -0.22352046 -0.31461528 -0.56338906 -0.7619099 0.25658637 -0.11972122 0.08184077 -0.07623222 -0.25421104 -0.67306584 -0.16083679 -0.08535928 0.06019298 -0.10905653 -0.22654788 -0.16452853 0.39337242 -0.34315684 -0.712198 -0.21848373 0.12725203 0.775254 0.46239862 -0.19766727 -0.15584238 -0.049782142 -0.34088758 -0.3683463 -0.2885153 0.08150157 -0.14233184 0.18945776 -0.086910985 -0.204349 -0.52184856 0.22118042 -0.1851645 0.26254117 -0.11843412 -0.09886008 -0.010073951 0.21711789 0.15185633 0.14680016 -0.23041093 -0.18568994 0.4512496 0.15877986 0.4821137 0.014860697 0.56767493 -0.55864966 0.42872128 -0.19844158 -0.44484553 0.36899966 0.3029223 0.13612527 0.4036031 0.31431693 -0.17053157 -0.046560585 -0.19642049 0.027608762 -0.6725057 0.31460837 -0.0720269 0.044449285 -0.15430008 -0.07474701 0.14946055 -0.022903696 -0.24004234 0.35535195 -0.0071419277 0.39022443 -0.49182576 0.28287512 -0.07583541 0.03377443 -0.2696728 0.21638842 0.22114825 0.15913679 -0.21953139 -0.47867805 0.0154884085 0.038078766
?AT6711 0.70492667 -0.09816573 -0.021861026 -0.62742186 0.6212779 0.13607785 -0.39483646 -0.26299378 -0.47944358 0.084245935 0.28403717 -0.67852443 0.6445126 -0.5127989 0.54361796 0.09375884 -0.45834133 -0.18371372 0.89740294 0.19422676 0.027604965 0.8500063 0.5385374 0.4356986 -0.432982 -0.2145036 0.5992084 0.3767493 -0.7304829 1.0363137 0.17036095 -0.29138723 -0.154568 -0.33820608 1.0301771 -0.47131225 0.93930763 0.41724917 -0.15307137 -0.49349874 -0.04123875 -0.8036255 -0.6351906 -0.64160156 0.5575342 -0.34116113 0.067124166 0.017023118 -0.41917756 -0.7634821 -0.04399015 -0.118420005 0.32282674 -0.20468992 -0.26457185 -0.098080926 0.59130955 -0.6848794 -0.80608565 -0.4050215 0.30598179 0.7267693 0.6928485 -0.07705086 -0.19417801 -0.18928845 -0.47513142 -0.11149886 -0.07902765 0.18882959 -0.31412837 0.29941842 -0.23177208 -0.11391847 -0.45896098 0.028002607 -0.1369665 0.15323763 -0.12570116 -0.22712353 -0.018612279 0.34117663 0.39418137 0.25716868 -0.42102912 -0.2630052 0.91292423 0.37235492 0.65124077 0.01376981 0.6345439 -0.7972816 0.42697948 0.123381525 -0.42549998 0.37472895 0.44342208 0.30224967 0.26152933 0.2783344 -0.285008 -0.20976429 -0.11453858 -0.054676697 -0.80383354 0.54045385 -0.26065308 0.21907564 -0.31246462 -0.18951279 0.072568655 0.08572749 -0.23553513 0.42353302 0.081207246 0.34075585 -0.5298942 -0.056468025 -0.27646515 0.28547198 -0.38000974 0.30613053 0.30165237 0.16215794 -0.27536485 -0.8495217 0.121106766 0.14544632
?ATB005 0.38893864 0.3220743 -0.07218849 -0.6922371 0.5439856 -0.13407473 -0.6328356 0.05754887 -0.26745445 0.10993576 -0.3357987 -0.07264632 0.40166393 -0.20439123 0.35855412 0.094556645 -0.33011854 -0.25709832 0.16365345 0.016122542 -0.42547303 0.4604009 0.110988714 0.5128504 0.20448248 -0.23358794 0.13092439 0.2651202 -0.41479957 0.17434168 0.44977826 -0.076307796 -0.29695812 0.04540952 0.9518232 -0.19081333 0.49428746 0.17334427 -0.1575126 0.2276928 -0.29753733 -0.17577563 -0.24475837 -0.8000137 0.4178393 0.0020004609 0.3770245 0.117937885 0.08748047 -0.39322105 -0.3926582 -0.08897355 0.22194967 -0.011868905 -0.3454481 -0.355326 0.36865917 -0.2643694 -0.63718575 -0.32585847 -0.41273022 0.53354174 0.29007798 -0.3038002 -0.21910296 0.04797583 0.10960789 -0.2504399 -0.15443246 -0.08796902 -0.5182448 0.31320485 -0.01948117 -0.15202372 -0.5276622 0.37610245 -0.5061352 0.37786168 -0.015679646 -0.21417904 -0.14239109 0.04606536 0.14515008 -0.2866541 -0.2064402 -0.29438552 0.34321308 -0.14452699 0.29403007 -0.0072853244 0.29766268 -0.51745075 0.60713196 -0.55062056 -0.27893403 0.49546245 0.20227861 0.28392103 0.16615663 -0.1866264 -0.22475567 0.07746762 -0.058000077 -0.13794422 -0.21975105 0.072707094 0.22540015 -0.2945987 0.0022611623 0.16967542 0.15822656 -0.033057105 -0.1232191 0.07700498 0.32754198 0.13745224 -0.11557937 0.55091584 0.17651528 0.031162458 -0.41189048 -0.022866983 -0.12134732 0.09379423 -0.6291885 -0.33983004 -0.19797082 -0.019795353
?ATC349 0.4705436 -0.014736554 -0.079822905 -0.88821703 0.6741951 0.14844206 -0.5491095 -0.13621947 -0.6459728 0.25389835 -0.33593473 -0.61496955 0.47625482 -0.23261908 0.2596017 0.08884178 -0.34803885 0.13400218 0.5286724 0.503039 -0.41329136 0.72458416 0.12419779 0.29669285 -0.033525445 0.031439282 0.3156374 0.41275886 -0.7280213 0.6771406 0.5508448 0.021973388 -0.39218998 -0.090682514 0.73986304 -0.072654404 0.74654174 0.17830567 0.13229991 -0.03863908 -0.110021174 -0.16798773 -0.28708962 -0.60266614 0.33857757 0.009817582 -0.19169052 0.085861556 0.08277904 -0.6596835 -0.21785235 -0.1336281 -0.15889439 -0.26993507 -0.54881924 -0.17777319 0.4438087 -0.35090858 -0.66079074 -0.18548502 -0.13901614 0.56877214 0.056697324 -0.082430825 -0.29419574 -0.012941909 0.08653465 0.1988131 -0.3748467 -0.14404194 -0.030971613 -0.03306842 -0.30616266 -0.096850246 -0.77318937 0.18295097 -0.15755734 0.33902633 0.015387055 -0.10373772 0.05245759 0.06294082 -0.12357625 -0.11986317 -0.36161387 -0.33087835 0.46900907 -0.056279656 0.5877532 -0.39827293 0.60318244 -0.7222333 0.30863684 -0.61022294 -0.61827725 0.30818895 0.45938817 0.46747285 0.329908 0.2303964 -0.333664 0.04601934 -0.099028915 0.021815151 -0.355139 0.18011917 0.07734161 -0.1778194 -0.15647604 0.1089119 0.16958272 -0.08773191 -0.2299083 -0.29427725 0.4293245 0.3377721 -0.1794515 0.37481007 0.10261271 -0.047856167 -0.25165182 0.41150433 -0.31152683 0.044961233 -0.45319945 -0.40218672 -0.019708727 0.028672207
?AT9687 0.16736034 -0.25623697 0.14083298 -0.07498802 0.396685 0.07271329 -0.3446955 -0.058423318 -0.837878 -0.1604454 0.18911836 -0.19604939 -0.2001322 0.036275722 -0.09820254 0.035403583 -0.35700732 -0.1814985 0.0651892 0.08241067 0.1798403 0.41494513 0.7476066 -0.019652845 -0.60621953 0.22622149 0.34262958 0.31990656 -0.02875862 0.68944407 -0.04352415 -0.7303467 -0.13040721 0.585998 0.49069 -0.70371675 0.21123014 0.32835728 0.27670342 -0.37880552 -0.15040672 -0.28119943 -0.5116061 -0.5942528 -0.023021549 -0.060452603 -0.4705112 -0.119976215 -0.27339 -0.23892264 0.30847993 0.08336608 -0.050913867 -0.2179192 0.22598624 -0.14215195 -0.12405323 -0.306097 -0.5534915 -0.629632 0.3240509 0.4162803 0.0645758 -0.15165323 -0.5527925 0.314378 -0.2854082 -0.53491884 -0.031036094 -0.033980597 0.11358748 0.30948937 -0.10150073 0.1807862 -0.38222882 0.33051544 -0.04041504 0.2027567 -0.1716639 0.036168586 -0.29399645 0.20891339 -0.046460625 0.051500276 0.08177742 -0.122187674 0.2908556 0.17758527 0.19103213 -0.20291643 0.19989449 -0.20802297 0.043124672 -0.0008020528 -0.17309022 0.27460805 0.097454675 0.17293184 0.49060047 0.5532802 -0.13565852 -0.16344199 -0.26500148 0.09343479 -0.799847 0.08047951 -0.08088811 0.117676094 -0.067305535 0.1564402 0.15458252 0.10792972 -0.06067092 0.5524277 -0.20715837 0.43996143 -0.56337804 0.18114512 0.013690583 0.1105836 -0.08861507 0.22898476 -0.104134396 -0.2636354 -0.08149835 -0.213141 -0.13831817 0.042552065
?AT9838 0.32527387 0.062606506 0.14665024 0.07760664 -0.010151346 -0.26609686 -0.14450844 -0.44711474 -0.43770903 -0.16385889 -0.08897186 -0.2442882 0.22272755 -0.18229052 0.21314539 0.2506199 -0.3786045 -0.53831124 0.78724426 -0.0015361586 0.13236693 -0.007788949 0.5670093 0.098400205 -0.38928655 -0.2745584 0.111667745 0.23955272 0.07151167 0.49970436 0.15445632 -0.55143964 -0.12416993 -0.09579015 0.14505716 -0.2745431 0.06720138 -0.17309906 0.125427 0.25345874 0.07846181 -0.46322882 -0.4194503 -0.93902355 -0.105329975 -0.31709895 -0.039888207 0.13490722 -0.5169118 -0.57184833 0.26431715 0.14491634 -0.06416219 -0.4085921 -0.09887156 -0.10665881 0.2628204 -0.25602007 -0.46467644 -0.12241056 0.17077634 0.38042516 0.41907495 0.020646544 -0.22825122 0.022080103 -0.34201723 -0.2892194 -0.27598974 0.14317368 0.24710606 0.031054433 -0.0779921 0.16567825 -0.43319577 0.05862067 -0.0015125833 0.16253869 -0.30365533 0.07885048 0.088986106 0.16074732 0.32510516 0.26429456 -0.22995503 -0.04372779 -0.013150691 0.32378703 0.33832008 -0.11643806 0.22921596 -0.33961064 -0.09084223 -0.03021882 -0.22832519 -0.13773625 0.15235816 0.015709361 0.31620628 0.48484895 -0.4481167 -0.07025631 -0.09492066 -0.21494071 -0.60822695 0.3641877 -0.59172344 0.0734246 0.11051332 0.066211954 0.017512606 -0.2289677 -0.100553885 0.5522363 -0.09081019 0.031108975 -0.58218455 0.24632904 -0.17983907 0.103181995 -0.3341494 0.20626158 0.38929725 -0.078572825 -0.082541 -0.49312887 0.18987629 -0.27093375
?AT9658 0.60593945 -0.35309574 -0.16355394 -0.7484273 0.35879076 0.41098696 -0.6420642 -0.1738005 -0.42859378 0.29748443 -0.012883434 -0.46014675 0.56204575 -0.52631396 0.4950531 0.039684407 -0.41222566 -0.13703927 0.5938401 0.383814 0.20787989 0.7176057 0.7176576 0.297115 -0.6943602 -0.09624033 0.3985916 0.21964195 -0.48198554 0.83176243 -0.23965593 0.036894273 -0.041393995 -0.18885484 0.6018166 -0.22551402 0.79660237 0.2605614 -0.278032 -0.2791774 -0.24086367 -0.3522613 -0.7037529 -0.80680525 0.10533905 -0.035650622 -0.0672237 0.036277648 -0.59957886 -0.51235473 -0.532933 0.0867235 0.19513997 -0.002642588 -0.20888887 -0.16170333 0.28453174 -0.25154713 -0.3420587 -0.15207319 0.24911542 0.73743635 0.50030357 0.12605909 0.227638 0.026432035 -0.38424197 -0.38317305 -0.2416134 0.19209266 -0.16447663 0.21592903 0.0603082 -0.28705785 -0.42227462 0.2963377 0.11086444 0.18498276 -0.10192328 0.029414224 0.18801951 0.23705077 -0.11287822 0.013667294 -0.17529145 -0.18585373 0.6338303 0.27924967 0.49780238 0.11321991 0.6752032 -0.46206638 0.5476968 -0.2372051 -0.689861 0.38509554 0.22472928 0.31509718 0.21785797 0.29762748 -0.014828408 -0.20530185 -0.40210748 -0.21617799 -0.58839035 0.2623367 -0.12768888 -0.18559887 -0.395545 0.016054448 0.16563728 0.18200755 -0.30716074 0.42420304 -0.008767813 0.5098259 -0.2779023 0.24885169 -0.20834681 -0.0020512359 -0.20741957 0.4251635 0.37312672 0.3279805 0.008974554 -0.6087292 0.18969259 0.28306794
?AT9690 0.5460335 -0.36975265 -0.28220275 -0.7364014 0.14212628 0.350159 -0.5026937 -0.123383045 -0.16411714 0.36222115 0.065781966 -0.41693458 0.47410664 -0.34071347 0.49684682 -0.13147566 -0.3990485 -0.027536275 0.48905963 0.4639072 0.34189883 0.6851243 0.68991303 0.35123223 -0.586023 -0.15458058 0.17911877 0.06609815 -0.50699276 0.5895251 -0.5597349 0.22924057 -0.016620092 -0.31971425 0.4575425 -0.1692857 0.73310125 0.22215778 -0.32071772 -0.17942314 -0.2956179 -0.20608318 -0.64289933 -0.51997876 0.0017781474 0.03467457 -0.027795538 0.14918368 -0.6650586 -0.5241784 -0.5451536 0.10935411 0.06378441 -0.016610319 -0.2878498 -0.12107408 0.3100054 -0.1919865 0.029180037 -0.0664556 0.23427163 0.56137407 0.4371895 0.35138112 0.3462054 0.05593888 -0.3028408 -0.19444183 -0.24839339 0.34072372 -0.14065391 0.12502292 0.13041839 -0.4177525 -0.1631217 0.37412208 0.24807337 -0.0491159 -0.14708576 0.062214997 0.24129684 0.36751792 -0.22234435 0.05295633 -0.14632331 -0.36282894 0.30281103 0.26468888 0.4958974 0.06010256 0.69331855 -0.49600494 0.5095366 -0.19677755 -0.6960747 0.27724877 0.026915079 0.18745883 0.3625739 0.19756582 0.20928413 -0.2630993 -0.46551716 -0.39822868 -0.47402865 0.4847949 -0.06153486 -0.042915262 -0.45097068 0.11960658 0.012037059 0.26667118 -0.26446977 0.42214656 -0.060813464 0.5464149 -0.082349926 0.018788897 -0.27875426 -0.039455064 0.083302595 0.2962039 0.60773 0.21831918 0.04817849 -0.20724711 0.35061136 0.3619905
?AT0059 -0.12737636 0.32354707 0.46626338 -0.21412794 -0.33091345 -0.1905527 0.14613792 0.5835533 -0.22324412 0.6343713 -0.53357935 -0.5119902 -0.024478577 -0.6965733 0.9167546 -0.48166794 -0.30082893 0.6160322 -0.7378642 -0.35955635 -0.371249 0.32835627 -0.0045715393 0.032765023 0.20657934 0.1450982 -0.19766036 0.13282636 0.27078062 0.11889107 0.13466732 0.4324761 0.23065223 0.18269938 0.46167693 0.38315916 -0.05242853 1.2596382 -0.42586544 0.32857093 -0.51156217 -0.024918381 -0.095002644 -0.1823153 0.29976892 -0.21327063 -0.4677382 -0.3818989 -0.36002144 0.26924983 0.20189783 -0.48631266 -0.8169969 -0.38986486 0.26749292 -0.026222961 0.39496687 -0.57934403 -0.11246441 -0.18035401 -0.45714286 0.10004626 0.117644966 0.2509675 -0.21664509 0.11495604 -0.68317544 0.14898424 0.038113292 -0.54756576 0.6068145 -0.4104412 0.46272656 -0.55665547 -0.20247039 0.5254425 0.2845467 0.070597686 -0.06629466 0.3572929 -0.06296699 0.48231873 -0.383003 -0.68425614 0.6078174 0.48867717 -0.6218795 -0.24979424 0.44914246 -0.37881163 -0.62364197 0.0023852286 -0.53756565 0.45912755 0.14509192 -0.12953602 0.16225477 -0.013905963 0.45183668 -0.2172501 0.113964885 -0.24609508 0.02545056 0.32657358 -0.35335144 0.41445267 0.09439115 0.38948658 -0.07323687 -0.02027754 -0.3986756 0.70601517 0.7143522 -0.03354004 -0.34012514 -0.67479604 0.39759704 -0.13876668 -0.14280643 0.57049906 0.30650803 -0.15389724 -0.031975 -0.51996607 -0.17835087 0.43212804 0.44682065 -0.58005804
?AT8731 -0.18911575 0.2276588 0.50723386 -0.21779929 -0.55421335 -0.12292783 0.2061815 0.41293648 -0.22016037 0.32125878 -0.31113693 -0.23809214 0.1577075 -0.4736925 0.63295066 -0.6664167 -0.17098038 0.5069225 -0.3547766 -0.45341173 -0.10877606 0.38858244 -0.0762471 0.21458855 -0.16246738 0.28215614 -0.015096935 0.2528337 0.051022418 0.19527408 0.23910406 0.4832305 0.08059374 0.23472375 0.39228842 0.43854827 -0.13142343 1.116307 -0.37297097 0.3239945 -0.47527808 0.072178945 -0.3391053 -0.1465021 0.21252975 -0.19754498 -0.36410603 -0.31930822 -0.2755597 0.42691827 0.39111096 -0.4491484 -0.56899714 -0.3176789 0.11309201 -0.0756824 0.40067977 -0.42948118 -0.057881504 -0.2874003 -0.33260256 0.21100418 0.15324746 0.25703204 -0.31594345 0.051982947 -0.828294 0.16292903 0.030330563 -0.52659 0.62976664 -0.39649314 0.24506442 -0.45437247 -0.006161539 0.55635947 0.2850914 -0.14394611 -0.23622023 0.22181949 -0.12527908 0.2797535 -0.6788506 -0.6492388 0.58099127 0.6825105 -0.46757525 0.04185021 0.16341026 -0.3274389 -0.3488467 0.1909208 -0.61694396 0.31971297 0.17560747 -0.18617225 0.45606765 0.0060995147 0.3220752 -0.0995769 -0.09718083 -0.047632616 -0.015668705 0.29047915 -0.014672449 0.1799341 0.047181156 0.38146406 -0.1057022 -0.1685078 -0.050583206 0.7032919 0.65265065 -0.03418937 -0.26107556 -0.24608275 0.37021917 0.102846265 -0.19225435 0.36325392 0.09378128 -0.18336107 -0.007882124 -0.2742745 -0.17472728 0.14425264 0.24143805 -0.3930652
?AT4713 -0.15785295 0.36582223 0.31171724 -0.20477653 -0.16726443 -0.31596342 0.06938026 0.398641 -0.19402874 0.57510656 -0.5858983 -0.32853377 -0.18358512 -0.7744212 0.9405852 -0.35037085 -0.44892684 0.7416803 -0.65137 -0.2497841 -0.39900848 0.06294922 0.08638942 -0.037637956 0.25047767 -0.10712536 -0.2733051 0.24897304 0.23120394 0.15495455 -0.010190783 0.29167312 0.39028844 -0.07767116 0.49268642 0.35052225 -0.074296914 1.068642 -0.3641986 0.22664176 -0.40942854 -0.04468325 0.1312903 -0.17410246 0.33199054 -0.21242239 -0.42654946 -0.34128666 -0.2816458 0.14123699 -0.048812512 -0.40013 -0.62365973 -0.35035837 0.46235326 0.12123437 0.24924138 -0.44338113 -0.1399405 -0.12141336 -0.2563884 0.21289095 0.08887869 0.28838626 -0.17979471 0.019475276 -0.49566635 0.18326935 0.1221375 -0.73954874 0.38507584 -0.16415958 0.5806994 -0.5125249 -0.11203283 0.33602265 0.39411032 0.171792 -0.009526372 0.24066998 0.16173057 0.33727157 -0.04481812 -0.5685499 0.6031014 0.14004007 -0.59823906 -0.22967687 0.5932724 -0.46203664 -0.6101966 -0.22403318 -0.32807702 0.49740282 -0.14530197 -0.19404154 -0.1850472 -0.04714961 0.43202472 -0.30573893 0.32715514 -0.47556815 -0.09318359 0.09124493 -0.4461498 0.4434646 0.16159181 0.20288868 -0.062136754 0.17256624 -0.5645166 0.46427917 0.55414915 0.029278936 -0.25618073 -0.88117296 0.41201317 -0.23424736 0.12166947 0.6446873 0.36090997 -0.043913048 0.21775067 -0.3902821 -0.19851592 0.38446218 0.48526913 -0.4843862
?AT0070 0.1256865 -0.19137686 -0.0797488 0.15189919 0.16138005 -0.10035256 -0.29245344 0.012980546 0.23433535 -0.51268864 0.35977352 0.18806213 0.5501208 -0.4204971 0.04071203 -0.6744476 0.05503271 0.21342123 0.7206829 -0.096159056 0.32309663 0.049904995 -0.22828293 0.36012068 -0.019365037 0.01559507 0.067924984 0.065904744 -0.46322542 -0.13406058 -0.17508669 -0.20080937 0.51325804 0.5636405 0.4644614 0.033558644 -0.5221452 0.0012312981 -0.074052714 0.20669363 -0.16963048 0.17522466 0.42258582 -0.30587852 -0.12952483 -0.35439625 -0.2672446 0.081783585 0.2660259 -0.25166824 0.2211643 -0.2513685 -0.047565997 -0.5529909 -0.4398999 -0.21072023 -0.3631959 0.15286614 -0.08216444 -0.0265097 -0.37166238 0.15834679 -0.19594915 0.03734253 0.11604941 -0.20744304 -0.3863982 0.19152701 -0.014877041 -0.17880155 0.1594875 -0.0537243 -0.19509906 -0.302461 0.46841392 0.1305246 0.39038655 0.14112675 -0.04252152 0.1018588 0.3662923 0.061286487 -0.34604016 -0.05377695 0.23232573 0.033682574 0.45543447 0.009333799 -0.031858437 0.036308553 0.22200695 -0.13447827 0.25988135 0.31045794 -0.23314996 -0.1695241 0.35663703 0.47336242 0.19216375 0.089371294 0.27925915 -0.5771419 -0.1299166 -0.554726 0.28884837 -0.18155469 0.26880473 -0.3416637 0.3214909 0.2088821 -0.8550175 -0.09387507 0.09743288 0.00901609 0.18345967 0.074004315 0.23737636 0.20154673 -0.14278252 0.165848 0.02837227 0.08284528 -0.096595995 0.19995216 0.13581699 0.37082645 -0.10062449 0.06485868
?AT2015 0.22779278 0.042725105 -0.0696537 0.025335556 0.26899227 -0.036365148 -0.20574251 0.07843114 0.09044562 -0.5204982 0.3503766 0.00012267141 0.351981 -0.082300805 0.040674027 -0.23200059 0.07439917 0.40435633 0.46032417 0.21349 0.26686135 0.2845986 -0.50078857 -0.015522803 -0.10953095 -0.039802767 0.001038582 -0.015460949 0.13015617 0.12090371 -0.26440477 -0.11596186 0.3292577 0.40072986 0.21707474 -0.24547686 -0.53273165 0.109681405 -0.218576 -0.15053883 -0.07483884 0.11262805 0.21484683 -0.14831404 0.113535956 -0.636435 0.2721942 0.3610397 -0.24006635 0.01918099 0.40646446 -0.28594798 -0.23487614 -0.3416209 -0.5634414 -0.15209028 -0.17588364 0.041874923 0.15369233 0.16408986 0.12041562 0.1393446 -0.2885835 -0.118970014 0.013398739 -0.37923703 -0.41885272 -0.05395665 0.043644458 -0.3315757 0.097818024 0.10515184 -0.29553118 -0.22978134 0.51263577 0.3664992 0.14650273 0.10270677 -0.020486526 0.095148064 0.25243577 0.20250086 -0.08778554 0.008816822 0.17149256 -0.39736634 0.29131714 0.14436753 0.023566797 -0.086773865 0.3935165 -0.35117483 -0.015915716 0.30380386 0.0010292982 -0.09992831 0.12596868 0.5169414 0.074284814 0.31580722 0.34485567 -0.6896105 0.32174623 -0.042929247 0.3015774 -0.042679273 0.2139584 -0.27957675 0.1437672 0.19946277 -0.5590899 0.21727996 0.06073125 0.02544126 0.28077653 -0.11328956 0.06623194 0.4714243 0.036461905 0.40089703 0.18550548 -0.2264574 0.38256827 0.17359123 -0.061408214 0.29423675 0.13367909 -0.1885276
?AT6074 0.312264 -0.059931796 -0.03637318 -0.11680545 0.38198322 -0.07806818 -0.18162051 0.34215018 0.13561991 -0.64490175 0.10550806 -0.15759039 0.35500064 -0.27260745 -0.28829268 -0.124928564 -0.010956007 -0.023058984 0.53143954 0.12227354 0.36482707 0.24241889 -0.09864497 0.38435766 0.009653298 -0.03719992 0.046663493 -0.0371938 -0.0051473035 -0.12051784 -0.013280331 0.05349486 0.2936529 0.13472843 0.39762068 -0.089925945 -0.41656515 0.19897997 -0.18185282 -0.052656945 0.010318347 -0.096446976 0.09507194 -0.063546464 -0.07306744 -0.25157446 -0.15933527 0.056315586 -0.25227654 -0.11872664 0.5344086 -0.057206552 -0.25361183 -0.47176564 -0.3173721 -0.18512087 -0.118118994 0.44442785 0.0904587 0.40133062 -0.5213669 -0.058384504 -0.4327508 0.09743242 0.16041541 0.24359415 -0.45266768 -0.06411483 0.06611091 -0.0702447 0.2892919 0.03935061 0.022609416 0.041437466 -0.029021885 0.47303054 0.32360256 0.10513044 0.10877953 -0.069643214 0.2750065 -0.19093028 -0.07807369 0.23342817 0.5431723 0.05288426 0.43340144 -0.074050575 0.046854243 0.17755795 0.21613857 0.053139996 0.37847504 0.088547245 -0.25779828 0.044816148 0.113673955 0.340929 0.31017718 -0.2241641 0.23008801 -0.75482947 0.5028211 0.045637403 0.013637076 0.093975686 0.21723862 -0.24277858 0.37117487 0.41034117 -0.5245744 -0.07593505 0.035612475 0.19257212 0.49932307 -0.081491895 -0.20311764 0.41584703 -0.18231012 0.5091417 0.20815918 -0.3667398 0.32705033 0.163697 0.2836863 0.48499998 0.20087412 -0.36833665
?ATC110 0.088793084 -0.18591076 -0.02576508 0.042715173 0.17458081 0.041369755 -0.18259308 0.055428106 0.2522748 -0.22518279 0.47158307 0.05696524 0.3551309 -0.40891698 0.24464388 -0.37669286 0.30538368 -0.09242575 0.515538 0.1455494 0.58767503 0.25811312 0.10328251 0.25066522 -0.19833027 -0.07689942 0.100412376 0.12934025 -0.30892548 -0.07871937 -0.15441366 -0.19808635 0.36894336 0.09812508 0.6408135 -0.09278166 -0.17426977 0.0067668892 -0.05789398 0.03197428 0.2009359 0.06943085 0.234677 -0.16179189 0.0046834936 -0.5460736 -0.11604697 0.10813527 -0.09694119 -0.083377436 0.20149332 -0.2088036 -0.23812151 -0.5090638 -0.2997627 0.17072512 -0.28983858 0.253783 -0.057115793 0.13378236 -0.18154982 -0.1926192 -0.2576501 -0.16877368 -0.26522 0.03365842 -0.2511024 -0.19195208 -0.2019002 -0.0055688214 0.492507 -0.1747533 -0.08462621 -0.0572864 0.4893243 0.3201086 0.16110949 0.19010785 0.21618688 -0.01364652 0.43223652 0.15734419 -0.11951479 0.24817406 0.518654 -0.1889411 0.2664362 0.15293628 0.29426035 -0.18627007 0.3745933 -0.17046165 0.34054098 0.24175784 0.0058751097 -0.04168986 0.10690385 0.09187364 0.039995424 -0.23306052 0.2510179 -0.6878176 -0.025323628 0.21539298 0.3584326 -0.35908198 0.0806215 -0.22675018 0.22174777 0.5989517 -0.70474696 -0.26926947 0.33350345 0.26281244 0.4975258 -0.15701923 0.21620671 0.26328745 0.0019275933 0.19615164 -0.3195467 -0.12651789 0.20123056 0.26292005 0.049775302 0.079705134 -0.042088363 -0.20787679
?AT0890 -0.22332624 -0.2999842 -0.014045597 0.3782067 -0.15085746 -0.38826746 -0.27995867 -0.20303589 0.13999742 -0.5986689 -0.12924531 0.30689645 0.42840803 -0.3959766 -0.02859723 -0.5505176 -0.27376023 0.24600182 0.778402 -0.11684282 0.024735138 -0.15298176 -0.28086525 0.428499 0.43056113 0.17272693 -0.10559081 -0.118529335 -0.51721853 -0.34529632 0.023871804 -0.10212669 0.43468413 0.61993074 0.3541227 0.072007045 -0.12690012 0.38619143 -0.020004937 -0.04028613 -0.26200998 0.17393894 0.45947182 -0.54572594 -0.0111661665 -0.13172553 -0.25978988 0.2098804 0.14682956 -0.21543492 -0.11963679 -0.24314842 -0.20339754 -0.42552173 -0.15528634 -0.3425325 -0.3324935 -0.11450574 0.047950435 -0.19056591 -0.171686 0.3094607 0.12431423 -0.114927396 0.29783657 -0.111518405 -0.23802418 -0.1629763 0.2580319 -0.39065665 0.09712439 0.26518744 -0.16209824 -0.36175844 0.17754886 -0.24680158 0.3221534 0.082566954 -0.0080539 0.3099718 0.2444353 -0.00642267 -0.17422554 -0.18271124 -0.088531576 0.19321576 0.41468734 0.023318192 -0.015779443 -0.020454139 0.10235566 -0.057015117 0.52721524 0.52009064 -0.23491399 -0.25418735 0.46089637 0.47756037 0.25561154 -0.022845244 0.27951014 -0.29396307 -0.41051632 -0.73984724 -0.0015889319 -0.10553658 0.30351114 -0.2667498 0.25685304 0.3026981 -0.7974043 -0.12780705 -0.026016403 0.047291555 0.044729706 0.03695054 0.3618301 -0.038216062 -0.024046438 -0.20464806 0.16827868 0.44172785 -0.3789453 0.26307577 0.21497412 0.2099196 -0.06604707 0.2590175
?ATA677 0.038053714 -0.2296505 -0.19449109 0.5730615 -0.16683373 -0.106505364 -0.44243604 -0.18633176 0.13837074 -0.5261082 0.06347895 0.07901096 0.28529543 -0.25330707 -0.29564548 -0.6821521 -0.08925985 0.20153643 0.7459846 -0.104808465 0.15985343 -0.12597616 -0.043926824 0.3098023 0.20591824 -0.030259212 0.11196388 -0.05030072 -0.6193189 -0.14008269 -0.25022015 -0.016934784 0.5740433 0.5864151 0.415828 0.09706132 -0.61560035 0.15073551 -0.07720549 -0.062144265 -0.4825869 0.29167175 0.48738357 -0.51583457 -0.21927047 -0.28816953 -0.29347265 0.30344424 0.33382368 -0.42509502 0.10245723 -0.07010034 -0.058911186 -0.5392934 -0.21476628 -0.56905574 -0.2698608 0.04545001 0.055558354 -0.28702098 -0.3989149 0.46009582 0.07872075 -0.06213626 0.12149376 -0.35627666 -0.08971224 -0.13552713 0.066001944 -0.4201927 0.12520212 0.10129027 -0.4050577 -0.31918406 0.09436281 -0.20742221 0.11784388 0.16148299 -0.10565677 0.10470319 0.4168884 0.19836009 -0.03450663 -0.29559448 -0.024148699 0.058472984 0.38144836 -0.0316605 -0.042235423 0.17639783 0.0732222 0.110180326 0.30269587 0.7308707 -0.43842554 -0.05423073 0.5439201 0.4356432 0.052848674 -0.08070659 0.14905688 -0.24862453 -0.44301295 -0.8138022 -0.0048655993 -0.12681365 0.038749885 -0.29381698 0.37407827 -0.02160504 -0.81999326 -0.27868652 0.44618896 -0.13640629 -0.0062461304 0.011103264 0.32158294 0.08458181 -0.14981365 -0.23288447 0.24264342 0.5502285 -0.67036176 -0.024596117 0.122034416 0.33461493 -0.07156059 0.19955269
?ATB734 0.08227334 -0.22856209 0.071669705 0.46771047 -0.09848903 -0.09488044 -0.22184955 0.044182133 0.15284055 -0.4013401 -0.14086065 0.23497456 0.60623103 -0.12604806 0.17643635 -0.54737985 -0.12766731 0.08488244 0.51927805 0.01877722 0.3174259 0.15430537 -0.16174869 0.1858585 -0.110493414 -0.104739405 0.025763143 0.084724054 -0.37807095 -0.34537324 -0.13187967 -0.113534205 0.29673305 0.35247597 0.5093747 0.24709591 -0.29838303 0.118568026 0.042260952 -0.070660464 -0.11646291 0.3793476 0.3737069 -0.81454754 -0.1474439 -0.40172842 -0.37810397 0.26386118 0.27456334 -0.27099207 -0.2962957 -0.11147134 -0.24846283 -0.2081865 -0.017924631 -0.19737753 -0.50636053 0.18065153 0.24034232 -0.29848668 -0.6169585 0.43603295 0.17276672 0.41647452 0.22798608 -0.5015477 -0.012070052 -0.10365302 -0.26390475 -0.21271364 -0.25597197 0.08575091 -0.40658236 -0.092631556 -0.046649896 -0.091895364 0.2204327 0.3380073 0.073439814 0.12066731 0.00940206 0.11825544 -0.108290836 -0.0972618 -0.09043982 0.2906089 0.58387625 0.23932296 0.07791067 0.055267785 -0.102238014 0.12910959 0.24075548 0.07639049 -0.2814383 -0.032346614 0.3678098 0.39637166 0.14435554 0.05146062 0.032247648 -0.29921186 -0.24533476 -0.59924984 0.03708435 0.08889908 0.37299067 -0.19674481 0.65212035 -0.13771474 -0.78327477 -0.33419076 0.033457253 -0.335447 -0.05039163 0.09303552 0.53428364 -0.0549102 -0.53605497 0.15378036 0.16125178 0.3932608 -0.50176615 -0.04960281 0.13547757 0.32131976 -0.05799937 0.32291317
?AT6016 0.25594082 -0.29543984 -0.3869696 -0.13229562 0.22322229 -0.032531288 -0.5329644 0.059022482 0.066546835 -0.09725701 0.91392326 -0.022841955 0.32064298 -0.6341502 0.019732121 -0.86606354 -0.022637034 0.26257223 0.6143045 -0.56371135 0.0804154 -0.153417 -0.28102458 0.26504034 -0.27339152 0.2768968 0.0823312 0.4895742 -0.8899396 0.031036058 -0.369891 -0.30334142 0.5630659 0.37277457 0.09782575 0.25276592 -0.32863438 -0.371735 -0.01970875 0.34523204 0.14114377 -0.10564967 0.35951528 -0.21056306 0.14991297 -0.20115657 -0.70398486 0.01798636 0.2499942 -0.4402352 0.32633594 -0.27348098 0.13087364 -0.55725026 -0.5047986 -0.422201 -0.4123686 0.13274758 -0.13312545 0.24740598 -0.52510613 -0.3437447 -0.35423052 -0.29783562 0.06352658 -0.32858828 -0.52784145 0.48433697 0.28378505 0.15853688 0.33550286 0.081174575 -0.030142728 -0.18378274 0.6290389 0.2894332 0.32119134 -0.17083503 -0.66336167 0.16808864 0.04069226 -0.5134369 -0.95954984 0.1432087 0.34527203 -0.009643168 0.31665754 -0.16829188 -0.19959854 -0.4573611 0.62111366 -0.30352107 -0.539242 0.41294754 -0.63279396 -0.34566414 0.3994473 0.32275447 0.5485222 0.0048096236 -0.34030876 -0.47977433 -0.28023478 -0.5161641 0.5898386 0.11420174 0.013129807 -0.37112492 0.6950422 0.043821454 -0.9375825 0.44304255 -0.3186471 -0.35381103 0.18004079 0.15625453 0.49474004 0.13179371 0.3083049 0.07963549 -0.26402634 0.069720566 -0.23133647 0.5200105 -0.26488635 0.17315732 -0.50820565 0.49346742
?AT0078 -0.004858268 -0.06371731 -0.08846461 -0.012573484 -0.047640055 -0.19180474 -0.1735724 0.20597455 -0.09853424 0.16788335 -0.46218207 0.18077156 -0.17998213 -0.48229858 0.2840592 -0.123601876 -0.6303245 0.6947812 0.05489316 0.36421624 0.0025796818 -0.36172232 0.0047556483 0.0002480227 0.39864308 -0.21476895 0.09808331 0.22296788 0.3275326 0.68878764 -0.24022685 0.3678974 0.11650751 -0.114532135 0.49792764 0.0011863861 -0.1687786 0.29247296 -0.22002426 -0.18842912 0.21217869 0.47472686 0.18688035 -0.6862609 0.44988328 -0.38796434 -0.18314292 -0.116639175 0.015562036 0.23887268 -0.21824737 -0.38453096 -0.35718313 -0.20533891 0.47306404 0.2886402 0.32330155 -0.28943667 -0.20317276 -0.3886615 0.12443888 0.23942277 0.051656526 0.29569972 0.2557835 0.17993687 0.16611218 0.31087726 0.069193386 -0.07363984 0.0033327139 0.32540068 0.3652963 -0.3467484 -0.069965154 -0.09875538 0.37668273 -0.283464 0.078241415 0.23578356 0.046147253 -0.19327983 0.25023383 -0.35744208 0.3814012 0.10191665 -0.28933015 0.01557884 0.2524569 -0.118533775 -0.40049258 -0.12799595 -0.17330606 0.1903526 -0.52899617 -0.016490487 -0.4604504 0.17399065 0.022243055 -0.15256271 0.3801819 -0.1659607 -0.40465304 -0.2590856 -0.313434 0.37184566 0.16618252 -0.1071461 0.23318078 0.080944836 -0.63890284 0.39163244 -0.013447007 0.16586082 -0.13988969 -0.9109734 -0.060119227 -0.023144161 0.34966454 0.16017517 0.040907122 -0.0075432626 0.17357148 -0.20977902 0.056345407 0.26938546 -0.08068241 -0.119585715
?AT3682 0.29874018 -0.46035033 -0.21538924 0.026725786 -0.13128549 -0.21546814 -0.51195604 -0.0009968191 0.15381095 0.07954695 -0.4231805 0.5271387 -0.18809834 -0.20551085 0.18741418 -0.006238618 -0.5622972 0.53349423 0.09843423 0.568748 0.1692243 -0.07813754 0.15363818 -0.28077656 0.096793994 -0.35614678 0.14521874 0.5395078 0.3959817 0.6484408 -0.3791679 -0.03934349 0.036692347 0.097083285 0.6133155 0.060649343 0.012114851 0.31875455 0.042791575 -0.21007247 0.38432956 0.57655466 -0.062028 -0.6034401 0.32842797 -0.33362618 -0.11425917 0.23398718 0.32069582 0.10950619 0.057023752 -0.12809518 -0.4209474 0.03277456 0.22237475 -0.11995803 0.5930365 0.06211241 -0.16068166 -0.49514386 -0.098423876 -0.0832048 0.013124241 0.22672245 0.3931945 0.009460772 -0.017348005 0.23872471 0.11346105 0.6662366 0.12062652 0.37239859 -0.10955111 -0.3365251 0.03443309 -0.062413342 0.19721147 0.004363635 0.14249828 0.2830779 -0.33559337 -0.21920523 0.1953492 -0.4791943 0.23717487 0.14174603 -0.3685117 -0.03249689 0.08590455 -0.043972284 -0.21448839 0.3185182 -0.35998514 -0.18115619 -0.31504363 0.3365373 -0.28196406 -0.13186218 -0.14773099 -0.26609007 0.078911334 0.065341145 -0.49485508 -0.1332899 0.015955646 0.16874884 0.32183802 -0.15378036 0.07518699 0.2361967 -0.17091158 -0.012159624 0.09951296 -0.123639986 0.17320745 -0.5717994 -0.2095252 0.058778364 0.117217936 0.058154903 -0.19596751 -0.0031854787 -0.09001514 0.015219606 0.34873486 0.06378001 -0.096152104 -0.110089645
?ATB474 0.29088253 -0.09178744 0.07605851 -0.07371633 -0.06575439 -0.30089155 -0.51889116 0.249844 -0.4451261 0.17201471 -0.18344899 0.42289153 0.19267188 -0.06999102 0.26082164 -0.2728756 -0.39237085 0.4653303 0.2736955 0.10928822 0.09036345 -0.08295386 0.353685 0.27014574 0.3516971 -0.049048524 0.45700434 -0.14173709 0.5005088 0.5567637 -0.26080614 0.36228532 0.109367184 -0.20018664 -0.059499122 -0.07304682 -0.18804976 0.17276348 -0.109451376 -0.074103236 0.109189495 0.63876206 -0.033251144 -0.7374694 0.25195014 -0.40385714 -0.08071747 -0.0764422 0.14317876 0.33800685 -0.3031706 -0.5395022 -0.2156046 -0.076715104 0.08618149 -0.07992382 0.35804278 -0.02814432 -0.16066916 -0.57224613 -0.013847501 -0.17511083 0.023855723 0.024463335 0.19721952 0.26956043 0.17923115 0.27338144 0.18998702 0.41589206 -0.4570022 0.10348515 0.28320715 -0.22386453 -0.030571569 -0.089519866 0.38864112 -0.20928031 0.3353095 0.1002125 -0.11577242 -0.26554185 0.20853294 -0.44649905 0.094502404 0.28564194 -0.3000011 0.019674905 0.24448785 -0.045508906 -0.20713685 0.01848052 -0.2234309 0.015353124 -0.57763165 0.46285123 -0.07269714 0.3412575 -0.20357212 0.021603627 0.04758543 0.33247578 -0.18516612 -0.28253058 -0.24923134 0.16458903 0.2613873 -0.055222865 0.34861583 -0.030912956 -0.48502815 0.26819485 0.2002827 0.07152188 0.03640528 -0.5596798 -0.14450227 0.015047801 0.08891691 0.07358382 -0.28431943 -0.096879706 0.013195545 -0.004445935 -0.009868018 0.32296765 -0.46849465 -0.17750145
?ATC993 0.36479974 -0.27538607 0.0020794813 -0.25330326 -0.071304366 -0.19852303 -0.35053396 0.2387706 0.055168178 0.30597106 -0.12714678 0.05477596 0.39771512 -0.06564561 0.34311348 -0.31459668 -0.586057 0.62019753 0.27352607 0.48986596 0.18110439 -0.3102175 0.10225174 0.29438213 0.28832534 -0.24388337 0.21049882 0.14529052 0.33025712 0.76424086 -0.20470475 0.035866722 0.005555241 -0.1753785 0.38043407 -0.09116673 -0.52769035 -0.09294926 -0.2999579 -0.3467197 0.45554838 0.81428534 0.35504895 -1.1071744 0.34012684 -0.26673707 -0.050167076 0.033829417 0.33138642 0.10919622 -0.088406116 -0.37722063 -0.12513876 -0.3146788 0.3180496 -0.008127034 0.56601125 -0.40665162 -0.014834484 -0.7313443 -0.1153987 0.054114018 0.13466358 0.30236438 0.2152726 0.55266136 0.16682833 0.21081153 -0.0085828295 0.29703483 -0.45657986 0.27394667 0.47625193 -0.4359353 -0.19387904 -0.07630555 0.24531108 -0.33911854 -0.1350697 0.11453099 -0.30666667 -0.23270544 0.26719785 -0.4476307 0.15743366 0.30662882 -0.32863733 0.17951804 0.57209873 -0.14176062 -0.46461922 0.25198132 -0.1962396 0.05726737 -0.6561061 0.27650124 -0.30657235 0.3653167 -0.25714275 -0.26423705 0.39918315 0.13013901 -0.04021061 -0.25636357 -0.21800043 0.14334756 0.2427931 0.09350243 0.36671105 -0.06960787 -0.59893835 0.2636103 0.0038038534 0.0027370332 -0.013737543 -1.0660366 -0.4478035 0.13362055 0.20577668 0.053669933 -0.3518508 -0.47462785 0.1563848 0.20111156 0.0728516 0.1630872 -0.18082455 -0.021285683
?AT4860 -0.2168562 0.30783626 0.12403051 0.063830264 0.057699576 -0.2904784 0.034401372 0.1544162 -0.21829589 0.31529012 -0.58086187 0.042096227 -0.19071347 -0.5745378 0.54323363 -0.1562373 -0.42097923 0.53799814 -0.19753149 -0.0013397537 -0.2446017 -0.37919092 -0.029003873 -0.11052702 0.29109156 -0.115371235 -0.1809655 0.4488443 0.2550294 0.33517855 -0.21445625 0.13011129 0.25337774 -0.036009595 0.4370539 0.12787603 -0.026541991 0.4737827 -0.24018466 -0.016601572 -0.23226468 -0.15195073 0.19086368 -0.25390276 0.33307347 -0.27432948 -0.42440736 -0.21507439 -0.19283013 -0.022095399 -0.23324428 -0.05340034 -0.3270039 -0.24854054 0.3388294 0.32550675 -0.0010227658 -0.26171872 -0.19136217 -0.042273972 -0.053465188 0.14236712 0.02589409 0.20227575 0.03342401 0.12880407 -0.043920476 -0.0013654944 0.1401649 -0.6259636 0.076963425 0.089688 0.44763494 -0.18154117 -0.01928451 -0.07742382 0.31355092 0.03318954 0.0078084767 -0.02442999 0.38966656 -0.06526654 0.34513152 -0.49291602 0.35749537 -0.08818166 -0.2177714 -0.05769918 0.25846076 -0.34657124 -0.57316303 -0.324608 -0.088716 0.2896459 -0.5076132 -0.11295551 -0.2601645 0.123008244 0.19039577 -0.26307186 0.30392525 -0.41865018 -0.29245147 -0.22620389 -0.44583407 0.44985992 0.19945057 -0.044947024 0.1029739 0.21914823 -0.5769945 0.33591717 0.22816728 0.19024967 -0.21398333 -0.6247064 0.18411669 -0.08960252 0.22483493 0.4258415 0.16213328 0.16803436 0.41671658 -0.308381 -0.26567775 0.2562722 0.27228394 -0.25056177
?AT7172 -0.24428785 0.12969957 -0.023288984 0.027435232 -0.14790975 -0.23047854 -0.054336354 0.10216308 -0.14855184 0.12301208 -0.6006964 0.0868509 -0.30318454 -0.6553244 0.40673417 0.018990984 -0.6067276 0.72227937 -0.033755008 0.18181865 -0.1488415 -0.5796362 -0.07702899 -0.06743169 0.40773404 -0.102402404 -0.10928991 0.316578 0.2084139 0.51504487 -0.271135 0.36364546 0.22997707 -0.20180388 0.53037876 0.088202365 -0.038049467 0.45584714 -0.18464093 -0.09775714 0.027450034 0.2056801 0.25763577 -0.4830277 0.5728944 -0.35096353 -0.22628488 -0.19104774 -0.2187847 0.01420806 -0.20931663 -0.20358606 -0.37484506 -0.19514921 0.44466117 0.38188255 0.075014 -0.26031533 -0.29952326 -0.2243609 0.1817188 0.28779078 -0.008849608 0.26085863 0.14014572 0.12085238 0.27636802 0.091963165 0.15168074 -0.5991399 0.20851676 0.21152857 0.3986768 -0.25874987 -0.058679655 -0.035016786 0.3240786 -0.18506971 -0.017429689 -0.022595739 0.41440025 -0.07600026 0.32762584 -0.34669685 0.34958786 0.08895975 -0.26863527 0.03238603 0.24261042 -0.13317174 -0.43502444 -0.4471185 -0.09971963 0.25868094 -0.6203638 -0.081267506 -0.39709628 0.10984292 0.20664307 -0.3297771 0.41391146 -0.3994 -0.47749877 -0.3058143 -0.44326326 0.48979962 0.15903924 -0.19112176 0.25670564 0.116929814 -0.62530357 0.37366688 -0.035370238 0.30458617 -0.2629607 -0.74053067 0.0400625 -0.21482578 0.34597877 0.3996095 0.20424701 0.08036497 0.18900113 -0.36661404 -0.22678219 0.21183263 0.09208726 -0.25105318
?ATB108 -0.25941822 0.23596258 0.040992282 0.090269774 -0.21534517 0.1012487 0.06647779 0.18928227 -0.3069778 0.22240719 -0.48421007 0.031390473 -0.3933725 -0.5209793 0.37355146 0.13946186 -0.5490068 0.66419446 -0.09369907 0.21811755 -0.26942703 -0.7619809 -0.1695333 -0.14213888 0.39258525 -0.098814666 -0.20708776 0.111769535 0.10535036 0.5519731 -0.44123596 0.5946684 0.29141116 -0.3549295 0.69492376 -0.086253345 0.023773732 0.45787826 -0.16330707 -0.13878214 0.0011331505 0.076119214 0.14255847 -0.4667526 0.578174 -0.37980652 -0.019454774 -0.20081627 -0.341179 0.044379003 -0.168441 -0.36149383 -0.19801989 -0.16473918 0.42487586 0.23966306 0.109242514 -0.13761455 -0.23660086 -0.16600804 0.13670127 0.27717412 -0.04970571 0.16950063 0.24746339 0.15687072 0.4601355 0.08088924 0.01672892 -0.34980214 0.30520537 0.22748785 0.33233902 -0.29874074 0.07029646 -0.029996326 0.4004816 -0.36193162 -0.14015022 -0.09577713 0.2796848 -0.05394177 0.34406602 -0.418147 0.37042463 0.18969387 -0.110040165 0.11631591 0.28791022 -0.06601078 -0.32848382 -0.3934797 -0.09487332 0.2101997 -0.55138355 -0.019883651 -0.27968222 0.22297604 0.31432727 -0.29485032 0.28814432 -0.5501858 -0.49844918 -0.19401641 -0.33462876 0.3044718 0.18707503 -0.19148056 0.22193488 0.18337053 -0.60105556 0.41397205 0.06067527 0.25963897 -0.28573975 -0.65860844 0.14542757 -0.17872855 0.3023964 0.48868015 0.15898798 0.08879166 0.1624506 -0.30516875 -0.22256152 0.12910862 0.05853795 0.03654926
?ATC728 -0.36369482 0.15465152 -0.1633654 -0.024490342 -0.09781426 -0.4624073 -0.15124379 0.010066181 -0.07861568 -0.11009882 -0.29771155 0.15872402 -0.12615919 -0.61243117 0.20792508 -0.013974075 -0.71721274 0.5215977 0.1306543 0.15905966 -0.24361984 -0.47357422 -0.16584104 -0.0061328653 0.45594952 0.026434766 0.025173573 0.16905181 0.22462413 0.44708788 -0.057364393 0.25482363 0.28006855 -0.2202218 0.47588634 0.022719912 0.016139785 0.52081954 -0.30509615 -0.09232401 0.17959438 0.025908021 0.32646352 -0.3328203 0.5161393 -0.32632446 -0.079344675 -0.21694458 -0.2475322 0.11580374 -0.29875326 -0.17879267 -0.31450304 -0.17561917 0.33690113 0.24879704 -0.19403763 -0.3803141 -0.14974613 -0.08950753 0.10374593 0.35373202 0.09088136 0.1275072 -0.0010000481 -0.13760878 0.22366962 -0.12762578 0.34439123 -0.62513256 0.47878987 0.2545911 0.41213286 -0.21883868 -0.0020860378 -0.04440379 0.25085837 -0.15978365 0.07955464 0.21374963 0.41664144 -0.15802616 -0.0014213687 -0.19157541 0.28106576 0.15897535 -0.29953837 -0.055072654 0.16681431 0.083462484 -0.24597406 -0.4113474 0.11669727 0.2793016 -0.6625328 -0.113173984 -0.45781925 0.21137401 0.18544838 -0.34055057 0.45871195 -0.26798224 -0.42675602 -0.32805523 -0.2205242 0.48000547 0.15143096 0.009620757 0.3310101 0.26191255 -0.5142295 0.35110578 -0.18196766 0.27216706 -0.18261999 -0.66339636 0.13221315 -0.25207818 0.26799014 0.038396683 0.24296279 0.15263651 0.06503807 -0.40389022 -0.25570983 0.1688586 0.017316991 -0.1440091
?AT0079 -0.09934257 -0.089099176 0.07067107 0.26499507 0.072630815 -0.12173165 0.3004742 0.17757909 -0.26168123 -0.07006893 0.15218318 0.49845707 -0.5993732 -0.15832745 0.014415779 -0.34714216 -0.33904707 -0.25991514 0.5460194 -0.45535752 -0.14400958 -0.18363781 0.4683485 0.2816188 -0.039861567 -0.25022307 0.52386135 -0.025720675 -0.04763727 -0.2116082 -0.45703322 -0.37541586 -0.28598207 -0.40077195 -0.24167915 -0.13647972 -0.61449575 0.11862037 0.015276276 0.022439633 -0.1610263 -0.5860487 -0.2863403 -0.20795214 -0.13523455 0.54957014 -0.75954187 0.44980162 -0.018812079 -0.8656442 -0.09369913 -0.40347418 -0.038241435 -0.37601146 -0.19356623 -0.8091547 0.10808234 0.10734934 -0.47811192 0.4224697 -0.052375447 -0.06757402 0.19053322 -0.36386696 -0.2495645 -0.15269908 -0.14097609 -0.38444546 -0.28310037 0.37679255 0.24562156 -0.1814508 -0.107026584 0.2770404 -0.030038575 0.022549506 0.068895884 0.27769303 -0.057985082 0.26626235 0.7416102 -0.044878338 -0.22216958 -0.6406599 0.054700125 0.31332734 -0.45883256 -0.1394041 -0.046005048 -0.18966106 0.0969056 0.2498333 -0.099628426 0.39418784 -0.65450335 -0.09909538 -0.22990623 0.16900279 0.0441447 -0.326801 -0.35825107 -0.27856812 -0.10151998 -0.38969508 0.39066473 0.19185404 -0.30777594 -0.20526478 -0.1528137 0.4783011 0.037370004 -0.30985817 0.20262878 -0.21289308 0.4298951 -0.22054793 -0.108278744 0.15557663 -0.5792492 0.275656 0.4499061 0.1646824 0.13278632 0.24555816 0.37524837 -0.060747888 0.71927667 0.016207922
?AT3323 -0.041942634 -0.37397066 0.36851972 0.047491565 0.12526491 -0.08191444 0.45145634 0.5278726 -0.28821558 -0.029025266 -0.028370062 0.26396933 -0.70073587 -0.24994656 0.14091012 0.054419227 -0.23710375 0.1054271 -0.016333697 -0.49867228 -0.47185016 0.049572274 0.44941366 0.29179367 -0.07095898 -0.42286038 0.65868723 -0.27409682 -0.34096968 -0.30456498 0.01177754 -0.30558196 -0.050246198 -0.6771625 0.10835694 -0.3168639 -0.4921356 0.6030332 -0.118719116 -0.05479089 -0.1161945 -0.4852624 0.11985327 -0.24509832 -0.2696829 0.528711 -0.82505095 0.34982508 -0.09522934 -0.1845273 -0.0695715 -0.53072405 0.19019191 0.00064772146 -0.11342524 -0.16533858 0.059920955 0.6987566 -0.28671518 0.3971567 0.016744172 -0.034381848 0.026649598 -0.72652286 0.32978618 -0.06369785 -0.10501289 -0.15366812 -0.34018824 0.16998781 0.2809731 -0.35548976 -0.12513751 0.13999772 0.36724928 0.5358971 -0.27280498 0.2678618 0.119439 0.1675134 0.5584474 -0.057432488 -0.4418558 -0.72397697 -0.18323897 0.47614965 -0.5784272 0.08783345 0.31049666 -0.044604115 -0.11328811 0.094996125 0.14605099 0.4685445 -0.4833922 0.07569428 0.044066463 -0.10096288 -0.14564656 -0.40202034 -0.12366808 0.035206098 0.15094845 -0.42412275 0.34014368 -0.099977955 0.01459015 -0.100762025 0.07060841 0.22609797 -0.035655197 -0.28988412 0.06841359 -0.016842658 0.17640857 -0.24915875 -0.034360684 0.27611935 -0.34226143 0.50047326 0.5645456 0.0042276774 -0.015632538 -0.28310338 -0.048335943 -0.2202141 0.522904 -0.0657882
?AT6605 0.09396176 -0.3493562 0.03770559 0.48976994 0.049408928 -0.26732618 -0.046760075 0.053116497 0.2589059 0.07788483 0.006738874 0.23501885 -0.44189596 -0.12896939 -0.11621123 -0.43924004 -0.28327218 -0.5177689 0.48605987 0.075008735 0.08985226 0.044462543 0.12346643 0.27648586 0.09041443 -0.11937597 0.370792 -0.18560588 -0.11431181 -0.10747866 -0.45960203 -0.057401553 -0.03453736 -0.28833154 0.14268363 -0.025790721 -0.46311408 -0.11894585 -0.2747344 -0.08697568 -0.4285771 -0.23611249 0.27986857 0.21012229 -0.11307823 0.07275478 -0.6078637 0.2571521 0.16446388 -0.51151496 0.4011934 -0.14920256 -0.36746007 -0.38305432 0.3552559 -0.80183935 0.015048205 -0.010901197 -0.6374174 -0.12374438 -0.18472588 0.13296276 0.21879908 -0.54337645 -0.6819725 -0.030501904 0.35004842 -0.47304648 -0.1580719 0.16812992 -0.0020260175 -0.04481612 -0.17031598 0.2185241 -0.24784437 -0.09631527 0.050141327 -0.04433216 -0.20097485 -0.03300733 0.3114115 -0.0041478206 0.18873733 -0.5782195 0.061417934 0.06938657 -0.003904675 -0.17924403 -0.05294211 -0.014650285 -0.16835517 -0.068357766 -0.30970672 0.15463753 -0.7551875 -0.07720556 -0.12975156 0.54591876 0.21830054 -0.18866523 -0.10760891 -0.37432846 -0.39481267 -0.42450064 0.42659545 0.1277959 -0.44338247 -0.39104 -0.35925788 0.25416642 0.115566984 -0.006855482 0.14198203 -0.34175527 0.62394243 -0.32168534 -0.13764715 0.03475029 -0.3905931 0.102407865 0.44055375 0.13954072 -0.32647872 -0.03504443 0.37720013 0.34900558 0.7632969 0.073996894
?AT9642 -0.1191637 -0.0003912609 -0.13786322 0.2845502 0.0023625067 -0.121835425 0.3913435 0.03419285 -0.35863772 -0.05087972 0.19193657 0.5734209 -0.6997937 0.026646897 0.09422705 -0.28622946 -0.3284595 -0.24398838 0.6607686 -0.6313739 -0.15299387 -0.19228202 0.75460047 0.30024356 -0.08621629 -0.3591598 0.45750657 0.059733737 0.12451514 -0.17833911 -0.5957079 -0.3876001 -0.27458093 -0.18399975 -0.41508958 -0.13832667 -0.49017802 -0.012796855 0.103937745 -0.035448153 -0.023114122 -0.578908 -0.54861814 -0.4146176 -0.15719734 0.5029835 -0.8632988 0.5470837 0.015276573 -1.0446261 -0.24205272 -0.34422478 -0.13689943 -0.4068956 -0.24522458 -0.8954595 0.19969922 -0.19517088 -0.42443496 0.35126793 -0.044000015 -0.082314245 0.305815 -0.17919575 -0.2219621 -0.16158329 -0.31818628 -0.5060257 -0.39983743 0.37169942 0.31954235 -0.1717288 -0.16724008 0.34776044 -0.14351939 0.05754552 0.23011804 0.2725099 -0.1673696 0.35455975 0.780241 0.038254093 0.009017092 -0.52195895 0.09603066 0.25861925 -0.43245345 -0.22186391 -0.08883787 -0.23670502 0.13094105 0.22318104 -0.19529252 0.4484451 -0.6480462 -0.06385604 -0.2392254 -0.06651299 0.12711918 -0.22596528 -0.3119603 -0.31147414 0.027794205 -0.24377325 0.21709861 0.21612334 -0.4384915 -0.09411673 -0.14255024 0.49745783 0.020498633 -0.39475423 0.3991505 -0.12337919 0.59765065 -0.29186326 -0.11736112 0.14651318 -0.7693604 0.2296855 0.260702 0.08686681 0.44180995 0.2443186 0.30156288 -0.23868933 0.67793685 -0.18692084
?ATB017 -0.14402926 0.17308803 0.00041486783 0.3185049 -0.0104362145 -0.21820943 0.31743348 -0.17893745 -0.3253548 -0.09927346 -0.0011297783 0.46900952 -0.434508 0.111104086 0.26447195 -0.15281147 -0.3212688 -0.32895216 0.7688823 -0.510831 -0.031898517 -0.1035971 0.5774795 0.23199196 -0.2762456 -0.25729126 0.20959008 0.19667825 0.40439752 -0.029354578 -0.516755 -0.35089862 -0.2964114 -0.1509903 -0.22875373 -0.025309851 -0.3119835 -0.2178546 0.14699592 0.13025603 -0.019583043 -0.49529648 -0.5581751 -0.37015548 -0.1765589 0.30884367 -0.5837773 0.43096253 -0.13056958 -1.0439881 -0.078101076 -0.18925564 -0.14105658 -0.4390704 -0.15758319 -0.7756429 0.0319246 -0.34321362 -0.3337235 0.22670631 -0.074678496 -0.03942153 0.23228337 0.0217214 -0.19805199 -0.054748565 -0.42699808 -0.3893467 -0.3851101 0.4106793 0.24721791 -0.15720624 -0.030239685 0.35630468 -0.1951698 -0.20094746 0.24282843 0.12258526 -0.33339217 0.10640447 0.53918177 0.06383643 0.34006193 -0.19255203 0.025875008 0.082485475 -0.32722378 -0.095943935 0.07903541 -0.35906756 -0.019603424 0.0009665459 -0.2999323 0.23457614 -0.6044178 -0.16043688 -0.2676027 0.030605832 0.13323031 -0.08755589 -0.29765704 -0.2279712 0.065171875 -0.24975006 0.14025547 0.35885465 -0.49177507 -0.029592099 -0.005517524 0.4248506 -0.021507775 -0.2619725 0.25172555 -0.0479587 0.42487687 -0.27923048 0.09275214 0.0554307 -0.70100516 0.3036951 0.0015493912 0.07435086 0.42476344 0.13807943 0.3263837 -0.32711822 0.65435773 0.07272292
?ATB086 0.3820159 0.510396 -0.20485747 -0.7595828 -0.523316 0.35966817 -0.17776492 -0.25773507 0.2039915 -0.15869929 -0.079942174 -0.05925788 0.45433387 0.11325067 -0.3568184 0.14416942 -0.5639106 -0.037285637 0.61232007 0.26030383 -0.32486364 0.13228981 -0.032276824 0.087649256 -0.48525998 -0.31212875 0.3778437 -0.06993106 0.1966113 0.24971768 -0.32951415 -0.79603994 0.44444704 0.06972312 1.0736548 0.48661506 0.20859277 -0.25065377 -0.14427558 -0.5239169 -0.120799676 -0.34042326 -0.8449095 -0.20082611 0.35354587 0.16870159 -0.9447685 -0.68413746 0.18074162 -0.056796424 0.07888397 -0.35815966 -0.13038544 0.09246564 0.1781369 -0.28043786 0.22886106 0.22339645 0.14057949 0.46146968 -0.13006534 -0.98840517 0.008914635 -0.088806964 -0.3657891 0.016737524 0.40425935 0.2779863 -0.38257912 0.65004456 -0.038613394 -0.37867606 -0.3188972 -0.026375316 -0.19247043 -0.16815694 0.9499421 -0.04899612 0.46141553 -0.53688556 -0.09205251 -0.47469577 0.989864 0.19605087 -0.13328588 0.29540724 0.42908424 0.38275382 0.33615112 0.4916193 0.6009923 -0.28520462 -0.47190598 0.13846157 0.043163624 -0.7263811 0.33432147 0.3634868 0.5077298 -0.5679232 0.4444877 -0.48767373 -0.62746894 -0.36430734 -0.019706795 -0.12482929 0.40585554 0.08526105 1.0970836 -0.16842309 0.3367078 -0.24699232 0.3218545 0.359295 0.15869993 0.14019549 -0.5636916 -0.11541486 -0.08689387 -0.2897082 -0.022319235 -0.6438015 -0.12234304 0.2723869 -0.34305578 0.03780386 0.12048337 -0.5862969
?AT0093 0.1668983 -0.2884338 -0.07906242 0.2063888 -0.6668036 -0.20569435 -0.2591419 -0.11748515 -0.3663216 -0.57460576 0.09004638 -0.08478287 0.21619968 0.23927109 0.12033081 0.18108161 -0.32239196 0.32966474 -0.08255943 0.02761871 0.008084537 0.32877666 -0.30465055 0.15266792 -0.057016168 0.16427562 -0.19442384 -0.17114621 0.16341816 0.10937425 0.28283215 -0.6583795 -0.008842315 -0.106358916 0.33791566 -0.06196534 -0.13970801 0.39883512 0.21032737 0.20103092 -0.4089232 -0.21274003 0.33477452 -0.16197684 0.55696243 -0.19314077 0.21460752 0.078297384 0.09995005 -0.4821272 -0.52433753 -0.09703212 0.18779895 0.094261356 -0.019448908 0.020746216 0.06219434 -0.051144615 -0.11394714 0.5514273 -0.014364356 -0.33631694 -0.06391833 0.11372891 -0.019800011 0.8044272 0.11870356 0.058603086 -0.3525199 -0.14592063 -0.19769995 -0.13736463 -0.38786033 -0.11419759 0.44950005 0.05975535 0.41344818 -0.17505825 -0.48465216 0.10173278 -0.06396918 0.2743444 0.25133142 -0.17734747 0.072555065 0.07541908 0.19940922 -0.33229282 0.25195214 0.23993184 0.29307544 -0.26857173 -0.24037665 0.16431001 0.075324945 -0.070783965 -0.023561222 0.09966891 -0.13780142 0.25729683 -0.42228615 0.1424558 0.07655563 0.027540281 -0.46386674 0.18599169 0.11125695 -0.2711538 0.0002518087 0.38513353 -0.17699192 0.37279928 0.18031071 -0.22687145 0.10024345 0.27111486 -0.6571128 0.09288577 -0.22851141 -0.3633751 0.13501246 -0.48694915 0.10230831 -0.04054601 -0.17846905 -0.012446385 -0.010408295 0.43066776
?ATB955 0.4708948 -0.31066564 0.43158808 0.27841803 -0.62570035 0.25686562 -0.23857777 0.014572878 -0.09154786 -0.21529925 0.19491729 0.08514473 0.14020559 -0.12003496 0.67811245 0.023369383 -0.17913345 0.11056263 -0.22777669 -0.13058943 0.3811911 0.18849188 0.16177082 0.23918684 -0.018679043 -0.10087997 -0.4378182 -0.1956019 0.28525442 0.3744241 0.25978085 -0.7035881 -0.3963953 -0.057996668 0.21590959 -0.03834857 -0.12388259 0.58872426 0.23074709 0.099271215 -0.2854597 -0.16268417 0.13979407 -0.14419384 0.32067135 -0.027541839 0.07343143 0.21646373 -0.0012693942 -0.79729146 -0.40275553 -0.32058913 0.07263754 0.07530304 -0.047577042 0.212785 0.06918991 0.2556087 0.20600285 -0.021951564 -0.19262347 -0.5444864 0.27601162 0.12369086 0.17641631 0.6747483 -0.20691329 -0.04928754 0.10302826 -0.2760052 0.14990188 0.0226095 -0.55996907 -0.14333798 -0.046301823 0.23616268 0.10079235 -0.30160043 -0.25219297 -0.31545275 0.07740075 0.44670758 0.040800035 -0.046653748 -0.07891936 0.48460013 0.08772261 -0.36588255 0.072301924 0.21256717 0.4008137 -0.4261675 -0.0677555 0.26874113 -0.019861571 0.06711231 -0.092762694 0.24929765 -0.3188498 0.13404816 0.029236251 -0.4032027 0.0058304816 -0.39023998 -0.60605496 0.24817073 0.31920567 -0.24216212 -0.28112862 0.3010384 -0.23614372 0.37775338 0.043798596 -0.38626572 -0.0026906505 0.48539677 -0.8042628 0.043999795 -0.1593797 -0.11471503 -0.15734597 -0.22065747 -0.11287343 0.04706338 -0.0007948841 0.36699146 -0.15111624 0.20769857
?AT8711 0.105575345 -0.02547978 -0.08728787 -0.019723443 -0.5234 -0.30615646 -0.32059944 -0.18957756 -0.5483438 -0.26146752 0.58018684 -0.15659782 0.4020597 0.1591551 0.15395202 0.019693514 -0.40260094 0.57572365 0.20553467 0.2947765 -0.042179514 0.438169 -0.7211632 -0.1944695 -0.20936783 0.26978254 0.11021595 -0.46416143 0.01210866 -0.05717154 -0.30413023 -0.44152412 -0.15455301 0.13085096 0.15799092 -0.10445667 -0.41777113 0.47217098 0.05270229 0.14693229 0.082341954 -0.4973975 0.35204032 -0.019046715 0.047629647 -0.48016524 0.32933167 0.12986264 0.032032967 -0.16844697 -0.10825706 -0.21111892 -0.20150304 -0.027100557 0.063326575 0.088995695 0.099045746 0.27810177 -0.08757928 0.23514704 -0.0474168 -0.09595142 -0.37891746 -0.08233095 0.33254382 0.3582822 0.250987 -0.15897475 -0.45614037 -0.1328407 -0.22987562 -0.20721874 -0.30145523 -0.37180698 0.4454563 0.18980005 -0.029207345 -0.21381295 -0.25410485 0.3101865 0.061380323 0.18107116 0.5866437 -0.039902624 0.24469589 -0.25232077 0.1895443 -0.4305073 0.22695206 -0.082005456 0.33840796 -0.09894301 -0.30598038 0.3124522 -0.15450524 -0.61183935 -0.27800897 -0.0020786652 0.054366324 0.31020653 -0.50573003 -0.16038863 0.1003328 -0.10604078 -0.25163797 0.31869477 -0.0753768 -0.17751376 0.03294833 -0.0956251 0.06309553 0.7706669 0.054126304 -0.07641859 0.11356665 -0.09852144 -0.084252276 0.43955913 0.037829343 -0.40736842 -0.26782057 -0.36281493 0.15356177 0.018735383 -0.31591806 -0.24325281 -0.12023785 0.055018008
?ATD082 -0.01827837 0.281313 -0.07397767 0.09071885 -0.7537242 0.07665395 -0.48196346 -0.1638483 -0.4657687 -0.21476112 0.1855618 -0.1778015 0.28146192 0.12339031 -0.15894698 -0.20363525 -0.22488256 0.47021675 -0.094740205 0.31151006 0.13103591 0.400793 -0.6772272 0.027866727 -0.22850771 0.09844819 -0.2270531 -0.12672596 0.012193301 0.12246316 -0.112683326 -0.37330452 0.06434039 -0.039719004 0.45907068 -0.055575315 -0.04028951 0.39447615 0.04049906 -0.028217223 0.0016713422 -0.44401413 0.23331931 0.15651491 0.2716655 0.100038975 0.18962109 0.17575385 0.22367236 -0.4479297 -0.33021688 -0.003582756 0.26246938 0.26325804 0.159951 -0.0297021 -0.102154575 0.123357706 0.22160712 0.051101442 -0.203545 -0.1850726 -0.30052382 0.07210613 0.1388835 0.81408364 0.2080665 0.19838056 -0.4589772 0.05606209 -0.10609883 -0.24170002 -0.08346782 0.13256527 0.44271237 0.09811068 0.12313734 -0.057152987 -0.3440761 0.35956115 -0.0035021335 0.32991472 0.5397187 -0.12800431 0.428668 -0.026984446 -0.22102192 -0.19739021 0.24371047 -0.13308237 0.3263817 -0.29211897 -0.2875464 0.14919738 -0.18739305 -0.4164391 0.2437277 0.0006136223 0.071019985 -0.041656278 -0.25978577 0.10505829 0.07650452 -0.00898696 -0.2395896 0.1481598 -0.32111558 -0.2294809 0.11213491 0.42367542 -0.0075838948 0.56352997 0.018465834 0.032152645 -0.012790351 0.039135385 -0.2507955 0.3267713 -0.17186859 -0.11871594 0.2604994 -0.24178572 0.20068221 -0.28580648 0.04504297 -0.13170457 -0.13914415 0.004801519
?AT0260 0.1650947 -0.09104919 -0.14273842 0.45570967 -0.31768754 -0.41449305 -0.07946344 0.110776275 -0.22561693 -0.46421158 -0.06358712 0.018288836 0.23224564 0.27635336 0.5661716 0.18278314 -0.065939836 0.22643125 -0.08295958 -0.02287286 0.15861721 0.44105625 -0.21923475 0.40211624 0.122984245 0.07019432 -0.043996383 0.08763687 0.37418896 -0.08047881 0.27203432 -0.65918916 0.06225893 -0.2572057 0.19463196 -0.067200355 -0.0599497 -0.060581043 0.28878942 0.02520321 -0.49927273 0.061431844 0.4484354 -0.29845896 0.69971794 -0.35412556 -0.022178326 0.07064431 0.09512025 -0.05727641 -0.32781172 -0.16919962 0.3266067 -0.08037698 -0.109752685 -0.25091305 -0.07652834 -0.22967106 -0.2918492 0.7050711 0.21936586 -0.2838405 -0.3055604 -0.09307981 -0.44709134 0.67856085 -0.2932665 0.04193072 -0.077021584 -0.34451047 0.055891037 0.14701614 -0.2630818 0.007887191 0.1536789 0.23277035 0.71967125 -0.060968284 -0.5642057 -0.011106218 -0.053993113 0.105107024 0.20962115 -0.16742407 0.081317596 -0.16022424 0.067002006 0.0060622436 0.27797097 0.12929118 0.19047458 -0.40069705 0.018220449 0.30028507 0.11251994 0.24043438 0.09378375 0.1859357 -0.051705487 0.03682464 -0.34625933 0.38423628 -0.12553254 0.16491888 -0.21619569 0.047048062 0.3762707 0.10019312 0.10640317 0.22662318 -0.12045296 0.006293679 0.28803572 -0.027401123 0.004079953 0.32361314 -0.62967336 0.033164192 -0.4540594 -0.39462924 0.37103605 -0.3030422 -0.100327976 -0.076262966 -0.21171422 -0.14318134 0.00058745424 0.7883796
?ATA977 0.2679134 -0.5309831 0.017508326 0.3215078 -0.38496202 -0.48924702 -0.2914415 0.016720502 -0.21186376 -0.4537709 -0.12651518 -0.049557105 0.14677447 0.006238513 0.26285213 0.24467683 -0.25888222 0.19660483 -0.123807214 -0.10510414 0.14017735 0.3877313 -0.19381803 0.31965855 -0.07277949 0.26080883 -0.10626507 -0.2195435 0.33010054 -0.3445911 0.2857323 -0.31558624 0.060565196 -0.10866345 0.16827326 0.22926652 0.22178173 0.27432984 0.1341162 0.3540917 -0.1618836 0.046980225 0.1834678 -0.23925267 0.5903563 -0.032668285 0.29752633 0.04638545 -0.03421554 -0.3169531 -0.4335264 -0.26221362 0.13148627 -0.1728665 0.065563664 -0.19016187 0.19955991 -0.4187475 0.13595547 0.75683296 0.096740104 -0.4591256 -0.20535737 -0.16905902 -0.3579692 0.7222352 0.119961366 -0.09486151 -0.1777437 -0.17822587 -0.07010381 0.045699675 -0.47134328 -0.19808486 0.4630526 -0.048035063 0.5891555 -0.09159898 -0.2569432 0.29582483 0.034965005 -0.2136942 -0.034933474 -0.44612986 -0.39612058 -0.22123888 0.43875512 0.020856852 0.18902305 0.15257211 0.31231207 -0.53279847 -0.44199038 0.14541882 -0.11700577 0.35146362 0.19548318 -0.023508111 0.025674872 0.25531915 -0.37536135 0.426372 0.121845946 -0.02594061 -0.41301423 0.17063019 0.3799481 -0.43459722 -0.03862404 0.5927031 -0.21987088 0.060363993 0.1662915 0.051162433 0.38355953 0.16615899 -0.62659127 -0.31319788 -0.57333493 -0.31897652 0.040236488 -0.28708753 0.07184251 -0.26176044 -0.30551255 -0.20309208 0.19676222 0.7262082
?ATB785 0.38851798 -0.3100791 -0.038113113 0.07431114 -0.06633458 -0.49412686 -0.22212738 0.051443532 0.076962255 -0.59496427 -0.06850636 0.15895513 0.24768376 0.02365527 0.22748594 0.12578455 0.18976295 0.19520536 -0.19626 -0.012750119 0.16002083 0.110542305 -0.1950426 0.76573324 -0.06817658 -0.05036302 -0.32329687 0.05783924 0.11380311 -0.028810686 0.3333476 -0.3390227 0.21777177 -0.30580366 0.4044066 -0.010303642 0.01027693 0.36278796 -0.0065665604 0.05167173 -0.39851353 0.20116135 0.08221791 -0.38832557 0.73936296 -0.29928082 -0.19039878 -0.015364023 -0.09001453 -0.16965225 -0.541946 0.13702165 0.43196347 -0.027046721 -0.07413395 -0.1695479 0.10257374 -0.115135014 -0.16245185 0.5685471 0.2789404 -0.18831903 -0.19633983 0.23946501 -0.4004391 0.6697371 -0.07306244 0.06027966 0.06498052 -0.2495097 -0.26291797 0.06477456 -0.3379414 -0.1618604 0.16698706 -0.07807829 0.4832366 0.10942775 -0.31991804 0.01208829 0.028238343 0.116744824 0.17372301 -0.27903458 0.3680857 -0.13925217 -0.02365852 -0.028745634 0.23565221 0.10012895 0.29516333 -0.2292342 -0.14929825 0.20361464 0.02488905 0.3225071 -0.019518264 0.042358838 -0.17238683 0.029054198 -0.26867098 0.19482045 -0.12663867 0.06261768 -0.32651857 0.3498867 0.053935792 -0.23113523 0.059398927 0.3864454 0.27127618 0.075139225 -0.06628074 -0.10305918 -0.06407574 0.49455777 -0.42852834 -0.15720816 -0.27313408 -0.36952743 0.15894277 -0.57333267 -0.07899922 0.085837536 -0.31208926 -0.06798903 0.33759457 0.4103145
?ATC194 0.09872101 -0.3528211 -0.02158295 0.27282357 -0.36458573 -0.6549388 -0.3239535 0.051583137 -0.3598842 -0.57722265 -0.0011722834 0.1338025 0.27978486 0.09523559 0.2971185 -0.013221302 -0.045037277 0.24592546 -0.16426714 0.013908895 -0.011834453 0.449147 -0.30494076 0.38940096 -0.03135036 0.04480793 -0.14759803 -0.31744438 0.29441118 -0.069513135 0.21280423 -0.61130726 0.15297125 -0.06384772 0.36737892 -0.49604085 0.20603909 0.20148341 0.16920327 0.16865508 -0.48808238 -0.02481743 0.06340649 -0.48139268 0.6777306 -0.25812897 -0.031118149 0.11914177 0.03865446 -0.14184405 -0.6461985 -0.11597827 0.29568213 0.012143976 0.12958065 0.024679724 0.02367421 -0.150612 -0.29850876 0.58346474 0.08832336 -0.21913731 -0.087090366 0.15017031 -0.16778491 0.34920862 -0.14540412 0.17114422 -0.33096322 -0.21737652 -0.22993763 0.20944472 -0.20768099 -0.13266605 0.38939324 0.013496719 0.64131474 -0.4907727 -0.38753763 0.014248474 -0.05521826 0.00041163064 0.032659538 -0.24563906 -0.15469563 0.16662085 0.30307093 -0.018436499 0.20171115 0.3069372 0.07075695 -0.25349388 -0.37158534 0.26129052 -0.009175948 0.15916431 0.031776123 0.14000505 -0.23342282 0.36554432 -0.26059777 0.5006013 0.02522299 0.028699966 -0.3027505 0.062399972 0.0913672 -0.20311193 -0.15869571 0.55586535 -0.20329764 0.11608073 0.19882472 -0.15489168 0.28710872 0.25343147 -0.8342491 -0.31098348 -0.43428388 -0.44348758 0.034090657 -0.49697456 0.021239538 0.009406164 -0.31539625 0.024529444 0.1786495 0.5593674
