1909 128
?AT0004 -0.021575479 -0.09308058 0.36100218 0.017204374 0.60779375 -0.02917182 0.0854951 -0.0397797 0.19413593 0.2170298 -0.09864575 -0.74936384 0.8118157 -0.49532703 0.4827717 0.05152446 0.07195567 0.5873187 -0.061992127 -0.28341937 -0.44117188 -0.18594785 -0.18871142 0.008986153 -0.39290905 -0.7940331 0.32594982 0.014399123 0.9300126 -0.29242545 -0.09039484 0.32962364 0.24428715 0.5473163 0.16381283 0.24270433 0.28077677 0.17604634 0.14877813 0.10740499 -0.23207499 -0.21750693 -0.5925484 0.14610009 -0.1819651 -0.22588158 -0.017482249 -0.40149713 0.11190345 0.5652043 -0.393911 0.02066226 -0.19003123 0.25142306 -0.55614465 0.07962018 -0.15550725 -0.15105985 -0.4869631 0.14663026 0.022246083 -0.32976544 -0.054632533 -0.054911364 -0.3917562 -0.3053379 0.45561334 0.28434524 -0.08535123 0.050642684 0.07964084 0.65995735 0.93826497 -0.65416306 0.84650147 -0.26544553 -0.12799616 -0.3087056 0.15964764 -0.27451956 -0.09962485 -0.15361606 -0.162301 -0.34526834 0.4880323 0.10249486 -0.25011864 0.30717218 0.5930772 0.20123447 -0.25670478 0.49347302 -0.19516677 -0.3435094 -0.06626081 0.380747 0.040857073 0.37770835 0.19700664 0.016323894 -0.37367487 0.24577054 -0.13874225 0.23008563 0.867207 -0.34267753 -0.38946378 0.37109837 -0.80325097 -0.28248405 -0.3537677 -0.40251994 0.6861064 -0.052027162 0.30068088 0.94395024 0.021656519 0.16499986 -0.19560778 -0.72277385 -0.5917959 -0.6391804 0.119668975 0.375895 -0.2234511 0.0111794 0.23034278 0.57848805
?AT8933 0.04002799 -0.086490616 -0.04744148 0.03442229 0.49804962 0.2908318 -0.23343147 -0.21870203 0.21182285 0.23836556 -0.02737378 -0.53436565 0.6941353 -0.4711657 0.39279908 0.099953264 0.30166468 0.2193243 0.32915682 0.17398869 -0.18392757 -0.058911458 -0.2866768 -0.10428685 -0.36755127 -1.0546939 0.14832419 -0.047996726 0.72642976 -0.46137708 -0.13523148 0.09466721 0.077205665 0.40517914 0.2372115 0.11354474 0.3513964 -0.19775814 0.15519612 -0.23136511 0.2695292 -0.3984137 -0.29683793 -0.03589019 -0.17270483 -0.17111328 0.08809367 -0.015735274 0.066581935 0.3202149 -0.32836986 -0.22455719 -0.048106574 0.08389801 -0.39664218 -0.18060409 -0.2532564 -0.12428982 -0.074061565 -0.27076265 -0.05005003 -0.4861332 0.072815515 -0.06266521 -0.4435903 -0.15872088 0.209022 0.43905652 -0.051659986 0.063465565 -0.036867104 0.6390983 0.48855153 -0.34402746 0.79110414 -0.087135755 -0.13030724 -0.2336422 0.12320911 -0.40976664 -0.19426718 -0.4002219 -0.082570925 -0.02768552 0.36914772 -0.015312367 -0.03815216 0.21757528 0.27329397 0.11035085 -0.21969649 0.20579213 -0.3802542 -0.22930422 -0.3041913 0.6750955 -0.08633801 0.37093595 -0.07420026 0.15392344 -0.3302054 0.15228498 0.015995614 0.10411952 0.54370195 -0.2513932 -0.3545474 0.0979176 -0.56281877 -0.21247903 -0.33374062 -0.17557833 0.2207069 0.038819946 0.1328295 0.699349 0.23526894 -0.15704681 -0.15379027 -0.23077075 -0.4805699 -0.4861528 0.13556126 0.09198001 0.006576433 -0.12186428 -0.06693864 0.34495446
?AT5331 -0.0049791075 -0.19053742 0.37081438 0.14559363 0.73241717 0.29529738 0.15207797 -0.031308286 0.3284122 0.054850727 -0.12310682 -0.57458586 0.9216114 -0.35916784 0.49075386 0.23057851 -0.23687339 0.6912572 -0.2389935 -0.31286716 -0.40225664 0.13823608 -0.30654708 -0.059306554 -0.50113076 -0.65998644 0.32469818 0.07213484 0.79687285 -0.2843058 -0.36720404 0.48853734 -0.19895469 0.3145175 0.25275552 0.1063933 0.39491042 -0.011878942 0.06616507 0.24520455 -0.51944834 0.0819589 -0.89872855 0.09692096 -0.3135427 -0.01089961 -0.054768346 -0.57250744 -0.04845694 0.75891554 -0.18087482 -0.064787365 -0.17850034 0.19579354 -0.3145927 -0.07206534 -0.30588567 -0.2894432 -0.7884991 0.05170152 -0.044396367 -0.059426736 -0.20919111 -0.019263756 -0.2402507 -0.20655957 0.67130566 0.29736063 0.19075485 0.0760215 0.13907559 0.7221433 1.0305158 -0.6555095 0.74812156 -0.2161305 -0.17099872 -0.25564432 0.13834551 -0.07540393 -0.2442236 -0.042445093 -0.29640278 -0.33191353 0.44180137 0.018689938 -0.22658232 0.33937716 0.6574791 0.25273913 -0.16300754 0.6251922 -0.1260083 -0.009634146 0.10202551 0.2884383 0.29101685 0.364963 0.22112285 0.1442383 -0.08044514 0.29148877 -0.20121573 0.34819543 0.89634925 -0.30529308 -0.34971768 0.5339535 -0.6092786 -0.07159489 -0.23571004 -0.20396839 0.79799885 -0.27731487 0.2718753 0.4768919 -0.10545846 0.39275682 -0.112605534 -0.8952027 -0.38777483 -0.5613213 0.35424426 0.20227754 -0.18944708 0.041924037 0.2901185 0.6405503
?ATB708 -0.07625455 -0.069464795 0.17461222 -0.015924798 0.78037816 -0.14828093 0.0756853 -0.10699502 0.19616333 0.35946617 -0.33442864 -0.63807446 0.7712829 -0.42422202 0.22475919 0.067083985 0.023542728 0.49670777 -0.046784095 -0.29069668 -0.58325315 -0.16567478 -0.19918717 0.010234479 -0.4223678 -0.6793583 0.22686411 0.15758127 0.9557585 -0.121073954 0.21278109 0.4996238 0.35374722 0.69247544 0.2454544 0.13530843 0.3610728 0.21098202 -0.0035313817 0.11445375 -0.14352371 -0.31611747 -0.597452 0.24293402 -0.23584703 -0.15753317 -0.074590534 -0.5084094 0.15689017 0.53083706 -0.35340074 0.15576702 -0.11708286 0.338651 -0.64765036 -0.051431842 -0.15102033 -0.17947645 -0.5563418 0.2257732 -0.025219386 -0.5304056 0.08032378 0.025202228 -0.5472012 -0.4343298 0.6628575 0.21032716 -0.08810819 0.15411828 0.12228574 0.5606575 0.97022235 -0.52338064 0.9447147 -0.30368564 0.025792196 -0.21551119 0.119297355 -0.2567276 -0.12377406 -0.11974891 -0.2002294 -0.37335476 0.42552033 0.030508744 -0.20597413 0.42853415 0.55076426 0.4038288 -0.35746884 0.578506 -0.028378246 -0.39253703 0.081189275 0.17653239 -0.10546564 0.4258675 0.2625718 0.11390316 -0.24625574 0.41684997 -0.16860792 0.42300105 0.93693113 -0.29626995 -0.54154813 0.64331686 -0.8522766 -0.36485934 -0.18298957 -0.30355716 0.51513326 -0.126755 0.5434072 0.7156166 -0.053830355 0.1297673 -0.12026726 -0.70821977 -0.5623144 -0.6814251 0.20735522 0.4514973 -0.26184627 0.10765861 -0.053045645 0.64310753
?AT0008 0.04325703 0.05043172 -0.2971366 0.05618247 -0.4707896 -0.4062288 0.2346084 -0.59847265 0.17451426 0.25502676 -0.0597569 -0.3914109 0.2118988 0.0012674939 0.031896666 -0.069674514 0.078349486 0.37332383 -0.45888537 -0.028305614 0.52042776 -0.05573986 0.0033737784 0.010785947 -0.3051659 0.055202965 -0.32464123 -0.5875105 -0.23333243 0.15019639 -0.22610044 0.3062362 0.27030367 0.58948386 0.47788236 -0.14320211 -0.28499484 0.4419411 -0.6119262 0.16490035 0.5487506 0.2579638 -0.08469917 0.2112072 -0.039906807 0.46367994 0.12974657 -0.10845227 0.59172386 0.6619284 -0.27600726 -0.4381504 -0.07022876 -0.36645073 -0.50444263 0.04572401 -0.9184126 -0.51987 -0.7401723 0.52966356 -1.2712815 0.12954204 0.3184151 -0.12306253 0.3443314 -0.13744733 -0.028074676 0.6791105 0.34937865 -0.012068159 0.28765056 0.59477466 -0.05636405 -0.8361197 0.91138285 -0.7954053 -0.78160834 -0.294776 0.40004167 0.45056334 0.049049873 -0.28647688 0.8156407 -0.6158098 0.21498103 -0.6881652 -0.45777702 -0.047881786 -0.5147835 0.060258318 0.45184526 0.09438061 -0.24808322 0.4190153 1.3813863 0.30473855 -0.032276675 0.378657 -0.14512645 0.4568451 0.6082588 -0.09986277 0.11740845 0.50745755 0.45919776 -0.17476785 -0.32289794 0.37973076 0.20006192 0.28678647 0.6718107 0.4637013 -0.075293645 -0.7257091 -0.6010016 0.080494724 -0.18842351 -0.504909 -0.5135037 -0.41535497 -0.20813157 -0.09020736 -0.037476677 -0.5446243 -0.16381933 0.5020645 -0.44330594 0.12327595
?ATB071 0.14742881 0.09165434 -0.38312697 0.06494309 -0.5080742 -0.2562872 0.18271154 -0.52939516 0.08454787 0.18735693 -0.2713304 -0.3347432 0.3005682 -0.19577946 0.17747027 0.12702213 0.015495685 0.36940074 -0.4814166 -0.105364755 0.6331746 -0.076888524 -0.13591641 0.20993063 -0.3595345 0.06413396 -0.43562385 -0.5500723 -0.17005382 0.13166 -0.17954716 0.41403952 0.12390395 0.5978888 0.4217866 0.009090194 -0.26313403 0.74536693 -0.5511022 0.42237192 0.39817056 0.3618283 -0.12203161 0.29827505 -0.18247183 0.4034763 0.29047585 -0.18597613 0.61960137 0.644578 -0.25043806 -0.36631754 -0.14914116 -0.14327078 -0.458723 0.18473011 -1.0141666 -0.5979785 -0.8066493 0.47442505 -1.3336594 0.10065938 0.512083 -0.11885702 0.30226603 -0.06398158 -0.06683257 0.78601104 0.222795 0.039079554 0.17951892 0.7229272 0.00060167845 -0.8397225 0.7906078 -0.93225294 -0.7078681 -0.40968752 0.2665397 0.37988842 -0.010549888 -0.19787507 0.8151796 -0.6315746 0.18898056 -0.59061444 -0.6844952 -0.05096337 -0.28015205 0.20258316 0.601188 -0.029635483 -0.32640293 0.39613006 1.5313084 0.25259644 -0.27517402 0.35342133 0.0933704 0.4263821 0.49777204 0.008887758 0.053630244 0.6979965 0.47358996 -0.19420426 -0.44005802 0.5165353 0.32642773 0.29569265 0.7027188 0.51596755 -0.2506306 -0.55311805 -0.7101298 0.15260503 -0.11619105 -0.5416628 -0.51367444 -0.4061207 -0.044013057 0.06568549 -0.10861791 -0.60049707 -0.15109858 0.61739355 -0.26376724 0.07350123
?ATA767 -0.11661767 -0.10771457 -0.0698287 0.16106841 -0.4085712 -0.3807041 0.054745454 -0.63016284 -0.025291374 0.39757177 -0.030872582 -0.42927322 0.37393415 -0.17058736 0.118697055 -0.0028643522 0.2431536 0.40424675 -0.23954265 0.120191894 0.38227814 -0.18332453 -0.021770526 0.052085795 -0.36311528 -0.01214861 -0.28749838 -0.53342927 -0.051135298 0.23395735 -0.32699123 0.15913896 0.21705468 0.391389 0.52787435 -0.1175445 -0.134403 0.05954594 -0.5615876 -0.10450504 0.39472336 -0.011429322 0.010531856 0.23880216 -0.12667365 0.48885897 0.12456989 0.12665397 0.44906124 0.62143683 -0.17416787 -0.29399148 0.17524558 -0.2022821 -0.53006744 0.012416825 -0.68106157 -0.46231773 -0.5762031 0.56310755 -1.1804101 0.28321227 0.09923155 -0.075594105 0.28987348 -0.26748812 -0.09005392 0.50222987 0.4147167 0.015541469 0.09978049 0.56973 -0.07772585 -0.7309684 0.92016226 -0.66419345 -0.75137186 -0.29910758 0.33516204 0.28750533 0.089677915 -0.1230726 0.77696997 -0.4055067 0.19884785 -0.33281597 -0.2625346 -0.24041209 -0.76369715 0.12780851 0.24458405 0.22572742 0.04619035 0.25817254 1.0302912 0.18070595 0.024291497 0.17958897 -0.25408816 0.47069746 0.6532602 -0.027699305 0.19064258 0.4362666 0.35186616 -0.18484981 -0.31182307 0.13980608 0.004586165 0.28182554 0.55959547 0.30131733 -0.05338855 -0.7874813 -0.33358395 -0.18617748 -0.2302173 -0.5135085 -0.60570455 -0.32207102 -0.30717427 -0.119653255 0.02371367 -0.55686337 -0.2343041 0.41617242 -0.40185514 0.16252045
?AT0010 -0.23401219 0.08699158 -0.27866006 -0.13226202 0.3821979 -0.07814662 -0.06518825 -0.34384397 0.29108208 0.5205764 -0.023316527 0.087140225 0.092027344 0.11516755 -0.30236262 0.20367794 0.27665412 0.42991933 0.09334293 -0.52741957 -0.19752729 -0.46809012 0.080143 0.10172544 -0.27478394 -0.28960946 0.09678279 -0.81557125 0.34722498 -0.45002624 0.055103697 -0.22166601 -0.55015874 0.7530525 0.32421947 0.089917205 0.12271561 -0.39547965 -0.022708183 -0.3003734 -0.3844825 -0.41532615 -0.63958853 -0.14393003 0.3446548 -0.47167316 -0.30651268 0.4115376 -0.42498958 0.6629 -0.15656477 0.36049768 -0.82237893 -0.43885645 -0.19893254 -0.06132201 -0.61355346 0.11784509 -0.117562555 -0.6406853 -0.45360798 -0.33944002 0.45782325 0.19749719 0.19309942 -0.40084246 0.12986065 0.04591886 -0.61971045 0.13789988 0.8715443 0.30693454 0.60565144 0.09581252 0.30555367 -0.20542571 -0.2960872 0.16477099 0.33998522 -0.08690173 -0.096343935 -0.8631043 -0.27229482 0.03905816 0.16497292 0.04138433 0.16643836 0.3134129 0.060851954 -0.10824392 -0.083395176 0.024260433 -0.32330522 0.5814839 0.07236455 -0.030341187 0.14891507 0.5020331 -0.2128457 -0.9963575 0.20204069 0.048876155 -0.64594615 0.3705397 0.6137731 0.13345091 -0.49449822 0.18282115 0.011844467 0.25090146 -0.17251998 0.7830591 0.26130834 -0.25512317 0.30618057 -0.12775157 0.55615324 0.35108444 -0.24365583 -0.5037959 -0.72985125 -0.45490894 0.15195107 -0.52705854 -0.0946703 0.3994375 -0.4775086 0.3664576
?AT0507 -0.05371473 0.09043533 -0.118661806 -0.045898788 0.39723143 -0.23180577 0.052638583 -0.29435816 0.11975725 0.350933 0.14230043 0.27161595 0.2563456 0.30642456 -0.12538084 0.09714423 0.47283626 0.31435218 0.35078266 -0.401748 -0.2966539 -0.5914226 -0.12601791 -0.0031569595 -0.6899998 -0.33728346 0.12522924 -0.8732773 0.30604088 -0.6201202 0.056350082 -0.2585303 -0.43841052 0.36524728 -0.19461377 0.20737416 -0.35441527 -0.2647764 -0.1269631 -0.42836133 -0.23383695 -0.5374838 -0.70765096 -0.35631484 0.10772225 -0.26852176 -0.5251794 0.19419543 -0.1170174 0.90881616 -0.1149651 0.2874416 -0.41977504 -0.31978944 -0.25395286 0.024130514 -0.5801503 0.21424915 -0.24486585 -0.69645894 -0.52178264 -0.5883699 0.6285753 0.44120884 0.035163593 -0.5933763 0.30707306 0.42802307 -0.8998513 -0.14840873 0.906479 0.29970583 0.61069626 0.15141958 0.4175528 -0.3308168 -0.23350176 0.1085341 0.34683886 -0.12896226 -0.25993598 -0.94516736 -0.31544942 -0.0089601865 0.043519452 -0.070368946 0.026963469 0.069293484 0.22879168 -0.076881625 -0.23518558 -0.111903995 -0.61183906 0.58122194 -0.02198147 -0.07183069 -0.003521084 0.16622968 0.119505756 -0.8815562 0.07627351 0.28638536 -0.16725107 0.4079028 0.3568707 0.09783151 -0.512628 0.14955635 0.08100958 0.0011936439 -0.26575005 0.92866784 0.2442072 -0.028109657 0.2024208 0.072468385 0.47803658 0.24958402 -0.21461138 -0.5605258 -0.8168868 -0.71938145 0.30345792 -0.3701931 -0.11460046 0.61301804 -0.17507707 0.41187552
?ATC367 0.08738923 -0.31762636 -0.16382116 0.15028551 0.3894568 -0.04532499 0.0514415 -0.3829429 0.08884878 0.38132834 -0.08280813 -0.08533617 0.069819085 0.03567038 0.15526554 -0.0064845835 0.13574435 0.33117747 0.14870109 -0.31474376 0.038674723 -0.5234628 -0.27177492 -0.16090171 -0.7210505 -0.2982046 0.18663886 -0.71485496 0.5861202 -0.6032684 -0.21518837 -0.08839817 -0.33032203 0.458939 0.12170891 0.016536286 -0.17665741 -0.33243296 0.14307512 -0.6524103 -0.10546838 -0.41454014 -0.28102234 0.15071067 -0.17021741 -0.20080811 -0.6884847 0.47557402 -0.56412876 0.89844555 0.041853 0.3791826 -0.6106364 -0.3703086 0.023028182 -0.19747531 -0.36608696 0.03020876 0.1391492 -0.38677475 -0.5778356 -0.58753735 -0.039150972 0.4136912 0.3248087 -0.32793587 0.17577071 0.30639485 -0.6351659 -0.046716157 0.45118895 0.24482504 0.41426462 0.29518056 0.56399995 -0.028764471 -0.07614852 0.14595135 0.46939275 -0.04580265 -0.13250853 -0.86469805 -0.15740222 -0.0883998 0.36346576 0.069247894 0.43267873 0.28748944 0.3848969 0.019694801 -0.0006057042 0.28249732 -0.61188316 0.36445448 0.1208892 0.20232624 -0.037187316 0.23332784 0.13800983 -0.8644417 -0.07075908 0.03614823 -0.2662736 0.62074226 0.42699072 0.4079594 -0.2690688 0.060846128 -0.019645588 0.2446159 -0.10604641 0.6986173 0.11397751 -0.067016885 0.38297114 0.21906614 0.20351729 0.093057476 -0.07389724 -0.5619103 -0.7994317 -0.5491686 -0.01805116 -0.57215947 -0.102233745 0.4306498 -0.17458388 0.41295585
?AT9633 -0.5469593 0.29742664 -0.53199327 -0.17245494 0.3030084 -0.1211537 1.4940608e-05 -0.16995828 0.2881171 0.3090559 -0.16667497 -0.0961619 0.116128825 0.064054385 -0.5593382 0.23742385 -0.16833334 0.47069463 -0.2135378 -0.34487164 0.005678087 -0.09159443 0.3091887 0.56696033 0.06480247 -0.4810774 0.18249756 -0.48034877 0.18507919 -0.13054389 -0.1378601 -0.26535827 -0.52863723 0.8364199 0.72365975 0.12006295 0.005352876 -0.23627684 -0.11455295 0.18737613 -0.23100442 -0.47473675 -0.73059356 -0.28004935 0.3599333 -0.332316 -0.0002216734 0.22038695 -0.5224257 0.16920446 -0.082257755 0.3048478 -1.0455948 -0.40528855 -0.19422702 0.2743839 -0.60830224 0.36177304 -0.057696152 -0.5835434 -0.42520043 -0.24128333 0.56932616 -0.20206979 0.045825496 -0.09942405 -0.04872543 -0.18834232 -0.02496863 0.31937522 0.36752176 0.1294023 0.28409117 0.15672639 0.0646774 -0.39014244 0.025671689 -0.2608949 0.32076672 0.025417205 -0.28857478 -0.39196628 -0.49394256 0.14827701 0.15141231 0.12084151 -0.18487507 0.087534584 0.026545085 0.060236868 0.025698083 -0.26818004 -0.1905075 0.5833604 -0.12252207 -0.07274571 0.06457562 0.5745934 -0.38774303 -0.58556354 0.37523422 0.19877163 -0.70354384 0.014649087 0.7026337 0.37418413 -0.5158606 0.11388201 0.06617325 0.3445501 -0.01789885 0.25859118 0.2976262 -0.5211277 0.17116451 -0.23769291 0.4923678 0.41849777 -0.22251867 -0.22896965 -0.5471442 -0.27238885 -0.08388436 -0.24682115 -0.019056331 0.14351153 -0.82395285 0.44746837
?AT0019 -0.6159578 -0.044147395 0.47317165 0.61197335 -0.47896466 0.22775277 -0.31282696 -0.77956796 -0.34310263 -0.055206653 -0.1583006 0.41548866 0.077070616 -0.52848804 -0.18136814 0.40163708 -0.54159445 0.0074355938 -0.16695678 -0.4604764 0.5618521 -0.47315452 -0.21480599 0.5261379 0.09648093 -0.66984236 -0.0732749 -0.009278292 0.52278495 -0.22981416 -0.15276311 -0.29236984 0.086313516 0.00044800478 0.047571678 0.16630416 -0.2890406 0.19832471 0.21245709 0.022856127 0.3310869 0.2573989 -0.26869947 0.08463367 0.15014116 -0.027202733 -0.24618568 -0.6661532 -0.16751729 0.3094719 0.2679746 0.059870224 -0.39544305 -0.2967861 -0.010411054 0.022480017 0.24425736 -0.15170829 0.48451972 -0.1764344 -0.3205814 -0.15538116 -0.0581603 0.20462243 0.011062609 -0.09191248 -0.32347855 0.37312484 -0.1595736 -0.039755575 0.058498345 0.3575143 -0.13081393 -0.5411702 0.7287594 -0.5075104 -0.368041 -0.69749504 -0.069594525 -0.7564593 -0.7638734 0.73350465 0.19340743 -0.69395167 0.1743795 -0.34753588 -0.094164595 0.09739682 -0.28611928 0.43071952 -0.14430575 -0.4987156 -0.050117973 0.31545573 0.5950526 0.2555736 -0.06682915 0.21518467 -0.09914415 0.036179576 -0.18272196 0.25679445 -0.31325287 0.13700196 0.5288293 -0.19288573 -0.59069103 -0.45533347 0.21150552 -0.31985685 0.5631467 -0.02931676 -0.12797585 -0.3706386 0.63172585 -0.29034272 0.053199705 -0.40411228 0.70786685 -0.44692743 0.10869441 -0.062763765 -0.69372255 0.36415195 0.3406026 0.29786924 -0.27310953 0.16515657
?AT2989 -0.9214709 0.1035139 0.4768649 0.38272017 -0.23593117 0.12808071 -0.2329096 -0.9241877 -0.36020556 0.045214213 -0.44412458 0.17789023 0.1541966 -0.3824205 -0.13056889 0.3254927 -0.10029385 0.016788455 -0.11020842 -0.5691411 0.81882507 -0.32528043 0.018503435 0.26439723 -0.2882415 -0.60780376 0.15989293 0.048641298 0.25076944 -0.11196229 -0.03901425 -0.5785412 -0.048262745 0.34191594 0.29108 0.07563019 -0.14795312 0.29303136 0.1690335 0.38646546 0.360623 0.06851723 -0.054578055 0.04539129 0.30240715 0.16453856 -0.014809736 -0.55406666 0.15971154 0.36510444 -0.0050427937 0.20487083 -0.25055897 -0.47595045 0.0062492066 0.19093865 -0.105485305 -0.18468879 0.1461875 0.12913774 -0.48784778 -0.22520182 0.2586271 0.23520428 -0.1749932 0.0065470226 -0.48755288 0.30810475 -0.31015646 0.17229614 0.32805702 0.20294115 -0.079949796 -0.16110472 0.5197734 -0.21403469 -0.2921064 -0.60017455 -0.18154086 -0.5584931 -0.24160731 0.5939107 0.5488576 -0.4773385 -0.042776097 -0.30405924 -0.023001613 -0.09205549 -0.40433142 0.50862545 0.22450687 -0.14825979 -0.11517368 -0.025538385 0.72231466 0.16848798 0.037587166 0.19170527 0.10617452 -0.05904353 -0.42844304 0.31414995 -0.05675302 0.16788042 0.43335795 -0.016881028 -0.5219641 -0.3533819 -0.124295734 0.022743005 0.27437395 0.2091838 -0.22236712 -0.31820518 0.8222507 0.15072532 -0.08158778 -0.3665885 0.7581133 -0.3239501 0.027733594 -0.12603706 -0.7425626 0.18969832 0.1591787 0.25524628 -0.024517598 0.25827393
?AT8553 -0.064528495 0.115059905 0.32505685 0.7192525 -0.6167647 0.25252318 -0.06477354 -0.54775494 0.07170068 -0.16613428 -0.006793938 0.52547646 -0.13857873 -0.27174193 -0.107687406 0.16774024 -0.5908239 0.008334237 -0.14981969 -0.40926406 0.42129827 -0.43500328 -0.29194123 0.35908145 0.26368147 -0.4556824 -0.33179888 -0.071485475 0.4434612 0.12641235 -0.39222842 0.16363457 0.023755418 -0.10356684 0.28842667 0.3589858 -0.18407166 0.21339525 0.2603762 -0.15851745 0.070181385 0.1687857 -0.25621396 0.27742487 0.056104675 -0.23039255 -0.41356307 -0.4991078 -0.23009363 0.2366659 0.35191843 0.17044392 -0.48870775 -0.16434029 0.1788564 0.048558813 0.41502237 -0.043735977 0.63602215 -0.29150775 -0.2191545 -0.3381018 -0.25372848 0.31963632 0.033892773 0.009716853 -0.28858712 0.17813483 -0.09767081 -0.18303232 -0.15906122 0.44426206 0.20434915 -0.46907273 0.5627394 -0.68338645 -0.53794396 -0.46232086 0.12570079 -0.48225403 -0.75848323 0.54151815 0.15894476 -0.4959699 0.1387254 -0.44543412 -0.14349458 0.34909505 0.112729825 0.2657488 -0.261298 -0.44966456 -0.14391753 0.15805022 0.41393578 0.37930065 -0.16701373 0.13759555 -0.27650625 0.21205907 -0.15329048 0.06204843 -0.19904724 0.32257918 0.35346037 -0.33575904 -0.24733385 -0.25939816 0.35208878 -0.5109806 0.5364435 0.048905518 -0.059720874 -0.19104569 0.5399306 -0.52990216 -0.2266996 -0.40197703 0.40586385 -0.5705588 0.0147632705 -0.09792739 -0.5256954 0.373399 0.2903548 0.36756396 -0.3704932 0.04096463
?AT0028 0.6345831 -0.13936801 0.27286324 0.4813155 0.26515645 -0.07029841 -0.13144659 0.45052627 0.27266052 0.73916394 -0.32940754 0.19338195 0.08844149 -0.10615244 -0.31625253 -0.49843544 0.006967461 0.24696262 -0.027677497 -0.033019606 -0.044946335 0.40275347 -0.19450009 0.08907501 -0.28121665 0.27882883 -0.049124874 -0.4172833 0.4390699 0.09381971 0.034320816 -0.3547437 -0.1921581 1.0858004 -0.42012522 -0.15231806 -0.08139812 0.36297834 0.42588675 0.6293937 -0.5817619 0.2889304 -0.8453256 0.39622006 -0.3358909 0.55608696 0.16288061 -0.46507806 -0.31881973 0.26375926 0.14468308 0.217122 -0.8514688 0.38802186 0.14341493 0.28202012 -0.32670024 0.1536933 -0.1246041 0.43326306 -0.493899 -0.18406852 -0.4484678 0.7230821 -0.262251 0.4127395 0.32482755 0.23717394 -0.24116975 -0.12476456 0.120103635 -0.042414717 0.36140373 -0.38136065 0.84234214 -0.16214749 -0.11621899 0.26193726 -0.39171544 -0.25491476 0.02211528 -0.5369529 0.38799056 -0.24599187 0.60003763 0.60658437 -0.74194455 0.15005727 0.32293963 -0.2322234 0.2073212 -0.60789543 0.016354194 0.12494421 0.36506048 0.43905887 0.019227995 0.18504177 0.4680937 -0.059609044 0.19550666 -0.18944122 -0.04318529 -0.11639468 0.30311486 0.48179436 -0.0026407593 -0.47831264 0.07884467 -0.33225822 0.3283889 0.30203795 0.79380167 -0.50679356 0.42440304 -0.41187367 -0.29863054 -0.051611353 -0.025068928 -0.3002596 0.5199475 -0.035470065 0.6620999 -0.30752933 0.089287564 -0.67070526 -0.6455915 0.20822483
?AT2883 0.5869395 -0.24715978 0.44603527 0.7118261 0.19554673 0.107050814 -0.30406857 0.50790876 -0.036869913 0.86497736 -0.4267875 0.17329489 0.3281327 -0.20749097 -0.67562306 -0.4328604 0.1868995 0.3743285 -0.026241621 0.13829857 0.26225245 0.27672136 0.122484274 -0.26836696 -0.24556088 0.19778341 -0.043059196 -0.5136023 0.17252418 0.5243635 0.020307986 0.14939271 -0.05853466 0.91868055 -0.17737888 -0.25021785 -0.32879108 0.9410661 0.5438107 0.7675162 -0.64002806 0.22893623 -1.0684955 0.3380605 -0.53579277 0.31755835 0.159008 -0.5245831 -0.6290144 0.21980822 0.2674096 0.016714485 -0.8817361 0.44271958 -0.14545204 0.4722465 -0.49910647 0.30162993 -0.31001183 0.63708395 -0.470084 0.00094459753 -0.23264584 0.6382255 -0.3399662 0.34174454 0.33957028 0.18938798 -0.568589 0.07317186 0.4915646 -0.22883312 0.53790444 -0.10643348 0.8287842 -0.21977006 -0.16249895 0.17874324 -0.32490915 -0.18891084 -0.31458452 -0.45820916 0.2537008 -0.21735795 0.64654315 0.6644311 -0.71662974 0.14683783 0.4221283 -0.35318482 -0.1939542 -0.5394088 0.026223993 0.24870107 0.4218317 0.40872464 -0.032571618 0.013856173 0.6947537 -0.03419382 0.3029053 0.073170915 0.12370752 0.074274756 0.51724404 0.39815277 0.014294252 -0.5214631 0.024817465 -0.22661714 0.5414833 0.26176012 0.68027264 -0.20013165 -0.10920928 -0.43728653 -0.4843698 0.09766067 0.33454347 0.12700443 0.21808238 -0.0021754869 0.8219517 -0.15975748 -0.08633398 -0.7533453 -0.62579024 0.56514055
?AT0084 0.56490433 0.11613602 0.32276747 0.3520399 0.22048339 -0.12871514 -0.16179916 0.28399754 0.16018425 0.3778974 -0.5192315 -0.1079136 0.057910472 -0.07594797 -0.10569665 -0.6007783 -0.15946855 -0.08832853 -0.027040701 0.07844574 -0.1259297 0.49846837 -0.21225438 -0.43105796 -0.03192231 0.28795505 -0.010093763 -0.20269819 0.6801903 0.22575684 0.2303987 -0.4774326 -0.13193403 1.0421383 -0.5237849 0.0028712824 0.09431969 0.14064215 0.49907753 0.1944259 -0.6653747 0.56100297 -0.7833663 0.4469958 -0.33215293 0.39732394 0.10872907 -0.60237473 -0.122449376 0.29201156 -0.19309446 0.5150201 -0.8245158 0.24889487 -0.034499444 0.24024406 -0.28105074 0.12934351 -0.19409434 0.55671126 -0.46499515 -0.58021533 -0.70621365 0.57977164 -0.05069429 0.2822979 0.29518312 0.17611763 -0.15619302 -0.35802564 0.16265744 0.19097614 0.75909114 -0.38064942 0.79721063 -0.21209863 -0.11202843 0.36658314 -0.55478686 -0.36561358 -0.14922324 -0.22135854 0.38509005 -0.24340406 0.2627837 0.81284577 -0.633268 -0.10589564 0.40442923 -0.36291414 0.61808485 -0.3088556 -0.21819527 0.29914168 0.59614027 0.38409805 -0.0037505578 0.26828375 0.25794896 -0.062425606 0.15767634 -0.2997896 -0.0023289043 -0.040809482 0.6186164 0.51470625 -0.22583817 -0.303324 0.05845305 -0.25831738 0.45142892 0.09102716 0.8558323 -0.79115885 0.47744408 -0.4982904 -0.12687606 0.2612421 -0.042408843 -0.16223063 0.33713603 0.024388691 0.6254957 -0.31914154 -0.17413004 -0.3468356 -0.6817919 -0.06470831
?AT1838 0.46716115 -0.24499051 -0.1768972 0.47767338 0.5158852 -0.089521214 0.26416674 0.33444127 0.5454963 0.91534877 -0.44357356 0.12653504 0.34782603 0.08070375 -0.2973308 -0.40905964 0.10939735 0.3425959 0.32080632 -0.10589713 -0.12073789 0.038849846 -0.25281993 0.27984956 -0.4117071 0.41987813 0.2616524 -0.24953723 0.46115732 -0.26420307 -0.37164453 -0.061462108 -0.22200932 0.8452193 -0.100865915 0.044144846 -0.47063982 0.036907952 0.32318303 0.39523286 -0.2204193 0.10160668 -0.69691056 0.04127244 0.01420378 0.8687414 0.09565303 -0.18483533 -0.06702036 0.06704184 -0.048268553 0.1294487 -0.47867927 0.31827208 0.13453089 0.18125814 -0.3093196 0.14554378 0.12261828 0.36826622 -0.4261089 -0.26041818 -0.38237 0.65876716 -0.16408052 0.32637614 0.1926023 0.1731392 -0.2640183 -0.07700885 0.16999215 -0.08758467 0.10071053 -0.3937185 0.5219262 -0.039143972 0.07559152 0.41547412 -0.3018802 -0.437211 0.28932232 -0.5070808 0.54779017 -0.103879176 0.57084477 0.1318613 -0.66292965 0.14302424 0.1649048 -0.10745825 0.14229012 -0.68021375 0.2174748 0.2822171 0.40784472 0.53525823 0.038515657 0.15194815 0.62442166 0.07341726 0.20702003 0.058463953 -0.1604299 -0.21596506 0.2863547 0.30751294 -0.15580918 -0.40026546 -0.0035228895 -0.25736907 -0.10003379 0.41634893 0.11758402 -0.18250309 0.5455356 -0.37509346 -0.4164162 -0.16384743 0.009976446 -0.28915292 0.5149742 0.24044442 0.35175025 -0.44241866 0.1948125 -0.43777323 -0.818733 -0.26658592
?ATC060 0.5261023 0.2428668 -0.03422793 0.6341831 0.41104585 -0.16622582 0.2727046 0.44668752 0.10253747 0.8744312 -0.6134124 0.3819528 0.108593516 -0.3877414 -0.2999637 -0.58414835 0.28415188 0.13498245 0.06482182 0.019771725 -0.014334059 -0.13159774 -0.20199499 0.38912866 -0.19389786 0.26680365 -0.07435586 -0.33644906 0.20633458 -0.15712221 0.09335595 0.0059158946 -0.39873782 0.7299607 -0.36770135 -0.023577886 -0.32982025 -0.035151713 0.32624328 0.789382 -0.36879528 0.2864776 -0.70274335 0.10584458 -0.13927242 0.52153176 -0.02700431 -0.013129654 -0.16210917 0.55629104 0.67679524 0.17182617 -0.965824 0.189782 0.045187794 0.22461537 -0.34940967 -0.0010396473 0.05468592 0.06717437 -0.13909288 -0.40651596 -0.32740274 0.5765449 0.02719442 0.43296945 0.044847727 -0.0059934827 0.081054375 -0.36111388 0.18672323 -0.42779717 0.2257748 -0.34623882 0.84488434 -0.37089434 -0.18653874 0.14477742 -0.047462773 -0.0092827575 0.31390864 -0.45434657 0.5187518 -0.27822354 0.3738842 0.48914742 -0.23164874 0.052821573 0.1776079 0.2521225 0.39049104 -0.39098853 0.21318123 0.42527014 0.3020516 0.49143702 0.16277969 -0.017732617 0.2519518 -0.09058362 0.17668648 -0.28324398 0.1642562 -0.027838316 0.18510243 0.051721774 -0.104966134 -0.22943036 -0.020324431 -0.060195077 -0.07458852 0.39686078 0.7204739 -0.32043374 0.5990902 -0.21077226 -0.14832926 -0.13680945 -0.3239912 -0.5181862 0.6004183 -0.17956285 0.77851987 -0.2121833 0.061041754 -0.76395696 -0.46453544 0.034652017
?AT0037 -0.6660901 0.005733009 0.060292743 0.4182115 -0.4973758 0.13572246 -0.22427076 0.15499182 0.18765455 0.49750975 -0.2671971 0.04750348 0.26786524 -0.36137825 0.15276672 -0.2841691 -0.023803152 0.1829113 -0.55961895 0.31866232 0.08664947 0.23647538 -0.0040992512 -0.23072895 -0.18106921 -1.091056 -0.60503685 -0.39085278 0.18275009 -0.435655 0.10742926 0.16394658 -0.61531204 0.09240891 0.15255673 0.06760231 -0.7140745 0.93483204 0.12018928 0.5272146 -0.31850845 0.12272829 -0.5240612 0.12466938 -0.57155645 0.6975711 0.37315857 0.17280161 0.23847857 -0.15316792 0.19081931 -0.2598795 -0.57260513 0.5196136 -0.436286 0.2977899 -0.4632867 0.23870853 -0.6083982 0.16053073 -0.5426848 0.26891604 0.08297615 0.73330086 0.14382313 -0.4984638 0.03887569 0.44882864 0.14680019 0.13918108 0.6096196 0.41934043 0.6556999 -0.2721607 0.114711754 -0.34360203 0.495882 0.4402808 -0.15824309 0.38591725 -0.25297803 -0.21707541 0.2916547 -0.18062091 0.061571747 0.1418994 -0.33581772 -0.23340957 0.75527 0.5254723 -0.053834975 -0.053871226 0.38682127 -0.2265917 0.25191706 0.20886493 -0.3503633 -0.11369361 -0.36780205 0.2708078 1.0422027 0.2538626 0.021208575 0.2443274 -0.19642024 0.40720263 0.089596346 0.017102137 0.3464746 -0.64949137 0.8001737 0.1583588 1.2373817 -0.26423687 -0.15704532 0.32207373 -0.8333109 0.0872001 0.66451025 -0.12340173 0.08446086 -0.23824474 0.7076287 0.29920402 -0.3958279 0.43876332 -0.27363023 1.2354014
?AT4134 -0.46596706 -0.31113872 0.003000345 0.33145237 -0.36950848 -0.014969958 0.049420483 -0.09953303 0.19488168 0.3428469 -0.33865395 -0.11046062 -0.10942229 -0.36968166 0.023097442 -0.6392251 0.33951595 0.2437399 -0.49584585 -0.20507438 -0.18988475 -0.20806028 -0.008218268 -0.15685385 -0.14741367 -1.0245472 -0.39686248 -0.55644286 0.40665147 -0.25741115 0.19783059 0.23511237 -0.6114899 0.30102012 -0.10058185 -0.119228706 -0.96619356 0.8153107 0.35154557 0.18489614 -0.28885972 0.17523429 -0.65885764 -0.104104854 -0.61002743 0.87121814 0.32401097 -0.083114825 0.30591923 0.12693903 0.25566387 0.021000378 -0.44354972 0.37195307 -0.6190844 0.6912438 -0.7370977 0.15767477 -0.45910954 0.014166176 0.049575668 0.029628249 0.08117741 0.5874834 0.10727157 -0.25142533 0.056160025 0.6234275 0.009473329 0.4281034 0.3741848 0.6395235 0.6208047 -0.63566643 0.07035138 -0.42249894 0.4345097 0.43083254 -0.24254483 0.51267475 -0.029569035 0.23053986 0.33536416 -0.27207786 0.07144301 0.40318307 -0.5072429 -0.07395421 0.57896817 0.4967676 0.04862084 -0.11178118 0.29920903 -0.17408107 0.3102052 0.06453027 -0.27524185 0.39988965 -0.25770903 0.60832125 0.7687899 0.04303044 0.19960298 0.049293157 -0.09461725 0.17408995 0.04192932 0.1941813 0.17775013 -0.358721 0.6011726 0.3129976 0.840585 -0.5773349 -0.09265032 0.1392311 -0.8169242 0.4077093 0.45525455 -0.35756364 0.41962126 -0.24652223 0.8294331 0.44320592 -0.10240893 0.35967177 0.034866616 1.19647
?AT4057 -0.23815888 0.35277405 -0.19347557 0.3953468 -0.5257749 0.21894436 -0.13331686 0.14806491 0.31387845 0.5281599 -0.111676514 0.018223738 0.62741995 -0.56300265 0.0933678 -0.023457747 -0.32749057 0.52871567 -0.2408434 0.49391395 0.0847925 0.25710472 -0.13240184 -0.16396008 -0.22601451 -0.79597294 -0.5179378 -0.44101268 0.053837113 -0.6030599 0.0028312106 0.10921781 -0.50605905 0.113024905 -0.073222056 0.32228845 -0.41809884 0.91243106 0.16424057 0.36480778 -0.029049251 -0.032018416 -0.24270587 0.20905074 -0.38218614 0.41330692 0.3305287 0.14948922 0.1708275 -0.10458717 0.19520074 -0.37919217 -0.46311003 0.85303843 -0.2497993 0.20906621 -0.39662492 0.26468885 -0.60019666 0.40432122 -0.47143468 0.15910259 -0.19965264 0.84152484 0.056158744 -0.43002462 -0.26046926 0.7175757 -0.047502156 0.0025920563 0.7445235 0.19435541 0.47233227 -0.22948213 0.19168241 -0.2218206 0.3716244 0.24935724 -0.491438 0.17642184 -0.40007484 -0.4076226 0.1672177 -0.28385517 0.06023571 -0.052742217 -0.12711167 -0.18681669 0.43246073 0.24301255 -0.35215572 -0.13130587 0.14918469 -0.36713427 0.025781104 0.3900905 -0.27960047 -0.405146 -0.35727233 0.30822203 1.0219345 0.5027318 -0.30228883 0.34240505 -0.50604105 0.32862782 0.18185681 -0.13861535 0.40725172 -0.48882306 0.79170895 -0.019594623 1.2824323 -0.27877206 -0.2993001 0.16945234 -0.8731533 -0.07494699 0.5103524 0.03191626 0.062908545 -0.025183626 0.269284 0.005453852 -0.42542422 0.30623233 -0.13195427 0.8232221
?ATC112 -0.35163763 0.2713052 -0.11210731 0.61776763 -0.45666936 0.2185061 -0.26606503 0.14824085 0.26970574 0.6429833 -0.20356734 -0.37002373 0.4188792 -0.3250937 0.37742743 -0.063105375 -0.2570482 0.2827779 -0.4097908 0.61919117 0.29067776 0.47439837 -0.09173781 -0.2963796 -0.18804266 -1.0945088 -0.3766176 -0.48754865 -0.060315233 -0.7251034 0.004809122 0.2073935 -0.6279143 0.2577653 0.012317068 0.23398049 -0.3634723 0.8494525 0.12354682 0.43827403 -0.21853177 -0.064270034 -0.32758874 0.15325472 -0.25980285 0.5090831 0.28200477 0.22303665 0.23204724 -0.122517936 0.27107152 -0.37260953 -0.6544567 0.71640575 -0.23961385 0.4315756 -0.32488915 0.400724 -0.5279208 0.18108957 -0.5335429 0.37907863 0.012112098 0.80488914 0.06127851 -0.42259464 -0.12382079 0.4879728 -0.066311486 -0.1832722 0.67110914 0.16213933 0.41454804 -0.15200713 0.2242001 -0.25328955 0.35505068 0.35068682 -0.4379334 0.14710993 -0.6173541 -0.5078433 0.20667145 -0.041984595 -0.008240346 -0.016136296 -0.23412538 -0.19865781 0.58303404 0.38938698 -0.316282 -0.08563555 0.15066616 -0.25216204 0.14378753 0.34535185 -0.116357304 -0.28543124 -0.37812233 0.044538464 1.0003132 0.31593895 -0.0737847 0.385815 -0.28867316 0.3296919 0.30036336 0.11464917 0.61751455 -0.6582317 0.53727335 0.123873614 1.2318692 -0.31623414 -0.13349427 0.17852488 -0.53872937 -0.023410805 0.515945 -0.057460465 0.22989696 0.054315284 0.27068028 0.10851675 -0.43351918 0.23647311 0.029547922 1.065936
?ATC492 -0.43325144 0.10287153 0.09060214 0.32353228 -0.2539539 0.37056544 -0.3694517 0.57156676 0.055659976 0.53038234 -0.36727092 0.10927556 0.34550408 -0.12469403 -0.19082095 -0.23401581 -0.0043715234 0.36823747 -0.3510551 0.588135 0.28415805 0.3105172 -0.1537253 -0.31377625 -0.26813298 -0.8044127 -0.67489403 -0.5597239 -0.20367502 -0.3614971 -0.048281398 0.44514728 -0.27938512 -0.017459456 -0.02309772 0.08587362 -0.5691202 0.9553611 -0.06522869 0.41075236 -0.34680468 0.024758078 -0.2899621 0.41317973 -0.44779363 0.257498 0.33460894 0.10141817 -0.14015873 0.014248602 0.46350372 -0.62858963 -0.4365955 0.5517783 -0.32790822 0.3520254 -0.30284274 0.14339827 -0.61912996 0.5272591 -0.6161208 0.19886062 -0.010155834 0.5404633 -0.11917366 -0.270345 -0.33606872 0.3805471 -0.26319557 -0.108361356 0.66165155 0.29244035 0.6319125 -0.15504643 0.06758161 -0.11369853 0.22284348 0.22367764 -0.050644558 0.011549817 -0.43925115 -0.23707093 0.031111538 -0.34365982 0.13063592 0.07113599 -0.43518144 -0.3230393 0.40662944 0.26810268 -0.5883427 -0.28102726 0.37283888 -0.25346893 0.28454876 0.28477424 -0.44760364 -0.5161485 -0.055862132 0.51172584 1.0298326 0.49066076 -0.18353961 0.58462864 -0.017220825 0.5871585 -0.07778641 -0.12989058 0.1867693 -0.52834797 0.70973456 0.16197808 1.4347624 -0.15732321 -0.30241615 -0.06329749 -0.7945774 0.0007646042 0.6512889 0.032358978 -0.12805706 0.055447124 0.4798619 -0.04569228 -0.07570859 0.25978434 -0.16015776 0.73190284
?AT8170 -0.40472326 -0.07578099 0.2197912 0.48801363 -0.6108742 0.08792623 -0.28717506 0.24088576 0.10989737 0.8028072 -0.21966113 -0.03643004 0.3001426 -0.479088 0.025417734 -0.41135785 -0.110805765 0.34007975 -0.54821056 0.2624028 0.13787898 0.39028227 -0.075483344 -0.26958123 -0.35786152 -1.0632024 -0.57336646 -0.58920103 0.29067582 -0.556252 -0.0047805025 0.3187816 -0.506356 0.34760296 0.032776717 0.1031443 -0.70703506 0.99710023 0.18755683 0.7148759 -0.6046918 0.1900569 -0.4039733 0.06560294 -0.59928775 0.66279376 0.33127347 -0.09438617 0.25849906 0.021651426 0.13929823 -0.4191719 -0.61600506 0.5791301 -0.48611054 0.105418414 -0.38212287 -0.008848756 -0.5661554 0.2636713 -0.5823223 0.25447592 -0.09215306 0.8696478 -0.11248486 -0.41760257 0.078290336 0.37313417 0.085771784 -0.011935699 0.7172367 0.4319644 0.60134286 -0.18350592 0.17484568 -0.34770536 0.46442434 0.36875358 -0.064195424 0.3619812 -0.52613246 -0.32088572 0.13557012 -0.3121331 -0.046813864 0.2799849 -0.41352028 -0.43949524 0.5773851 0.32648215 -0.10975469 0.046992622 0.20576358 -0.2348668 0.06996573 0.16290613 -0.24357156 -0.22773479 -0.3681366 0.4371072 1.0600691 0.17576447 0.09643373 0.47458085 -0.2656542 0.27471083 0.2566235 -0.0973754 0.1641684 -0.27417436 0.87971634 0.07507843 1.2978678 -0.2731308 -0.0116241025 0.33014497 -0.90083826 0.22505422 0.5671626 -0.3187756 0.019886058 -0.079300575 0.69412017 0.37197104 -0.31053764 0.20138301 -0.20795883 1.158474
?AT0038 -0.0065869777 0.46570924 -0.020364316 0.4676743 -0.13783513 0.025103645 0.69823605 -0.26082066 0.4584006 0.2011299 -0.7047712 -0.062795915 -0.26076454 -0.107252404 -0.3736434 0.018321062 0.1740252 -0.3064029 -0.3093037 -0.4182545 0.07072513 -0.0060598436 0.38748205 0.14597492 0.2360886 -0.34077138 0.048537076 0.30170125 0.22483051 -0.008338888 -0.19577698 0.35881934 0.3239289 0.44415468 0.20872624 0.09838979 -0.31258285 0.1871001 0.35151163 0.07930801 -0.12550938 -0.081421316 -0.74750805 0.04149466 0.1097782 0.33874226 -0.42723256 -0.51334727 -0.3095507 0.24461323 -0.0113854725 0.3471787 -0.50265706 0.34480616 -0.045563787 -0.2403329 0.28721666 -0.3151693 0.08797827 0.29527333 -0.50676256 0.030516297 0.04207829 0.121693484 -0.090969585 -0.4473765 0.11425444 -0.24771686 -0.03716913 -0.6056322 -0.022933826 0.49511427 0.1768786 -0.7093807 -0.11418728 -0.13498719 -0.50078815 0.011808398 0.18046686 -0.14237021 0.043166567 -0.0075343023 0.1888565 -0.21012743 0.06727966 0.015753616 -0.12076208 -0.08208628 0.06591182 0.24428698 -0.30181354 0.24909617 -0.39321312 0.09115761 0.56706214 0.38335297 0.18175969 0.14137241 0.20507453 0.1368249 0.8128531 0.2950944 0.23024598 -0.151956 0.67328763 -0.31053877 -0.0041656285 -0.14347139 -0.9430556 -0.29097918 0.61428386 0.189264 0.413922 0.042132176 0.51067823 -0.47682804 0.003994756 0.1570921 0.09030556 -0.029302644 0.6299693 -0.6798096 0.4869159 -0.46033904 0.42729434 -0.23498908 -0.039582342 0.47182584
?AT1396 0.07729909 0.3783923 -0.13987906 0.49859253 -0.16924228 0.06084732 0.5045045 -0.16247544 0.35283417 0.3391008 -0.55126697 -0.13931553 -0.24358156 -0.006482462 -0.5078096 -0.1657274 0.18274489 -0.019089816 -0.14547083 -0.52102387 0.15447071 -0.10552852 0.06578046 0.047318585 0.47737128 -0.15771045 0.07545776 0.22032449 0.11174465 -0.104094476 -0.2742903 0.12739863 0.22532825 0.35304192 0.22386739 0.033545587 -0.2901704 0.34305266 0.33067825 0.11247805 0.015823184 -0.07688204 -0.5353875 -0.16227943 0.06830729 0.5322757 -0.33994845 -0.42251498 0.06984994 0.35068437 -0.072355516 0.3477199 -0.6029009 0.16665931 0.01661838 -0.25712413 0.30248523 -0.43849045 0.063712515 0.33301172 -0.32518098 -0.108123 -0.03469038 0.21240044 -0.051469434 -0.50142753 0.051219244 -0.29836375 -0.11168068 -0.53005683 -0.12842582 0.44003922 0.30220065 -0.808798 -0.2832542 0.17675719 -0.45430133 0.11610381 0.075263835 -0.23487568 0.09925285 0.06151318 0.12760901 -0.29190707 0.14491738 -0.049078852 0.100762434 0.15167145 0.009434044 0.42376474 -0.2179592 0.08289509 -0.5431737 -0.041129313 0.5554487 0.29280084 0.024410088 0.18261443 0.010073947 0.18761066 0.6920954 0.120692335 0.20700976 -0.05331479 0.72288746 -0.1910282 0.025047129 0.0346107 -0.8212021 -0.24542147 0.38947707 0.05834999 0.5225947 0.03795426 0.39523718 -0.18933682 -0.25379676 0.17414854 0.01443572 0.2068858 0.4794051 -0.43583974 0.37709016 -0.34099185 0.4916298 -0.18523148 -0.008127436 0.4653138
?AT0049 0.25693163 -0.619861 0.346672 -0.28966427 -0.28820953 0.20029508 -0.11172419 0.44957617 0.3117474 -0.07183427 -0.3041974 -0.21815549 0.090104744 -0.2749438 -0.55099875 0.26296005 0.8508173 -0.486205 -0.001459445 0.046091877 -0.78324693 -0.5720371 0.23959936 -0.22931375 0.029604513 -0.05833861 -0.52209663 -0.10684184 0.0964856 -0.43676457 -0.41627017 0.42599797 -0.03181411 -0.1445203 -0.26808867 -0.115411565 0.060150344 0.055167563 0.285669 1.043738 0.11604537 -0.49964255 -0.23857859 0.2403704 0.07534453 0.29485172 -0.35890606 -0.3575119 0.14040296 0.40308064 -0.6139927 0.5756904 -0.5406844 -0.24703807 0.12542793 0.24758048 0.36888188 0.24892867 0.05642102 0.38648295 -0.6802633 0.31026378 -0.5755536 0.37710112 0.6463721 -0.1904053 -0.20645069 0.63755554 -0.13886356 0.17175093 -0.11886495 0.33104625 0.5161508 -0.03491995 0.2439924 -0.072194874 0.08213215 -0.33251265 0.08078851 0.1314497 -0.5884054 -0.08987623 0.392226 0.13611084 0.27231655 -0.07322219 -0.0105193695 -0.09977157 0.012336323 0.48540705 0.28565472 -0.43157375 -0.3973773 0.40548208 0.05039578 0.36137715 -0.016959243 0.21628816 0.18016894 -0.33904198 0.54381627 0.4997445 -0.30447155 -0.35829815 -0.04569211 -0.05577347 -0.5412292 0.1202382 -0.40937883 0.3425395 0.15428436 -0.25090024 0.10675328 0.1326669 0.2866426 0.18953542 -0.59806496 0.20253153 -0.334557 0.056672435 -0.398003 0.37293574 0.19516964 -0.35501382 -0.5092708 -0.37828237 -0.0017632485 0.18745422
?AT6711 0.44053036 -0.55610347 0.21451281 -0.0925422 -0.45557925 0.23149681 -0.13721092 0.55024385 0.5006957 -0.4430779 -0.52777 -0.12042468 0.1352589 -0.11905811 -0.6471829 0.29019165 0.9972129 -0.65755314 0.03529478 -0.09790131 -0.6691767 -0.6024459 0.33297384 -0.628482 -0.18398397 -0.40724996 -0.6864926 -0.13067436 0.02898952 -0.59725255 -0.6066688 0.3379103 -0.08140415 -0.04638614 -0.2143405 -0.09306526 0.0129419295 0.12555808 0.323546 1.0339137 0.20506307 -0.7842948 -0.537539 0.1897217 0.22197667 0.23706627 -0.2838532 -0.34432578 0.09693153 0.30054638 -0.35681564 0.5301159 -0.59600604 -0.1618326 0.059722275 0.37310478 0.44440857 0.20801114 -0.24950598 0.42939562 -0.8391696 0.15219425 -0.5926 0.43021244 0.50785685 -0.34106377 -0.45882 0.741712 -0.13153182 0.16003598 -0.1770518 0.5031667 0.7058515 -0.17687269 0.4154607 -0.5437553 0.36196065 -0.41232556 -0.46086544 -0.05765449 -0.7775371 -0.25282314 0.3745599 0.30517027 0.44658184 0.0043003755 0.05384369 -0.18383989 -0.13526247 0.58543515 0.548918 -0.51043934 -0.47478375 0.52799904 0.2362503 0.53226924 0.1711464 0.302529 0.15239955 -0.48850223 0.47550383 0.4728123 -0.0983361 -0.49966776 -0.12137433 -0.0880554 -0.5292924 0.27319917 -0.22230355 0.38733637 0.15633403 -0.41288805 0.18885264 0.14233348 0.2085179 -0.1615695 -0.8267214 0.15889196 -0.28493905 -0.033695385 -0.48349613 0.11270672 0.120396756 -0.32242996 -0.74652183 -0.45715034 0.088265315 0.18534149
?ATB005 -0.26151243 -0.30334783 0.52439994 0.14572161 -0.18773025 0.30778882 0.37366295 0.19439717 0.0065907296 0.4702151 -0.44383144 0.18204282 0.11507301 0.052405436 -0.7741203 0.19007051 0.8170489 -0.22094962 0.11788381 0.3530494 -0.80502987 -0.511724 0.21719798 -0.55368155 0.2107113 -0.061689023 -0.5710023 0.0940601 0.0933931 -0.6212027 -0.37067893 0.22038822 0.14092454 -0.12905733 0.113842115 0.13549706 -0.63858986 -0.0069019757 0.13753985 0.5113176 -0.09585337 -0.3322539 -0.21156625 0.047858108 0.33285767 0.3322786 -0.35059 -0.3532552 0.011017173 0.079456344 -0.5704103 0.5916128 -0.8506333 -0.11084652 -0.14453262 0.032114137 0.20678206 -0.3825543 -0.31014946 0.17128739 -0.2927029 -0.103832565 -0.27788925 0.045414686 0.08443561 -0.2501767 -0.4972303 0.22186777 0.22372217 0.44223908 0.2741398 0.57346815 0.30522335 0.15548126 0.19417223 0.33393022 0.3521489 -0.12481819 0.11757962 0.2290006 -0.19467628 -0.0785551 0.09303645 0.33394298 0.52157766 -0.27665904 -0.29437852 -0.051919594 0.21029031 0.38246787 0.08003987 -0.073461875 -0.52851254 0.4286817 0.49268255 0.239808 -0.01939385 -0.27836275 -0.53918207 -0.14544973 -0.013563735 0.80387473 -0.15963492 -0.16768664 -0.20751691 0.05696998 -0.37029904 0.34338108 -0.4240768 -0.10168191 0.34319732 -0.084621154 0.18865615 0.040539734 0.615368 0.27798158 -0.57733107 -0.02166544 -0.5827524 -0.34612808 -0.3602863 0.02884309 0.14105585 -0.42048872 -0.67789376 -0.38986465 -0.019623486 0.07167554
?ATC349 -0.20117 -0.9123693 0.7170433 -0.2835539 -0.29246128 0.025915371 0.35279092 0.24125232 0.24245657 0.43735772 -0.31690532 -0.114630885 -0.021733701 -0.35218903 -0.6825643 0.21951805 0.35382274 -0.40079913 -0.1536607 0.06724185 -0.8882311 -0.59804094 0.3882102 -0.4136656 -0.13519682 -0.45448694 -0.3382528 -0.24209766 0.34161583 -0.29997203 -0.5390105 0.42956296 0.0019587944 0.018392967 -0.16685048 0.019165576 -0.41082168 0.04854356 0.4445297 0.7055248 -0.14185618 -0.7793203 -0.44087178 0.1631259 0.035025295 0.5299997 -0.22081253 -0.1357255 0.17118646 0.1604344 -0.59073573 0.64977854 -0.4844855 -0.018728174 -0.27556324 0.22002158 0.049362987 0.11330548 -0.32567522 0.37618175 -0.7035651 0.27319354 -0.44481862 0.70880324 0.19902612 -0.07971191 -0.31266782 0.7121006 0.06602365 0.23294969 0.24064463 0.46538013 0.44753385 -0.027005523 0.38922122 0.06903222 0.1923195 0.019627577 -0.104483195 0.26375487 -0.39171475 0.018611092 0.08606069 0.028116409 0.25181407 -0.35200945 0.10016752 -0.23815468 0.24973309 0.61308336 -0.09200823 -0.1334058 -0.5202988 0.45220494 0.14753756 0.15082954 0.48816064 0.14498118 -0.22633049 -0.2784018 0.20531185 0.52246976 -0.53337866 -0.41269553 -0.17586862 -0.23679295 -0.43924785 0.21307193 -0.31826532 0.01954236 0.29737857 0.06599951 0.29129052 0.12851673 0.11908596 0.3304528 -0.80016375 0.51031023 -0.3668501 -0.20778795 -0.3738118 0.40576938 0.38361177 -0.2078315 -0.49163672 -0.18100382 0.17169327 0.15616795
?AT9687 -0.01783323 -0.504146 0.4442927 -0.3575828 -0.2725737 0.29979768 0.08794815 -0.09948253 0.20808172 -0.07631214 -0.43695468 -0.14544 -0.0795008 -0.49267492 -0.49854884 -0.052993268 0.5423237 -0.33091298 0.39418072 0.15110616 -0.15748382 -0.6066088 0.467997 0.062894136 0.022907525 0.07339716 -0.4471885 -0.40453288 -0.24024235 -0.19885087 -0.372024 0.46216437 -0.087768905 0.03790808 -0.09862068 -0.2751146 0.055945862 -0.08071423 0.47792003 1.1049191 0.33334717 -0.3570115 -0.40150642 0.57532644 -0.07412733 -0.055342745 -0.11801345 -0.00032684082 0.3214873 0.44952098 -0.48219013 0.03421284 -0.059596658 0.06840391 0.22438657 0.04397005 0.15958373 0.25474465 0.11725394 0.28653115 -0.91620106 0.1903248 -0.40252984 0.35574925 0.3749645 -0.24570061 -0.04177758 0.41348684 -0.26914963 0.13176617 -0.12281586 0.22496903 0.47150078 0.07095928 0.17566511 -0.11436094 0.073925115 -0.554152 -0.25666177 0.24600558 -0.77428037 0.06058027 0.42668447 -0.047694262 0.099061064 0.0509216 -0.3162645 0.040974483 0.25575492 0.3741137 0.47610152 -0.2496895 -0.49002123 0.10226562 -0.3039399 0.2851124 0.15632267 0.5582813 -0.06388944 0.028857239 0.8870885 -0.020203164 -0.20473981 0.01073898 0.36767256 -0.36307856 -0.3399352 -0.09835783 -0.17283063 0.145505 0.4841468 -0.40908092 0.31134957 0.16269566 0.094302036 0.2750504 -0.4114264 0.026342494 -0.37050033 -0.14737873 -0.2547115 0.31112903 0.32441166 0.16604432 -0.16818264 0.022879582 0.15046082 0.26010746
?AT9838 0.27939072 -0.24259101 0.19834086 -0.2714601 -0.33853748 -0.038276043 -0.1517247 0.07975476 0.31033224 -0.13281997 -0.54916865 -0.018909719 0.12188192 -0.14849399 -0.07181268 0.1842464 0.6820161 -0.20662096 0.30500028 -0.2246391 -0.5263992 -0.21665618 -0.005415762 -0.0018432088 0.10572622 0.10498475 -0.5751577 -0.27989942 0.23111232 -0.117028475 -0.18102838 0.27738693 0.003920015 0.12700228 -0.56155306 -0.15741155 0.2088417 -0.11418366 0.33273804 0.84677595 0.37891784 -0.36085996 -0.22249003 0.40790492 -0.052270744 0.36449265 -0.44406736 -0.2471468 0.20952667 0.3345122 -0.64717275 0.23434326 -0.37730393 -0.05369966 0.44461793 -0.0022924037 0.20443682 0.29613766 0.2001088 0.47030854 -1.220345 0.0009836685 -0.21123838 0.082337044 0.30259702 -0.23892649 -0.0065041315 0.31782255 -0.2407036 0.046565015 -0.2784761 0.2376872 0.22760433 -0.04170079 0.009312076 -0.21997243 -0.027584277 -0.14349985 -0.2307051 0.107771456 -0.57229376 -0.028431844 0.274043 0.13621618 -0.2858228 0.11283457 0.11457844 -0.22895682 0.048050966 0.4371819 0.5063481 -0.52067643 -0.3518033 0.2535821 -0.23739466 0.50790095 0.1090691 0.37224647 0.19863048 0.32016084 0.81409705 0.21571124 -0.38339466 0.07352515 0.28154826 -0.3320705 -0.29792747 -0.1602201 -0.31487545 0.66797256 0.6782014 -0.27086967 -0.021105396 0.23159981 0.33253175 -0.017892936 -0.3329182 0.039772213 -0.24603945 0.03985643 -0.20144211 0.3497726 0.16337247 -0.4491203 -0.6060368 -0.12358332 0.031486485 0.39790273
?AT9658 0.35129127 -0.6050335 0.50456125 -0.3368825 -0.0817836 0.15146883 -0.07355152 0.6476205 -0.0015387452 -0.33289373 -0.28179973 -0.37057674 0.13718186 -0.38344118 -0.58261496 0.43912557 0.64392364 -0.47856802 -0.20494567 -0.0041304524 -0.69386333 -0.37645632 -0.06900775 0.00935711 -0.10441802 0.011345223 -0.61103815 -0.07311059 0.31753904 -0.34395874 -0.2810432 0.17788348 0.021387246 -0.15847094 -0.2695264 -0.16529068 0.09216716 -0.0982546 0.16335696 1.1926582 0.15690105 -0.51246464 0.108770534 -0.0016771521 0.12913188 -0.016648835 -0.2575882 -0.6190299 0.15952541 0.4537421 -0.42959318 0.49542838 -0.52991456 -0.3765628 0.15322068 0.32394692 0.040318448 0.30833334 0.08012356 0.3187943 -0.740446 0.08396105 -0.7835337 0.52232635 0.4058734 0.012146007 0.0015219466 0.7767453 -0.005754465 0.18660812 0.01637453 0.15366024 0.49159628 -0.23954928 0.628796 -0.14058727 0.11526052 -0.10184762 -0.07325551 -0.20811015 -0.5838085 -0.5612708 0.48341367 0.13349542 0.28481168 -0.11287565 -0.12172792 -0.07146203 0.11077972 0.51476395 0.09106712 -0.41228092 -0.52565426 0.14166513 0.21707043 0.46719733 -0.118679985 0.32556048 0.17405057 -0.14427412 0.5277935 0.67494065 -0.3411272 -0.67302155 0.12267943 0.18047646 -0.5758494 0.18593812 -0.3349907 0.28565454 -0.10093275 -0.12124386 0.36866105 0.10329475 0.4924579 0.13072418 -0.54063815 0.20343053 -0.32546297 0.28858918 -0.370602 0.37725243 0.1911093 -0.35068536 -0.26983613 -0.5686796 -0.027449649 -0.13595071
?AT9690 0.41133282 -0.52024585 0.27471086 -0.4612898 -0.118999705 0.20041147 -0.0279105 0.8607825 0.12040337 -0.35915676 -0.19298197 -0.6057439 0.0935506 -0.4579728 -0.370327 0.37818575 0.4945587 -0.43177417 -0.30033267 -0.13790736 -0.56056684 -0.43531874 -0.14827518 0.10357816 -0.29446882 -0.13159114 -0.41376555 0.18031569 0.23355493 -0.16365574 -0.22597846 0.15059796 -0.043306336 -0.006398116 -0.31754735 -0.25115606 0.11565659 0.15690449 0.11983396 1.1339183 0.11227095 -0.32798234 0.35299787 -0.21281482 0.073684 -0.10317647 -0.23159982 -0.45024472 0.14875348 0.24213105 -0.2838234 0.32280403 -0.729666 -0.41965142 0.21200964 0.3043128 0.007024968 0.38050482 0.01183165 0.1327611 -0.71127236 0.12105779 -0.57855445 0.7297903 0.41023216 -0.019160109 -0.21876635 0.5968962 -0.11708473 0.29852498 -0.21338786 0.0048791277 0.78051317 -0.37590575 0.66730285 -0.119572096 -0.20307727 -0.27332592 -0.11239463 -0.025108712 -0.6866546 -0.5633384 0.4273766 0.11214158 -0.0071953116 -0.14142174 -0.10154324 -0.059629083 0.29645112 0.3833189 -0.0650795 -0.3668855 -0.4983213 -0.05142934 0.25243956 0.4424765 -0.24795386 0.15638277 0.24646929 -0.0011488394 0.45766696 0.533791 -0.4628445 -0.7100378 0.1590627 0.25206554 -0.5509192 0.3133777 -0.27483302 0.39213383 -0.5733913 0.12922822 0.3361783 0.19725226 0.42885205 0.098940626 -0.50203824 0.17672096 -0.17685238 0.289611 -0.508322 0.15925302 0.20741947 -0.21445715 -0.13196255 -0.5164975 -0.30728543 -0.25534165
?AT0059 -0.047527343 -0.3384649 -0.3245508 0.0009954703 0.43497705 -0.08105764 0.2132018 -0.5206214 -0.05347866 -0.3875036 0.34180397 -0.014680374 0.79846674 -0.20093381 -0.10250912 -0.31933418 0.3306238 0.43997934 -0.24817686 -0.20027605 0.400778 -0.09721935 0.32144618 -0.36291638 -0.6246252 0.34957957 -0.20342126 -0.32009822 0.28038722 -0.38577297 0.15448903 0.42552382 -0.13023266 0.39235127 0.94870865 0.23318805 -0.36914653 -0.6017939 0.39349803 0.10274415 0.31380558 0.1654263 -0.37607515 1.0278397 -0.522189 -0.17104572 0.07951557 -0.8249287 -0.014501712 0.613134 0.81745756 -0.10951838 -0.466807 0.011168603 0.02639083 -0.61063826 -0.5906664 0.1313004 -0.29512408 -0.06604386 -0.9080015 0.34249586 -0.8226 0.90592223 0.1533555 -0.18579867 -0.76156974 0.094412096 -0.032195333 0.121700585 0.63408506 -0.3557514 0.123784736 -0.029583346 0.2599979 0.4293152 0.22840591 -0.3641942 -0.23523682 -0.08146806 -0.19943868 -0.58485824 0.37618718 -0.14287086 -0.16917074 -0.016221512 0.2269682 -0.12746726 -0.17917109 0.5156722 0.25069562 -0.18608996 0.08230262 0.64848304 0.25226092 -0.6463778 -0.3872732 0.30811587 -0.21132746 -0.30156058 -0.15846945 0.32388577 0.26087564 0.6626928 -0.27281183 0.38161123 -0.51925737 -0.6739289 0.107915565 -0.37593585 0.054456104 0.41724563 -0.015508073 0.0032005368 0.61214155 0.1930088 0.30489767 0.070548914 -0.2782124 0.2839696 -0.43285313 -0.22841401 0.11969717 0.0024152678 0.08362486 -0.08847785 0.22923854 0.5336006
?AT8731 -0.1491743 0.060645003 -0.3625895 0.059153475 0.5883327 -0.105582215 0.3000846 -0.4346284 -0.18628125 -0.2829022 0.29816297 -0.1443402 0.5754954 -0.055178616 -0.01917267 -0.14018351 0.3414194 0.5035045 -0.3334976 -0.0667934 0.16328709 0.060940105 0.34401095 -0.28330672 -0.780395 0.40475616 -0.046083294 -0.02896921 0.34328428 -0.24294847 0.17953752 0.7176529 0.18091102 0.44722685 0.8175075 0.33344248 -0.49700767 -0.5557845 0.32019633 0.10182196 0.39688668 0.2918106 -0.2593335 0.8588761 -0.41741246 -0.13738397 -0.042277284 -0.7369944 -0.29454318 0.65982795 1.0791227 -0.13098684 -0.35158077 0.043519963 -0.14440376 -0.31740183 -0.4220579 0.22024551 -0.45636997 -0.25989512 -0.7760971 0.24140665 -0.7939422 0.6558264 0.035149157 -0.2162834 -0.9569892 -0.061606638 -0.4211934 0.26558483 0.4283995 -0.095266856 0.12579653 -0.16749856 0.28459337 0.0032514154 0.06326032 -0.26061332 0.0023058143 0.16462861 -0.55026734 -0.50937366 0.38057694 -0.22230265 0.025841886 -0.17059396 0.08452449 -0.3441656 -0.105020195 0.35902753 0.022578 -0.0040517896 -0.3234322 0.6513081 0.24040377 -0.44199887 -0.2962998 0.35641092 -0.13551132 -0.4021345 0.21432643 0.1336689 0.10977769 0.38848037 -0.4034325 0.25976086 -0.48813426 -0.53734756 0.27039245 -0.2354963 0.14987059 0.34149882 -0.104221016 0.029921604 0.68190604 0.00638504 -0.014808968 0.20453805 -0.3150496 0.21845207 -0.4702105 0.100761265 0.25160664 0.03238495 0.056763567 0.33102474 0.61055005 0.002692734
?AT4713 -0.057003323 -0.67898655 -0.6186337 0.106698714 0.4609233 -0.044279985 0.119823374 -0.45638275 0.03269698 -0.38005462 0.32225057 0.122674726 0.507734 -0.4071172 -0.22803143 -0.38645044 0.16736701 0.3978168 0.013443175 -0.33317333 0.6096036 -0.15494315 0.09890684 -0.34691772 -0.2820343 0.15411754 -0.10648045 -0.33792087 0.14126752 -0.18635938 0.33943176 0.265932 -0.25811917 0.19117771 0.90591437 0.31700465 -0.23283164 -0.47639754 0.30034098 0.17713203 0.3063495 0.04752544 -0.32415614 0.71141416 -0.48469648 -0.119097166 0.2232436 -0.61582327 0.17551483 0.60845995 0.479352 -0.05642734 -0.44416496 0.20325217 0.16750999 -0.48123068 -0.52613086 0.050879452 -0.10587961 -0.055729654 -0.9018778 0.4732459 -0.6503403 0.79798883 0.28150746 -0.37603015 -0.8069418 0.07196546 0.12141338 -0.22326364 0.78024775 -0.3625395 0.17775266 0.057925094 0.24251767 0.4570721 0.22692207 -0.22902079 -0.29040477 -0.112364806 -0.16407302 -0.44877553 0.33907238 0.04881517 -0.29631153 0.22206433 0.094901115 -0.002623147 -0.36490965 0.59660375 0.33343756 -0.36898473 0.2633132 0.56359327 0.22689113 -0.46029428 -0.24176842 0.088619046 -0.4466937 -0.0671462 -0.40174323 0.44265884 0.14955996 0.88957995 -0.12524167 0.23934123 -0.4739614 -0.6349562 -0.15511046 -0.49487332 0.032703336 0.4636648 0.071778566 -0.117518075 0.34215802 0.39050132 0.4426589 -0.027658189 -0.33553326 0.26337928 -0.26908612 -0.33632845 -0.069095775 0.059455935 0.058661573 -0.27110624 -0.051927727 0.78092194
?AT0070 0.31925604 0.3283543 -0.22486831 -0.52671105 -0.1036877 0.67460597 -0.10275871 0.10414936 0.07388128 0.5095132 -0.108401924 -0.46754244 0.015509574 -0.31521556 -0.3537142 -0.36192292 -0.102394365 0.48452064 0.07746613 -0.43994245 -0.11978245 -0.26035944 0.047637913 -0.38745925 -0.098615594 -0.118661344 0.30611473 0.3626238 0.1521608 0.553942 0.5927854 -0.12645124 -0.13823801 0.19870254 0.054157414 0.22554485 -0.44622183 -0.210059 0.21349265 0.14747258 -0.36185986 -0.3351726 -0.15041645 -0.06841569 -0.38223967 0.32149926 -0.22771133 -0.30713478 0.72559285 0.20232831 0.36393166 -0.55059355 0.15247235 -0.7175773 -0.20263845 -0.2735605 0.02966313 0.3300369 -0.2608405 0.09637732 -0.55953336 -0.00076658017 0.38151988 -0.22103219 0.22294483 -0.10378238 0.27518272 0.54213464 -0.14875661 -0.25665125 0.8048953 0.5650987 -0.19030455 -0.01362568 0.96465445 -0.63129026 0.16451347 0.077774264 0.6171294 0.07403299 -0.585856 -0.32514846 0.012558129 0.26725397 0.23055702 0.49519014 -0.044623267 -0.003552726 -0.0027391536 0.21574777 0.20809679 -0.23072386 -0.06862326 0.43347946 0.032673348 -0.33563197 -0.33001205 0.24589452 -0.08576891 0.07464592 -0.27653074 0.3096598 0.19101836 0.13961016 -0.39067376 0.11191234 -0.46205243 0.15263128 -0.4986992 -0.61741346 0.6023982 -0.09224237 0.09906804 -0.46200347 0.08461225 -0.44825616 -0.22124027 0.006269751 -0.28377002 0.009078033 -0.27338025 -0.0904805 -0.20811675 -0.09172314 -0.1594681 -0.081141874 -0.42344669 -0.29260808
?AT2015 0.09333742 -0.16013202 -0.33005023 -0.2025069 -0.3689911 0.6216703 -0.22871584 0.20749055 -0.32291502 0.32861322 -0.06476301 -0.20005123 -0.092160225 -0.04709885 -0.382359 -0.20412573 0.0140993595 0.4680835 0.32777703 -0.36602855 0.04863547 -0.04079404 -0.08106573 -0.5920664 -0.4621537 -0.14039066 0.09066275 0.1196762 0.06738795 0.18033236 0.08642823 0.38073018 -0.49135953 0.39269018 0.01863707 0.32129917 -0.454383 -0.17424823 -0.20335232 0.5059014 -0.44824135 -0.33819252 -0.08542802 -0.20091283 -0.7577321 0.22185129 -0.26151577 0.023500836 0.3276833 -0.25682747 0.1420146 -0.5212725 -0.010571526 -0.2322988 0.36946547 -0.26613858 -0.082500145 0.008884941 -0.01669093 -0.036814533 -0.22110507 -0.32348 0.32316422 -0.2441608 -0.051304135 0.20671163 0.06258947 0.66809255 -0.0136775905 -0.28925523 0.20131208 0.3694186 -0.2240579 0.0052186293 0.77544993 -0.43533114 -0.089867495 0.029571248 0.035998646 0.4490633 -0.33982238 -0.5113408 0.08476296 -0.27102724 0.020220583 0.049489032 -0.13153511 0.16992474 -0.10960202 0.46861628 0.32954976 0.059638616 -0.29067612 0.5256176 -0.084950194 -0.07314559 -0.093771905 0.3688599 -0.14602774 0.1477258 -0.31739354 -0.14232995 0.25910145 0.17931606 -0.27987555 0.3225727 -0.06220456 0.41430065 -0.67342645 -0.3062294 0.48863348 -0.35092685 0.32892188 -0.24526778 0.40085587 -0.40988174 -0.43492177 -0.13497737 0.10176741 0.008640365 -0.5347504 -0.4011146 -0.25480038 -0.56765807 -0.06336158 -0.21754973 -0.5318259 -0.18296123
?AT6074 -0.020712338 0.27660444 0.031105528 -0.037923414 -0.20078139 0.6689616 -0.10911309 -0.0026132967 0.41580117 0.88583297 0.0959338 -0.19014303 0.60345745 0.0470879 -0.42953658 -0.3224084 0.11629425 0.12148325 0.124022216 -0.4459321 -0.34769362 -0.31357294 0.0005183118 -0.32920545 -0.34624076 0.21069914 0.26041982 0.21796742 0.13027203 0.19370551 0.45089716 0.2343618 0.24956451 0.26226068 0.06709862 0.053162616 -0.160289 -0.31634164 0.34816402 0.26893336 -0.56408423 -0.227226 -0.091562964 0.015266687 -0.6791626 0.10921059 -0.29505032 -0.22353414 0.3320397 0.45288306 0.06969574 -0.15762691 -0.028348092 -0.51655316 0.1860892 -0.18001465 -0.20601095 0.0291047 0.0029129062 0.39726835 -0.68993336 -0.30853134 0.31288493 -0.5601653 -0.08042614 -0.06540055 -0.048087023 0.647794 0.36699882 -0.24525793 0.16921127 0.52108175 -0.30378562 -0.16952658 0.73317796 -0.729431 0.0056612454 0.1870477 0.002991791 0.26055336 -0.4613258 -0.6473154 -0.10467534 -0.11193626 -0.14396319 0.35065135 -0.4198129 -0.40945217 -0.34203133 0.50036615 0.28864983 -0.10013544 -0.05940519 0.30173603 -0.08957865 -0.47780508 -0.25541586 0.21730685 0.107236326 0.12532929 -0.31784353 -0.026591523 0.23984896 0.55333936 -0.08941357 -0.0032195263 -0.04587265 0.07234015 0.05974143 -0.37158883 0.32303044 -0.31441832 0.2253847 -0.010410908 0.46247295 -0.64537024 -0.27691963 0.01058423 -0.122645125 0.40033406 -0.065664016 0.0037561746 -0.16152588 -0.2643607 -0.12101902 0.1731698 0.074570656 0.089814015
?ATC110 0.13481542 0.06646496 -0.33401853 -0.13571769 -0.2465069 0.098671 0.09140383 -0.21498807 0.09094324 0.65524644 0.1984356 -0.16623211 0.095703445 -0.2479328 -0.14736196 -0.028533878 0.1327679 0.4821859 0.2537481 -0.04581127 -0.06005717 -0.18159977 -0.17648901 -0.35359395 -0.46730846 0.0879528 0.27012366 0.3254834 -0.30602762 0.27875006 0.2816201 -0.018231358 0.08229397 0.59611946 0.1745867 0.36539707 0.17724779 -0.20936497 0.083424434 0.36496222 -0.5639578 -0.41857967 -0.011556988 -0.25840676 -0.31539336 0.18587464 -0.10534385 -0.15145774 0.5507588 0.36815694 0.22298597 -0.40411836 0.34355274 -0.38997698 -0.09560675 -0.4526502 -0.11263248 -0.03982403 -0.078550905 0.024649147 -0.40145013 0.023430865 0.21449594 -0.18926598 0.09865786 0.18082769 0.28778836 0.538212 0.068507254 -0.34258726 0.19494852 0.671963 0.123952016 0.3237839 0.9163514 -0.47578928 -0.24337292 0.13116688 0.11180558 0.4785344 -0.5395587 -0.6316744 -0.18539122 -0.16998747 0.37208542 0.06964635 -0.231665 -0.28358948 -0.10325519 0.32998773 0.13061345 -0.063808024 -0.37236014 0.32050055 0.4810589 -0.2600386 -0.22566746 0.23162901 0.023202086 0.04820725 0.018715462 -0.11074032 0.1789794 0.22835661 -0.3759279 0.3052966 -0.54559827 0.2550907 -0.49982703 -0.27995965 0.62012225 -0.45550057 0.14811012 -0.39162374 0.16002955 -0.64329517 -0.29282123 -0.31174102 -0.1689696 0.23072588 -0.025761604 0.28189123 -0.23428695 -0.34986192 -0.07041244 0.15507339 -0.4930521 0.23660287
?AT0890 0.18468222 0.40395346 -0.0637419 -0.55318934 -0.24152634 0.21711093 -0.45642093 0.05676045 -0.17091858 0.24486083 -0.2181568 -0.5025504 -0.0075986837 0.11338593 -0.3945663 -0.15334083 -0.38984445 0.07883394 -0.19125189 -0.3515401 -0.11881007 -0.087860666 0.20258497 -0.34643894 0.15482052 -0.26682758 0.13448168 0.39984393 0.23702745 0.37753037 0.30620274 0.25239167 -0.19199227 -0.1386168 0.12897053 0.5434352 -0.59952354 -0.22121759 0.32666296 0.14010684 0.23650455 0.1795415 -0.31470433 0.25811747 -0.44727606 0.129685 -0.1814312 -0.15863584 0.8319057 0.030073712 0.016198901 -0.7745249 0.049462896 -0.31678858 -0.12574615 -0.24908254 -0.25295535 0.5503362 -0.27482808 -0.13044223 -0.57287323 0.3530064 0.19261391 -0.122641586 0.20888829 -0.1860872 0.119219884 0.28702092 -0.11888307 -0.4147755 0.85472804 0.35406417 -0.042178396 0.29708818 0.6533252 -0.69920963 0.052691437 0.021174908 0.73477507 0.009331998 -0.45416296 -0.090896815 0.346884 0.2878682 0.18480767 0.42248285 -0.16418622 -0.17152439 0.39603218 -0.08403152 0.24156986 -0.5291795 0.09834766 0.380425 -0.1527153 0.08628682 -0.43254587 -0.004287875 0.053653706 0.028458286 -0.24315667 0.82850283 0.2662526 0.1812428 -0.19885659 -0.071750365 -0.6419993 0.10031612 -0.33092254 -0.4502867 -0.16510482 0.14076653 0.37614846 -0.52576274 0.09560449 -0.34092957 -0.124257386 -0.2255943 -0.4540348 0.059925027 0.090177804 -0.31292418 -0.25488755 0.006971045 -0.34801754 0.17351143 -0.6853914 -0.39137343
?ATA677 0.2463677 0.4903411 -0.09746536 -0.017422777 -0.15569393 0.3549871 -0.404358 0.101682976 -0.0005220669 0.36164993 -0.38718596 -0.6168879 -0.2810561 -0.11656147 -0.4145956 -0.20938335 -0.313859 0.35684788 -0.12635534 -0.49065334 -0.025519548 -0.22455895 0.115498014 -0.49132156 0.23381314 -0.28578225 0.02364067 0.14281657 0.082125805 0.2042976 0.4609924 -0.20985515 -0.156043 0.06296228 0.09517803 0.3071187 -0.3331601 0.15541041 0.1570418 -0.07809471 0.28926814 -0.118989445 -0.27849385 0.08998443 -0.53745365 -0.19024779 -0.38250697 0.031709753 0.66615295 0.15630625 -0.05178443 -0.57267994 -0.14974445 -0.58004504 -0.03459938 -0.3421707 -0.19431457 0.52990955 -0.19723766 0.52462333 -0.42213577 0.09982601 0.6822913 -0.6177274 0.23758791 -0.07640674 0.0650951 0.1882615 -0.31476432 -0.30101797 0.9502744 0.37619925 0.2656556 0.35690582 0.61641115 -0.6413189 0.16798997 -0.06300654 0.7289082 0.16815399 -0.47155017 -0.003545908 0.43032017 0.482685 0.21309453 0.53612804 0.009871622 0.26663655 0.22088334 0.101914234 0.23763932 -0.5841513 0.12140269 0.41129258 0.3492587 -0.08260703 -0.26532853 0.47401357 -0.037878137 0.17202373 -0.28887957 0.79576963 0.19187365 0.11294809 -0.09883753 -0.23351769 -0.6533773 0.24265656 -0.10190008 -0.58043694 0.08237934 0.13174483 -0.046529453 -0.481499 0.33647808 -0.44302538 -0.12859383 -0.31552106 -0.32830775 -0.19617611 0.03282914 0.041676976 -0.38129678 0.24922577 0.038787235 -0.052786514 -0.7513646 -0.23196097
?ATB734 -0.29507193 0.7028298 -0.043341994 0.03689198 -0.073958054 0.25921634 -0.37513745 0.14675336 -0.11781796 0.31042978 -0.30962813 -0.28940016 0.06312288 -0.46327764 -0.4408241 -0.24290152 -0.3387906 0.28051153 0.08505977 -0.20713356 -0.15675914 -0.27696383 0.24150164 -0.5062924 0.15745777 -0.13317987 0.14270853 0.071874164 -0.21559574 0.18350868 0.3080734 0.016785705 -0.45497966 0.15980007 0.12315725 0.32281718 -0.18799588 0.19279069 0.4325172 0.064681806 -0.08458354 0.1480674 -0.21303907 0.108271204 -0.34957686 0.0856961 -0.44713154 -0.23501422 0.52692485 0.12785664 -0.15188582 -0.3161986 -0.16877396 -0.51561797 -0.11978753 -0.19563437 0.2501117 0.544245 0.10968655 0.09801861 -0.7813852 -0.19203524 0.30512092 -0.07574309 0.26946154 0.30804235 0.39027488 0.2970291 -0.5166836 0.1229599 0.77625865 0.15712892 0.35569078 -0.054065034 0.68306786 -0.5412754 -0.037597932 -0.28166053 0.8047038 -0.14330228 -0.24883625 -0.11525215 0.06532318 0.46731204 0.13845563 0.48744622 0.12078709 0.19416597 0.18231557 0.16106445 0.06123996 -0.6822877 -0.038864877 0.48601887 0.3373702 -0.27437952 -0.67698306 0.014469919 -0.1386205 -0.0048971805 -0.26186123 0.4639382 0.42240936 -0.37821433 -0.39295447 0.041257087 -0.5957596 0.21728289 -0.1388518 -0.6825512 -0.21949887 0.38376483 -0.2414156 -0.39134923 0.07873846 -0.38968036 -0.05777694 -0.25963533 -0.34489882 0.13852513 -0.19017678 -0.13717337 0.008745388 0.06572386 -0.44656298 -0.038509503 -0.5283126 -0.3110355
?AT6016 0.48344806 -0.021664932 -0.3894904 -0.61477554 0.11842486 0.5115456 -0.16828504 -0.0072997804 0.27273563 0.1800414 -0.3772359 -0.8233451 -0.20481157 -0.3731916 0.077261925 -0.7182493 0.005995694 0.5123691 0.044134125 -0.3047069 -0.31299913 -0.40338898 0.16960779 -0.21226205 -0.42700195 -0.49107066 0.54763985 0.40958554 0.46547523 0.65725076 0.43045956 -0.32776323 -0.27175227 0.3693869 -7.887115e-06 0.11770922 -0.71182626 -0.34593293 0.31186232 -0.13201588 -0.38588193 -0.5349106 -0.3481167 0.24085383 -0.31354663 0.39457282 -0.13190939 -0.1901133 0.64499635 0.45633423 0.5272225 -0.32881936 0.053808954 -0.5917617 -0.44119558 -0.3660499 0.12297076 0.30854282 -0.502756 0.18529828 -0.6977175 -0.10126334 0.026700994 -0.009087631 0.34923252 -0.7015713 0.3246453 0.66789776 -0.23788945 -0.15541351 0.78339314 0.48693368 0.046388887 -0.16862458 0.9589732 -0.50314987 0.17901075 -0.0740728 0.4277884 -0.26039094 -0.62581533 -0.34801367 -0.34452847 0.34845036 0.39476237 0.03320123 0.24628781 0.3987271 -0.047675718 -0.17000419 -0.072681755 0.021726964 -0.27805683 0.19893917 -0.068648316 -0.3746847 -0.3681568 0.18903211 -0.31490523 0.31704748 -0.19887722 0.24468417 -0.24123167 0.10881023 -0.11979099 -0.0077917636 -0.6342016 0.05386017 -0.56761 -0.3818112 0.4073359 0.035159793 0.50047493 -0.42733982 -0.004264695 -0.34382644 -0.3071684 0.4579763 -0.283724 -0.31079182 -0.40177014 -0.085232094 -0.14777465 -0.23305756 -0.104851194 0.07990019 0.03325578 -0.04015336
?AT0078 -0.11232346 -0.66818094 -0.13122892 -0.05379465 0.1483746 -0.050720852 -0.0050953943 -0.3402754 0.087106526 -0.24970923 0.271985 0.31582832 0.25290686 -0.60784525 -0.5925684 -0.35642058 0.046884656 0.051620547 -0.104528956 -0.4084579 0.42423975 0.23496835 -0.112914465 0.2717071 0.10281412 -0.30089626 -0.3537886 -0.47124365 0.32306132 -0.09931416 0.20925923 0.37057325 -0.5456235 0.50504345 -0.02789924 -0.0006991607 -0.030494928 -0.062390815 0.2913726 0.08489169 0.15720747 -0.03082494 -0.11041563 0.3765632 -0.64188737 -0.1875715 0.17329991 -0.079631954 -0.010898579 0.24824142 -0.06665713 0.055082165 -0.24243028 -0.0748268 0.14860405 -0.6993488 -0.03214181 0.00015799035 -0.35406312 -0.1519986 -0.6076358 0.42960608 -0.0855109 0.77749693 0.12693632 -0.18671666 -0.39424232 -0.32438654 0.4023556 -0.20832317 0.60742205 -0.16307822 0.45039007 -0.11100721 0.022452394 0.21623456 -0.1626832 -0.4634736 -0.032061305 -0.42005056 -0.3996819 -0.17560995 0.017208282 0.03977516 0.088057525 0.36222848 -0.36555913 0.15493216 -0.116056226 0.39264187 0.4758799 -0.13800624 0.9567371 0.07444984 0.5257116 -0.01256815 -0.31581503 -0.4137999 -0.108288355 0.112609506 -0.23088524 0.30748722 0.38946924 0.7965924 -0.52021706 -0.2769951 -0.22693709 -0.17001233 -0.21452601 -0.22364756 -0.07346956 0.29449826 0.47316542 0.14536539 0.43901277 0.19560556 0.07291232 -0.3263091 -0.60065144 0.13605335 0.020884348 -0.1371729 -0.15632448 0.06725085 -0.1098349 -0.29313678 -0.35198858 0.43718207
?AT3682 -0.16894628 -0.5562818 -0.17329417 -0.25654185 -0.06873001 0.03368385 -0.08277488 -0.24710442 0.07618082 0.17550682 -0.014854522 0.19926319 0.14319982 -0.49080446 -0.8539484 -0.06760099 0.25913855 0.103071034 -0.26619753 -0.14472081 0.20608929 0.59522045 -0.04918226 0.04135501 -0.16116501 -0.21841301 -0.30920956 -0.56861156 0.2264166 0.0022733356 0.4781456 0.19526048 -0.28830257 0.8063029 -0.036099315 0.11804751 0.19007054 0.065694295 -0.18870331 -0.020776661 0.34125412 -0.023839772 -0.020901382 0.21761067 -0.48145527 0.11330964 0.035397008 -0.2806165 -0.48412776 0.26400006 0.031045526 0.43931472 -0.12915914 -0.0871936 -0.090614274 -0.25215927 -0.1672982 -0.14603728 0.31906003 -0.24665572 -0.57465047 0.007556688 0.04241544 0.7100173 -0.17103271 -0.012234903 -0.2876088 -0.26674426 0.42404515 0.08072564 0.3129935 0.28492954 0.64586496 0.049491074 -0.09056012 0.013016828 -0.08768086 -0.5987959 0.02898399 -0.20553593 -0.7082696 -0.054616954 -0.12937187 -0.15980868 -1.4068173e-06 0.24591547 -0.7512006 0.25372142 0.26171225 -0.04626594 0.35443658 0.10312508 0.2941078 -0.23487848 0.45804802 0.09046735 0.15815055 -0.35522985 0.08231263 0.21722336 0.03414066 0.22771564 0.3116238 0.42683718 -0.8070061 -0.24343522 -0.47871813 0.12680751 -0.10412985 0.015816228 -0.50004363 0.2423606 0.15309274 -0.057455078 0.46570134 0.18349576 -0.24530391 -0.29770392 -0.6130709 -0.20885898 -0.111511156 -0.23332106 -0.06599745 -0.2121396 -0.26999995 -0.18434016 -0.27374616 0.29567635
?ATB474 -0.10056179 -0.27358913 0.02892621 0.2254269 0.20267193 -0.51494783 0.0075762076 -0.49541083 0.27314302 -0.2352812 0.2570798 0.1001954 -0.17576475 -0.4505263 -0.55206245 -0.38372526 0.48962468 -0.2857532 -0.13083073 -0.11278012 0.12335985 0.6832412 0.17365615 0.22965607 0.39589995 -0.10044349 -0.5472707 -0.3421311 0.4260021 -0.38228238 0.050925408 0.19091894 -0.4530172 0.54740614 -0.035022173 -0.18282877 0.21821369 -0.16903561 -0.1208834 0.06861837 0.551778 -0.14666852 -0.017641945 0.3397121 -0.088806145 -0.124986045 -0.06661165 -0.2621668 -0.0038368665 0.67592824 0.13209076 0.26475173 -0.08514387 -0.25409108 -0.06502672 -0.6588273 0.085042655 -0.014271185 -0.20954707 -0.2559289 -0.32946113 0.061048146 -0.019808076 0.74511373 -0.42010278 0.15589088 0.21512038 -0.039011247 0.09817059 0.091599554 0.7437453 0.17102817 0.18280788 -0.40734753 0.14419112 0.023106167 -0.07798274 -0.45564437 0.043134388 -0.13231105 -0.31663203 -0.00943139 0.25469074 0.2825596 0.16996133 0.2667683 -0.7466383 0.37418726 0.08742903 0.4376706 0.23451713 -0.055043656 0.41439307 0.19113538 0.5282134 0.02072912 -0.01785697 -0.29610825 -0.24614379 0.29925922 -0.08499321 0.37478286 0.1790039 0.52727306 -0.90377617 -0.01253977 -0.16125849 0.062812455 0.025441742 -0.04352107 -0.0800054 0.38552365 0.58412874 0.17774953 0.63063043 0.08964919 -0.029829899 0.103930295 -0.25904334 -0.13166144 -0.26791742 -0.6431279 0.19652508 -0.01440045 0.16522528 -0.4033917 -0.29495707 0.05762039
?ATC993 0.025140388 -0.604865 0.052975748 0.011538061 0.30185676 0.14288104 -0.117770046 -0.5663288 -0.20069122 0.06252801 -0.12158227 0.4454493 0.3153097 -0.6238545 -0.76265436 -0.5204885 0.23535918 0.16223586 -0.19132777 -0.1644679 0.010787392 0.6410151 -0.22890005 0.4432586 0.22068287 -0.3311068 -0.5431572 -0.3337787 0.38083863 -0.22404933 0.15783872 0.24191952 -0.30409977 0.6350796 0.050030045 0.33670297 0.14409944 -0.25758457 0.19749136 -0.045485333 0.3613659 -0.084942594 -0.02207777 0.36829934 -0.16055126 0.068848625 0.22036403 -0.013695103 0.024638735 0.4747555 -0.17819601 0.7216622 -0.5251906 -0.2441895 -0.013223338 -0.73172337 0.28819036 0.090729855 -0.05057021 -0.258447 -0.5057736 0.32030773 -0.24999079 0.83359206 -0.15197098 0.028032305 -0.41367716 -0.11912175 0.16510603 0.12825252 0.5418857 0.34208807 -0.21765812 -0.38194746 0.27826813 -0.1264401 -0.16287711 -0.5354095 -0.097409435 -0.24345434 -0.37083602 -0.1468791 0.1140139 0.14052896 0.094385624 0.20829274 -0.6996271 0.14349516 0.1567157 0.3574238 0.26877937 0.15288241 0.6248757 0.097727686 0.32022902 -0.20974149 -0.05130333 -0.46085536 -0.13514303 0.22492114 -0.15125774 0.4666408 0.32469198 0.32000062 -0.7525598 -0.34170273 -0.5587018 0.016114194 -0.07454966 -0.09108712 -0.27059993 0.11666092 0.4676347 0.41127014 0.52654797 0.022312673 -0.09473078 -0.32977945 -0.46410516 -0.29107997 -0.07402935 -0.46848896 0.0011291025 0.0575786 -0.00800276 -0.5104037 -0.5543132 0.47715044
?AT4860 0.02120965 -0.7451702 -0.36099812 0.056054637 0.105878904 0.07695169 0.03807632 -0.32012692 0.25563768 -0.21412747 0.31603748 0.19294155 0.35956714 -0.57197696 -0.34746018 -0.19329019 0.070845045 0.20667042 0.19209121 -0.35045478 0.4237627 -0.112918824 0.08309116 -0.31431103 0.20165403 -0.23614436 -0.1539383 -0.19999821 0.10113602 -0.036914136 0.26173115 0.2998041 -0.5559175 0.24092582 0.28395241 0.31198275 -0.0039415224 -0.30112788 0.31344506 0.10348989 0.039428018 0.056486655 -0.20454836 0.27160802 -0.69535637 -0.1257189 0.07130836 -0.122710556 0.23660998 0.2222984 -0.070789956 -0.10029079 -0.39027023 0.08277749 0.040734842 -0.4308072 -0.14567232 -0.2310757 -0.04416435 -0.03514434 -0.65948987 0.5666181 -0.13884687 0.59721905 0.24087086 -0.26619545 -0.7556802 -0.016502297 0.28926697 -0.3568807 0.6205901 -0.2974163 0.23071623 -0.14147203 0.24029058 0.24786723 0.0876421 -0.17631468 -0.052310836 -0.19988616 -0.14284022 -0.21667328 0.13836049 0.13450468 -0.20497867 0.35882077 0.10222698 -0.10084221 -0.20904188 0.43807885 0.2929509 -0.5083503 0.4229994 0.30678788 0.22579685 -0.050099045 -0.11127133 -0.22386466 -0.41016525 0.41050664 -0.53665614 0.3888003 0.20124657 0.79829735 0.123371266 0.071004845 -0.38083842 -0.2315354 -0.32507163 -0.4554109 0.18497553 0.2356542 0.28124213 -0.028247397 0.21741268 0.46794727 0.4079603 -0.08214945 -0.5841599 0.121728376 0.046451207 -0.11012712 -0.015387784 0.10870368 -0.0807637 -0.14063162 -0.10535735 0.88865983
?AT7172 -0.1382397 -0.43352255 -0.016583186 -0.05709877 0.20957242 0.055020034 0.0013438121 -0.24040923 0.3087113 -0.46668866 0.24980943 0.18661062 0.37263203 -0.6320961 -0.66853786 -0.075073205 -0.047735434 0.32796502 -0.015940486 -0.68069404 0.49768573 0.002363322 -0.13237613 -0.033778176 0.4093403 -0.33976823 -0.3868188 -0.2560895 0.19718052 -0.004806184 0.19318715 0.4977565 -0.7479136 0.333443 -0.09148111 0.2859548 -0.25079545 0.03830793 0.47174433 0.08577384 -0.038316328 0.0634302 -0.032129943 0.33500037 -0.8181172 -0.27503306 0.2016992 0.011021627 0.1988458 0.038400304 -0.0226345 -0.1132523 -0.20910355 0.05324925 0.20847765 -0.6159301 -0.19568501 -0.15044838 -0.51060855 0.069814086 -0.7430829 0.44185883 -0.17824282 0.7104885 0.2996565 -0.145757 -0.6134452 -0.17918172 0.33356196 -0.3468552 0.51569307 -0.357164 0.62519956 -0.079915866 0.12881911 0.40279981 0.053388216 -0.16760212 0.0034751524 -0.39628267 -0.13611618 -0.42840478 -0.010689554 -0.023475463 0.04664746 0.32513824 -0.077507265 -0.20874798 -0.13395272 0.36138108 0.42872003 -0.31378907 0.9368706 0.1204409 0.3034562 0.06475949 -0.3458771 -0.3328806 -0.099233225 0.14232238 -0.2501965 0.30323634 0.38092545 0.8441146 0.016484523 -0.15569597 -0.065754406 -0.23676765 -0.31676245 -0.43601403 0.020698221 0.14675379 0.39289528 0.014643706 0.38550106 0.096993424 0.21299794 -0.24006994 -0.52532554 0.22052169 0.15841196 -0.15204582 -0.11556707 -0.022641482 -0.0731897 -0.29859427 -0.4020102 0.68707526
?ATB108 -0.104578525 -0.46744198 -0.13992187 0.044388853 0.29671383 0.04299931 0.1658797 -0.29619035 0.14448592 -0.305971 0.39566547 0.21095006 0.54424703 -0.5829899 -0.4837995 0.013011549 -0.082085006 0.25740942 -0.08303618 -0.6493517 0.47476244 -0.39219242 -0.060810868 0.052839495 0.09442134 -0.4036322 -0.53458977 -0.26062226 0.11498856 0.0930975 0.37015268 0.37087327 -0.6572021 0.14549226 -0.19456373 0.23639748 -0.08852796 0.029505664 0.3457696 0.20774834 -0.3568171 -0.048700202 -0.08416638 0.4666878 -0.8235395 -0.17235123 0.118099324 -0.1521524 -0.28149575 0.059859067 0.041883938 -0.22500417 -0.26261947 0.13238455 0.28006735 -0.25503573 -0.26373369 -0.2511834 -0.58978647 0.17032494 -0.671455 0.3576263 -0.17422609 0.7355415 0.29162514 -0.46422043 -0.4456309 -0.26493564 0.22919725 -0.53368765 0.24260674 -0.43122065 0.7580202 -0.11165699 0.24107401 0.51991457 -0.16641554 -0.38309708 0.07649463 -0.44206583 -0.26080477 -0.36982238 -0.02318274 -0.01317816 0.050382532 0.4450651 -0.18221164 -0.08439332 -0.16579878 0.24947692 -0.008514099 -0.23406972 0.7405611 0.2639664 0.33195186 -0.088330075 -0.549261 -0.5053976 -0.15410149 0.17154835 -0.1301453 0.11557266 0.48476183 0.81434727 0.1037086 -0.33426392 0.056224126 -0.07567351 -0.30572495 -0.3458005 0.1038078 -0.24488091 0.21975623 0.35787717 0.2919391 -0.07461599 0.05778848 -0.1477366 -0.5067928 0.18231075 0.3028844 -0.16465802 -0.32874367 0.1848114 -0.31472522 -0.35713276 -0.37186748 0.8323654
?ATC728 -0.0077985376 -0.41791028 -0.0070024407 0.002681815 0.08775523 -0.17753077 -0.2560498 -0.19400737 0.21359071 -0.38103598 0.057244364 -0.15383995 0.12462715 -0.45106182 -0.5610208 0.046428863 -0.19594038 0.14386798 -0.14858648 -0.51171196 0.17533961 -0.099905886 -0.35701162 0.14296338 0.34070978 -0.34961748 -0.40387145 -0.23581189 0.21750893 -0.03195464 -0.3481672 0.464547 -0.7529463 0.24824561 -0.01140585 -0.0064833756 -0.11965348 0.15350996 0.47468755 -0.12656763 -0.03303082 0.33948866 -0.22905502 0.43950206 -0.6234029 -0.3591472 -0.103163265 -0.2533495 0.21738252 0.3499626 -0.23296845 -0.35316312 -0.0822369 0.038627625 0.09157748 -0.5204222 -0.23184931 -0.24333696 -0.4475455 0.21995617 -0.37224063 0.26438382 -0.24136375 0.50352013 0.53860044 -0.14936528 -0.7459316 0.042743932 0.52422523 -0.671039 0.7401148 -0.2547488 0.55524826 0.006718052 0.1370763 0.21995698 -0.060218666 -0.13018702 0.0012082866 -0.30206135 -0.16681182 -0.3540135 -0.18423258 0.0644148 0.046843953 0.17440796 -0.0671753 -0.62142396 -0.02145168 0.081391215 0.35523227 -0.3256846 0.9169714 0.26357508 0.05575494 0.1299383 -0.3030784 -0.062624246 0.013110331 -0.06214812 -0.115641505 0.5354141 0.41913238 0.7060438 0.14524794 -0.22747394 -0.37994036 -0.19250724 -0.44962388 -0.29563913 0.05757054 0.19739674 0.4101237 -0.16157234 0.3227498 0.103133306 0.06571848 -0.22671388 -0.74035895 0.17067808 0.16456276 -0.4396319 -0.08075198 -0.20552215 -0.026186716 -0.057444923 -0.44300458 0.2574648
?AT0079 0.41562718 0.2909183 0.036855087 -0.08205674 -0.57326025 0.15253037 -0.504036 -0.014127671 0.625279 -0.2745815 0.24324998 -0.100119 0.08574736 -0.2511646 0.16008393 0.17092195 0.30402395 0.363576 -0.33910483 -0.58947575 0.3043388 0.113879465 0.6196702 0.020008558 -0.028262202 -0.45313787 -0.69310504 0.094430014 0.13387801 -0.30469966 -0.28074536 -0.108925775 -0.14249882 0.32067454 -0.23972616 0.45494527 -0.0913773 0.18603627 0.2799041 0.16952106 0.084841095 -0.10112835 0.058128122 -0.15677239 -0.065108195 -0.14078267 -0.24509424 0.08053324 0.40408558 0.39453545 -0.07180538 0.66576 -0.44672805 0.54499036 0.2800497 -0.49836245 -0.6630751 0.09458519 -0.017205698 0.5420111 -0.84289473 -0.07592239 0.6092476 -0.30246928 -0.23575988 -0.2378144 -0.26249096 -0.17212927 0.38744193 0.111918196 0.09834875 -0.106107734 0.36911976 -0.41546643 0.06746122 -0.27040672 0.2794617 -0.52640164 -0.2308883 0.11549564 0.03231903 -0.13266866 0.8202252 -0.4780141 -0.33374295 0.21241379 -0.09464625 -0.37846622 0.106331296 0.2897309 -0.18805201 -0.52510506 -0.56148297 0.027820496 0.445789 0.13183098 -0.14913495 0.40581012 0.09523483 0.50701207 0.20975146 0.15995932 -0.19782397 0.16896564 0.37735096 -0.5337892 -0.025321921 -0.19267252 -0.42983833 -0.124392055 -0.33967996 0.13687594 -0.21158947 -0.53023374 0.25614044 -0.7729272 0.13660017 0.23297615 -0.5533555 0.64580053 -0.5758226 0.12365489 -0.29836795 -0.13205777 0.5278754 -0.4244029 -0.10903448 0.4806803
?AT3323 0.12771846 0.08911581 -0.026850114 -0.18125527 -0.21868443 0.05793595 -0.25247613 -0.14991409 0.28915152 0.13822779 0.69592994 0.23356777 0.54649824 -0.15072365 0.17716306 0.37742922 0.3101004 0.14178976 -0.6167401 -0.39561597 0.45329627 0.2679842 0.9456967 0.04017292 0.12945929 -0.33757216 -0.38500497 0.24942903 0.08955708 -0.48270673 -0.12999251 0.06015545 -0.42453524 0.13239753 0.3141643 0.7379229 0.0894033 0.21306859 0.5695871 0.084133744 -0.2087959 -0.22648053 -0.020830607 -0.33220056 -0.23091911 0.12767696 -0.08759815 -0.45536235 0.37173614 0.48533785 -0.4015029 1.0463039 -0.4152703 0.7185252 0.20196286 -0.19456132 -0.31813017 0.66199356 -0.048991486 0.19405875 -0.51075244 -0.42343175 0.31875598 -0.1787514 -0.13061792 -0.24941757 -0.0014938628 -0.23424925 0.3770821 -0.17720276 0.09259486 0.13317847 0.22758816 -0.45659918 0.23445594 -0.14940615 -0.022108082 -0.39267173 -0.14061396 0.18101096 0.28783074 -0.115426525 0.47029936 -0.8046551 -0.09846069 0.259472 -0.30381382 -0.131958 -0.06987193 0.21283399 0.02628828 -0.39503503 -0.42840165 0.054722928 0.7958812 0.2622766 -0.03785684 -0.18997988 -0.06722733 0.12177681 0.11705419 -0.059110347 0.1617284 0.34993568 0.40578255 -0.48273712 0.08207876 -0.15061627 -0.48637405 -0.07311768 -0.101954065 0.16802351 -0.2603065 -0.36620697 -0.1636203 -0.7039776 -0.027334794 0.22329414 -0.72493106 0.27260658 -0.3696669 0.029563257 -0.3775385 0.21448006 0.47159785 -0.35114083 -0.32736978 0.40809426
?AT6605 0.5272951 -0.1068493 -0.04544691 0.1590874 -0.5118348 0.14412646 -0.36567748 -0.015468317 0.5967371 -0.19725923 0.10467966 -0.29112944 -0.36447018 -0.14829768 -0.162549 -0.07801018 0.40633354 0.26810658 -0.43896466 -0.33944038 0.49726892 -0.08876895 0.09556176 -0.061257984 -0.14595936 -0.34061387 -0.8495021 -0.19216846 0.27691588 0.12528183 -0.34080237 -0.52324045 0.08901834 0.197275 -0.057363145 0.25283244 -0.2520496 0.18829355 -0.11030273 0.08377468 0.1260195 -0.055804532 -0.050463825 -0.17704487 -0.38618425 -0.20981452 -0.34880456 0.42794514 0.45337096 0.19391927 -0.062124632 0.2644501 -0.3772805 0.33406547 0.6139725 -0.35467413 -0.7123889 0.0029107488 -1.6907103e-05 0.6675672 -0.89700013 -0.03853994 0.48524854 -0.4516124 -0.019635707 -0.21542805 -0.10490515 -0.018667297 0.09363309 0.051365167 0.23196505 0.009350176 0.22897482 -0.22797006 0.003953104 -0.31481582 0.323986 -0.5103055 -0.15606776 0.37642592 -0.42762157 0.12713653 0.42509347 -0.008558738 0.13626133 0.28122598 -0.16560836 -0.3630782 0.21435165 0.54588675 -0.26371434 -0.30520827 -0.15530577 0.18609144 0.43835387 -0.043463375 -0.22083347 0.39621428 -0.13628295 0.51510817 -0.09273099 0.37715307 -0.15236303 0.12123381 0.47026762 -0.41990733 0.18300962 -0.4025203 -0.44388002 -0.116263926 -0.120995395 0.14009143 -0.10903108 -0.6127041 0.3295981 -0.7195379 0.26755705 -0.096701756 0.058051497 0.17647249 -0.5670282 0.15317215 -0.2500498 -0.13424276 0.47922868 0.10782806 -0.5789604 0.51668674
?AT9642 0.56173545 0.27503216 -0.23767936 0.09167898 -0.6948849 0.15306632 -0.18405616 0.08930983 0.48571116 -0.4766945 0.023633737 -0.10610246 0.08426796 -0.3645134 0.07841474 0.07898226 0.50218457 0.3618558 -0.052156605 -0.5381441 0.10606351 0.060229354 0.40561268 -0.09374346 0.03638725 -0.3205628 -0.60160285 -0.048354056 0.08980107 -0.44444418 -0.12958708 -0.20363186 -0.12684269 0.17374708 -0.56298196 0.54047626 -0.18724377 0.16612595 0.17039327 0.3804456 0.024887886 -0.2799303 0.15109277 -0.15138057 -0.021005636 0.0044090315 -0.47333604 0.067855 0.24801955 0.39404058 -0.20924027 0.7666134 -0.2827509 0.21247366 0.058918152 -0.3452198 -0.88308364 0.017406994 0.037307557 0.74156773 -0.76067406 0.038129684 0.41328347 -0.26177147 -0.21586189 -0.2973021 -0.11725349 -0.21105269 0.24783126 0.10729606 0.21457916 -0.16634028 0.3565981 -0.3782524 0.32544887 -0.28661135 0.5029288 -0.42882836 -0.3580355 -0.062192734 -0.03136903 -0.15483986 0.71156293 -0.76264274 -0.48515555 0.33274865 0.11373787 -0.33910325 0.22307885 0.27324098 0.03224778 -0.743737 -0.51148295 0.4428504 0.26498404 0.45211107 0.071530096 0.5704649 0.23668766 0.540018 0.31301498 0.1475454 -0.24789312 0.14261843 0.61160403 -0.65596586 -0.31145847 0.0145959025 -0.43763453 0.023539634 -0.34446168 0.19745986 -0.2785777 -0.5482173 0.20193797 -0.6052193 -0.011275205 0.24886273 -0.5868205 0.69130373 -0.42660213 0.31862253 -0.22120307 -0.21201453 0.22282968 -0.3225199 -0.10612607 0.31248423
?ATB017 0.661329 0.14584261 -0.3351609 0.08156406 -0.5665488 0.11981472 -0.07098543 0.30414554 0.6130759 -0.45970774 -0.20259467 -0.11288371 -0.04464471 -0.4132404 0.122487724 0.12808812 0.5579952 0.42863682 0.09385825 -0.33898726 -0.028094018 0.21784557 0.00075346837 -0.0076970845 0.03995038 -0.21575657 -0.405033 -0.15863296 0.036184963 -0.3221921 0.11981725 -0.090942524 -0.13558541 0.1748003 -0.6775446 0.38405666 -0.15562159 0.2862043 0.36044294 0.42030087 0.4115677 0.03674406 -0.023698524 -0.0008918162 0.07576495 0.023283256 -0.6374871 0.064495884 0.25893846 0.55376905 -0.1884218 0.47907907 -0.33579576 0.27303293 -0.15951112 -0.32302096 -0.6065977 -0.1123975 -0.18841605 0.45278755 -0.84615314 0.16384009 0.1889942 -0.11736544 -0.30549294 -0.22442609 -0.106607795 -0.017727582 0.16581635 0.2195301 0.115044884 -0.2188158 0.14288469 -0.5314888 0.15478802 -0.13879962 0.3366956 -0.41712925 -0.29889083 0.052328706 -0.24715972 -0.1814067 0.75449777 -0.3227786 -0.705696 0.48247987 0.30663112 -0.2570382 0.19341864 0.20058072 0.05810334 -0.78183687 -0.40106133 0.4415805 -0.030626971 0.48401225 -0.006021575 0.5032936 0.23743056 0.7166944 0.19491659 0.26614213 -0.1298773 0.06477363 0.50628036 -0.35256818 -0.20391825 0.048849035 -0.4830508 0.18451838 -0.23379491 0.31541348 -0.35010085 -0.21144816 0.33338687 -0.38156235 0.117597245 -0.014790848 -0.36644852 0.34915203 -0.13446668 0.46643224 -0.017438227 -0.33945665 -0.041628923 -0.1821016 -0.07669808 0.34438825
?ATB086 0.5584518 0.22611865 0.21021329 0.3433087 -0.14191064 -0.15515712 -0.12601541 0.046932966 0.11053552 -0.061099045 -0.7063389 -0.29694322 0.28677598 0.13547626 -0.01874454 -0.46091217 -0.38038352 -0.08034987 0.12413623 -0.014955234 -0.25133336 0.39461192 -0.26916245 -0.7186506 -0.09990622 0.29145288 0.028542692 -0.023565097 0.6504122 -0.18237607 0.26960754 -0.6258893 0.072566815 0.7699848 -0.31516236 0.005961356 0.13261347 0.14413235 0.44207397 -0.13430819 -0.58478886 0.64334214 -0.6698359 0.47773227 -0.26449925 0.61770046 -0.17639293 -0.5567687 0.08982152 0.1595912 -0.49284303 0.6767265 -0.5709237 -0.08656331 -0.0957978 0.37931433 -0.02027268 0.1815545 -0.33507553 0.13139398 -0.3956154 -0.47014827 -0.7388635 0.42817158 0.08521897 -0.16441339 0.13016814 0.03436943 -0.060622748 -0.47998846 0.11141295 0.29164642 0.9680137 -0.29133955 0.7299476 -0.25120178 -0.20060751 0.22405845 -0.3378882 -0.4385883 -0.3060888 0.25715628 0.26711306 -0.39810625 0.07065202 0.7770612 -0.59682524 -0.024049744 0.43194333 -0.17428665 0.64688194 0.12120775 -0.51606286 0.49091825 0.5962302 0.16129261 -0.18311262 0.35198537 0.046882402 -0.0057295193 -0.19020653 -0.28133446 -0.05500717 0.15409194 0.78311723 0.60803485 -0.15967338 0.24172875 0.123940505 -0.27656516 0.4587069 0.016508019 0.89978373 -0.70524967 0.5713472 -0.53749484 -0.010771147 0.52722305 -0.17530355 -0.03516642 -0.0031889495 0.055700634 0.5445612 -0.3606073 -0.25696263 -0.12406003 -0.3368764 0.038545106
?AT0093 -0.40358186 -0.22011922 -0.38872823 0.26085392 -0.19027746 0.21833915 -0.24368715 -0.7212951 -0.0022342273 -0.030354818 0.014892229 -0.13400757 0.5384754 -0.036046114 -0.31748223 -0.46828142 -0.27073333 0.14645712 0.0835213 0.11498966 -0.32353556 0.25311884 0.059865717 -0.0073725414 0.2558032 -0.427466 -0.30813774 -0.3156681 0.2516202 0.08339431 0.18188462 0.5542876 -0.3687085 -0.02294462 0.36973307 0.25370285 -0.7340725 0.3296924 -0.6345935 0.5036505 -0.10098575 -0.14834765 0.25691923 -0.31983846 0.36107495 0.02822274 -0.2207601 -0.33629674 -0.026849007 0.4562535 0.0031052907 -0.27538854 -0.38865513 0.3939826 -0.32862908 -0.16367544 0.107746586 -0.016111145 0.07968438 0.34232476 -0.40482736 -0.34719503 -0.50875795 0.024759093 0.18488955 -0.44513598 0.0419102 -0.20596147 -0.29628858 0.30227253 0.25906658 0.24376103 0.91028404 -0.3745397 0.572919 -0.18704964 0.25877863 0.11538692 -0.102931716 -0.033966348 -0.4211614 -0.29944205 0.08627537 0.14267127 0.10832509 0.1516281 -0.03753293 0.26540792 0.029219741 0.11306512 0.17864542 0.36069927 -0.21600877 0.17571373 -0.57285434 0.35191005 0.046551816 0.7813732 0.22213055 0.03271793 -0.17175266 -0.09611617 -0.0065452093 0.3394581 -0.08853407 0.2572144 0.45810094 -0.1812305 -0.02771862 0.2001673 0.111504234 -0.2179626 0.17570244 -0.000566214 -0.29380533 -0.53850245 -0.39567244 -0.29629144 -0.05319072 -0.3578063 0.5638692 -0.10956299 -0.079822205 0.29693347 -0.5948273 0.29400632 -0.40164092 -0.27636173
?ATB955 -0.31213248 0.013816168 -0.51131284 0.08731678 -0.4646433 0.1739175 -0.34527647 -0.47466436 0.35541734 0.14057387 -0.21775602 0.44534189 0.18943611 -0.08494096 -0.26369104 -0.049375854 0.002798784 0.28730908 0.1766082 0.34446448 -0.3007813 0.3107703 -0.20047186 -0.18842864 0.16947085 -0.38342515 -0.59362954 -0.19401546 0.26410657 0.15679324 0.22234194 0.2848187 -0.17634712 -0.04705014 0.16124222 -0.13267715 -0.4307312 0.49891126 -0.4966526 0.4480761 -0.02449949 -0.039941233 0.19680741 -0.28021517 0.14886788 -0.052496877 0.25692898 -0.23720774 0.0064299307 0.37179983 0.09430888 -0.33309847 -0.618616 0.7214957 -0.46263653 0.098918915 0.25792736 -0.030211419 0.3081983 0.18852957 -0.65367055 -0.40952596 -0.41545218 0.6318851 0.12255896 -0.32942328 0.06896007 0.22820416 -0.38246307 0.68326396 0.51036793 -0.17304921 0.5419088 -0.044300098 0.6745197 -0.5429169 -0.007773824 -0.110653274 0.03927445 -0.11918735 -0.56181973 -0.3389284 0.056195986 0.10732326 0.19026253 0.048165355 -0.4482225 0.3821529 -0.21148922 -0.3245517 0.189591 0.7415248 -0.19008255 0.7226855 -0.18457407 0.31526414 -0.058264125 0.46923855 0.27023128 0.17864463 0.09991455 0.16566591 0.3128793 0.31980735 0.4325275 0.044795986 0.2665538 -0.053138334 0.11741044 -0.24535656 -0.18391913 -0.31743756 0.47630385 0.14767763 -0.1770633 -0.58113575 -0.61081725 -0.45423004 -0.22488694 -0.2871267 -0.043732528 0.21325195 -0.39742422 0.56314415 -0.15623087 0.13769053 -0.19461502 -0.3221209
?AT8711 -0.33625075 -0.18943284 -0.07502116 0.29629517 0.28115332 0.4076719 -0.09907604 -0.2783529 -0.08435478 -0.4310802 -0.023747975 -0.13595463 0.39943516 0.40537173 -0.3526895 -0.5819557 -0.28009617 0.3847808 -0.2544928 -0.31131864 -0.29989734 0.2573006 0.23224652 -0.28364015 -0.19132791 -0.4088312 -0.27658242 -0.27373117 0.1697909 0.071739435 -0.08164281 0.06655927 -0.59381086 0.2271191 0.29344985 0.60741216 -0.964267 -0.04886934 -1.1680768 0.45653316 -0.13081686 -0.010413947 -0.22575256 -0.10546524 -0.14020774 0.29864103 -0.02579202 -0.055296328 0.14730702 0.24231951 -0.38694936 0.0028259724 -0.53816587 -0.04105987 0.096616104 -0.05837674 0.17774977 -0.27733698 0.20938757 -0.2649013 -0.4104484 -0.34218293 -0.38262942 0.018166933 0.02996996 -0.3059809 0.24592452 -0.19117978 -0.39077 -0.0029818541 0.22467102 0.04926192 0.44066033 -0.25670394 0.34708345 0.29322228 0.112601355 0.0026153016 -0.055625923 0.18758194 -0.43706778 -0.38254392 0.2675199 0.10459278 0.11754032 -0.07223494 0.19843583 0.118531555 -0.0024002125 0.39097336 0.19609615 0.49211213 -0.3201342 0.17831625 -0.35395083 0.6031885 0.10631517 0.742263 0.23750071 0.22518417 -0.005666454 -0.16032627 0.25496975 0.24254553 -0.07893845 0.09706797 0.15129147 -0.030144729 -0.14098662 0.39186198 0.43184078 -0.14480466 0.19822523 -0.33459142 -0.16507815 -0.3783822 -0.16231878 -0.31294325 0.17206621 0.10659944 0.5514466 -0.6521164 0.28332323 0.42463702 -0.18994153 0.13939199 -0.32114634 -0.07492498
?ATD082 -0.1652588 -0.07265463 -0.17567605 -0.02869829 0.09448024 0.65165454 -0.17514467 -0.5766254 -0.15453704 -0.3334708 0.074992664 -0.071522385 0.59280396 0.30597618 -0.30292043 -0.50417626 -0.51788485 0.39684469 -0.26069266 -0.1297286 -0.051774148 0.3511396 0.11738718 -0.08012245 -0.4033539 -0.58787894 -0.2919815 -0.5328761 0.37177888 -0.05464788 0.47035837 0.7326736 -0.20266534 -0.13747992 0.5628833 0.30552003 -0.7903021 0.09516367 -0.65823984 0.52622324 -0.3107264 -0.2132762 0.082194135 -0.14753775 0.23324578 0.04127663 -0.41821545 0.02860061 -0.18476419 0.40442002 0.076505184 0.21166173 -0.24550195 0.31798673 -0.055464234 -0.1277584 0.48487937 -0.18878826 -0.1613208 0.18636549 -0.18330532 -0.30894396 -0.45810246 -0.14681007 0.22244446 -0.445498 0.3985784 -0.20492345 0.18230675 0.214529 0.32249233 0.047431048 0.53147143 -0.3067541 0.6431093 -0.13769168 0.1665732 -0.014155745 -0.1569369 0.0720299 -0.4268438 -0.3472944 -0.014543877 0.12368712 -0.10317171 -0.14882226 0.16410346 0.3649188 0.11583631 0.28650773 0.17307176 0.019114 -0.47753707 0.0005885481 -0.15659055 0.29331514 -0.13470446 0.7903113 0.17858103 0.3173504 0.06952105 0.21912369 -0.0037921178 0.14300789 -0.1619659 0.24942157 0.43226525 -0.1579715 -0.13558002 0.23531915 0.21472919 0.08606377 0.17605747 -0.4121182 0.046711545 -0.3649835 -0.18462236 -0.50206095 -0.04714528 -0.31581748 0.71218944 -0.061062355 0.20057718 0.2927707 -0.00066142366 0.10653806 -0.25638974 -0.15092918
?AT0260 -0.5097546 -0.3683002 -0.5415511 0.40333727 -0.32800514 -0.2328289 -0.104808874 -0.37874028 -0.34772673 0.115777865 -0.057317723 -0.22497451 0.32955086 -0.2755858 -0.42461658 -0.56864196 -0.048698097 0.37278783 -0.13066538 0.24305648 -0.32083613 0.1444429 0.27470794 0.32249546 0.47735173 -0.4011704 -0.3287523 0.043990664 0.21542802 -0.30969393 -0.24988182 0.62086713 -0.57061815 0.35781747 -0.08788249 0.42537266 -0.5031461 0.19885282 -0.07460552 0.30673137 0.3023459 -0.27706078 0.34114438 -0.29182985 0.6041721 -0.016291281 -0.34891894 -0.4364158 0.20560086 0.2971144 -0.0014093592 -0.56880444 -0.31419015 0.3618314 -0.20451915 -0.038048808 -0.025154471 0.08222747 0.021413742 0.035774454 -0.513833 -0.009743155 -0.5244964 0.08367023 0.18764068 -0.25273597 0.026727352 -0.06909662 -0.44376522 0.06793656 0.12974565 0.4616839 0.72315085 -0.53314286 0.4767527 -0.5043753 0.10086669 0.10725256 0.29120404 -0.078169785 -0.5283269 -0.15475047 -0.15503988 -0.08367739 -0.4395774 0.18551092 0.0420272 -0.015086405 0.026819227 0.20628329 0.3363736 -0.12261885 -0.0029900044 -0.012621679 -0.29432884 0.24772844 0.05240547 0.9722448 0.099391565 0.15097523 -0.55623245 -0.34051922 -0.2477389 0.31547776 -0.25746262 0.5366338 0.4406909 -0.13221693 0.024481254 -0.07689121 0.052317597 -0.26828584 0.2783041 0.080408566 0.02472668 -0.026711328 -0.3395401 0.04601976 0.23683256 -0.2944286 0.16521169 0.0066974475 -0.06883759 -0.1438271 -0.5866057 -0.04771075 -0.16312426 0.019442668
?ATA977 -0.59819007 0.100908116 -0.34019426 0.20454636 -0.38975716 -0.059402347 -0.12850457 -0.71799916 -0.20599315 -0.024292845 -0.049047895 -0.5214891 0.451704 -0.09400471 -0.47959286 -0.5121862 -0.21926835 -0.29884782 -0.08142255 0.15843377 -0.42481261 0.24209848 0.129647 0.5235605 0.7463832 -0.38082525 -0.5688736 0.18033536 0.7815221 0.09106104 -0.037419707 0.35737517 -0.3578072 0.064337745 -0.021836989 0.37819332 -0.44653645 0.17847255 -0.05550963 0.6323548 0.21439835 -0.3397221 0.064332396 -0.30708325 0.12712671 -0.0065081366 -0.41065907 -0.3662187 0.019323792 0.9522242 0.028476661 -0.3070244 -0.46488965 0.6033674 -0.100927435 -0.2994484 -0.41187415 -0.17089248 -0.062779404 0.42245394 -0.28398985 -0.24089976 -0.42369995 -0.19619177 0.22789349 -0.53966826 -0.05209746 -0.2515722 -0.47678375 -0.12387459 0.092223644 0.41990745 0.5733106 -0.30101502 0.53870237 -0.2691568 -0.22078541 -0.15248992 0.067513466 -0.1540392 -0.043250654 -0.42186964 -0.030475674 0.13170315 -0.055810258 0.43956688 -0.10503169 0.050208658 0.22730911 0.38124692 0.17882925 0.2947101 -0.016922891 -0.0057527255 -0.48615125 0.17913876 0.20665282 0.63170624 0.274606 0.30007073 -0.5204792 0.15994826 -0.1955327 0.1670277 -0.046978015 0.52741706 0.40207228 -0.21123491 0.14173129 0.26483834 -0.12737525 0.028794147 0.24388494 0.040721 -0.2946475 -0.13659258 -0.40232205 -0.050443914 0.026794821 -0.14443445 0.20487727 -0.039508265 0.041032854 -0.3284121 -0.5989973 0.058019318 -0.39019722 0.07782839
?ATB785 -0.35260513 -0.45964378 -0.35133958 0.5117441 -0.5009748 0.065477565 -0.09480382 -0.35354674 -0.07827511 0.13394524 -0.3722421 -0.19992474 0.1583457 -0.16763614 -0.1756267 -0.33681443 0.117350504 0.06744551 -0.014523361 0.32265776 -0.50405204 0.0107721705 0.1207588 0.27246952 0.27280572 -0.24380417 -0.3692629 -0.13972522 0.54660845 -0.34595174 0.013303455 0.14878328 -0.4352734 -0.12419114 0.065415256 0.35159704 -0.40028477 0.19698137 0.18165295 0.6015922 -0.115589656 -0.054863237 0.24896021 -0.11289458 0.5729094 -0.10490834 -0.20096631 -0.48485354 0.13465588 0.2679629 0.36691442 -0.22180161 -0.7485726 0.37321192 0.037693277 -0.10251824 -0.38855335 0.034618944 0.0636022 0.15883309 -0.49567944 0.17329496 -0.3094931 -0.092709474 0.29514092 -0.5080978 -0.15124479 0.5050531 -0.28267983 -0.33010542 0.14863361 0.705151 0.6693703 -0.37935472 0.34657142 -0.49887717 -0.15691684 0.08551773 0.09878486 -0.31075042 -0.3940441 -0.24252553 0.09192019 0.08214423 0.078924656 0.11416099 -0.1447563 0.29326558 -0.19706218 0.086009406 -0.04771567 0.13229205 -0.0024118093 0.019500956 -0.26281586 -0.032882076 -0.18458188 0.35301974 0.011012212 0.022880374 -0.46626595 -0.011117536 -0.05241611 0.18875799 -0.5496061 0.27588376 0.5120618 0.15101303 0.31384665 0.3593952 0.24023925 -0.07843644 0.19353104 -0.15279576 -0.08658246 0.012293391 -0.41382116 0.048794147 0.30664614 -0.23974721 0.2940813 -0.04443381 0.18204547 0.18732007 -0.49507162 -0.004923206 -0.3815684 -0.16979355
?ATC194 -0.5786123 -0.18352307 -0.33817154 0.38784763 -0.08242333 -0.27767208 0.07075878 -0.34646088 -0.21324553 -0.12360343 -0.16608892 -0.37692565 0.27355278 -0.10990744 -0.54222673 -0.45481047 -0.0949419 -0.29697624 -0.15344742 0.23744105 -0.08159956 0.13540961 0.043208543 0.3880689 0.65323484 -0.35367775 -0.6485674 -0.027614838 0.48571557 -0.0008275757 -0.063245304 0.31730518 -0.5548859 -0.06467123 0.26796517 0.43064755 -0.63468045 0.18529925 -0.074029714 0.1692221 0.0996533 -0.05637902 0.3062137 -0.2193405 0.18236908 -0.22248462 -0.23828137 -0.66334414 0.036475062 0.6140521 0.15346578 -0.19115755 -0.28515157 0.8058443 -0.28929302 -0.5170358 -0.047724027 -0.22452371 -0.056966 0.21875799 -0.44213626 0.0024571964 -0.45898008 -0.07365465 0.044396378 -0.047131184 -0.19950832 -0.19203204 -0.5846926 -0.024385478 0.0820698 0.5909514 0.74550945 -0.49181157 0.8828376 -0.11210252 0.121476956 -0.039790746 -0.10688421 0.05270103 -0.35959446 -0.1316087 0.2001734 0.5090317 0.02841954 0.34537217 -0.33678412 0.39761943 -0.15057512 0.053139575 0.4414834 0.20493631 -0.11399083 0.15017435 -0.24589935 0.3534852 0.01967523 0.5650919 -0.0030145086 0.08197047 -0.25326636 -0.039615005 -0.30322403 0.5112717 -0.4640463 0.29180953 0.29320773 0.062016003 -0.12910339 0.37929863 -0.32639167 0.20690085 0.32578117 0.19571602 -0.22359377 -0.049084593 -0.17936163 0.013123629 0.30509025 -0.43230024 0.59957016 -0.37606102 0.14409436 0.0044258027 -0.6688863 0.5689727 -0.26674297 -0.3019137
